solver_type L2R_L2LOSS_SVC_DUAL
nr_class 2
label 1 2
nr_feature 8320
bias -1
w
-0.003010356747056847 
-0.005501495630375109 
0.02418455955739526 
-0.01037788517491472 
0.009181447845907265 
0 
0.02418455955739526 
0.01037788517491472 
-0.003010356747056847 
0.005501495630375109 
0.003606431471177908 
0.0004020906712405875 
-0.009842134083338923 
0.00688396551378889 
-0.006465908228168683 
0 
-0.009842134083338923 
-0.00688396551378889 
0.003606431471177908 
-0.0004020906712405875 
7.669604472050953e-05 
0.0003196948071205986 
-0.004188958975228745 
0.01024881315217327 
-0.02302555669525984 
0 
-0.004188958975228745 
-0.01024881315217327 
7.669604472050953e-05 
-0.0003196948071205986 
-0.0007644022572071031 
-0.00357768266784148 
0.01279951717159982 
-0.0002773169746276847 
-0.00948416360047823 
0 
0.01279951717159982 
0.0002773169746276847 
-0.0007644022572071031 
0.00357768266784148 
-0.0005299437901947157 
-0.003135641113250116 
-0.005216672568402166 
0.006966089187479484 
-0.006919156222876349 
0 
-0.005216672568402166 
-0.006966089187479484 
-0.0005299437901947157 
0.003135641113250116 
-0.0001167344344918256 
0.004469842370798506 
-0.007431200502327059 
0.008142505664344015 
-0.006891358002870027 
0 
-0.007431200502327059 
-0.008142505664344015 
-0.0001167344344918256 
-0.004469842370798506 
0.007306783708403252 
-0.004240872136668191 
0.01064100553726057 
0.005708780113728626 
0.008632583434990675 
0 
0.01064100553726057 
-0.005708780113728626 
0.007306783708403252 
0.004240872136668191 
0.003776280088827778 
-0.002609334413144804 
0.005109973974122239 
0.008948515550785926 
-0.007802704683393787 
0 
0.005109973974122239 
-0.008948515550785926 
0.003776280088827778 
0.002609334413144804 
0.003676397093569143 
0.005128516057551415 
-0.001530585985881333 
0.002151666523872119 
0.005725032021791022 
0 
-0.001530585985881333 
-0.002151666523872119 
0.003676397093569143 
-0.005128516057551415 
-0.002676873949753426 
0.00124047195415488 
0.002139039991169427 
-0.01520522146259541 
0.01123466556750936 
0 
0.002139039991169427 
0.01520522146259541 
-0.002676873949753426 
-0.00124047195415488 
0.0009847895594787481 
0.006065886033088764 
-0.00384005069424903 
0.01740607066659066 
-0.02686223289236787 
0 
-0.00384005069424903 
-0.01740607066659066 
0.0009847895594787481 
-0.006065886033088764 
0.0005803048090630872 
0.001680826112112855 
0.003456710246465442 
0.006158027317657502 
-0.009819393632809552 
0 
0.003456710246465442 
-0.006158027317657502 
0.0005803048090630872 
-0.001680826112112855 
-0.0007604046919771037 
0.004307657493648092 
-0.012934799256563 
0.005612520024530368 
-0.006062344763948015 
0 
-0.012934799256563 
-0.005612520024530368 
-0.0007604046919771037 
-0.004307657493648092 
0.001150154448046236 
0.0005564000153070793 
-0.008602495762351375 
-0.01741112260621738 
0.01872024056069199 
0 
-0.008602495762351375 
0.01741112260621738 
0.001150154448046236 
-0.0005564000153070793 
-0.0002336231558047238 
-0.002879723887389522 
-0.001829237738510704 
0.00510599990562404 
-0.008484494920699581 
0 
-0.001829237738510704 
-0.00510599990562404 
-0.0002336231558047238 
0.002879723887389522 
-0.001739597743565158 
0.004999399825798329 
-0.01204628627303814 
0.003292695666106075 
-0.007509516697344495 
0 
-0.01204628627303814 
-0.003292695666106075 
-0.001739597743565158 
-0.004999399825798329 
-0.00124498005129906 
-0.005774034989214375 
0.01094513947040845 
-0.008089525483357535 
0.003903621187598032 
0 
0.01094513947040845 
0.008089525483357535 
-0.00124498005129906 
0.005774034989214375 
-0.002507393356557846 
0.000733314020124921 
0.00571308394171146 
-0.007236726910925457 
-0.01493226484478398 
0 
0.00571308394171146 
0.007236726910925457 
-0.002507393356557846 
-0.000733314020124921 
0.004394179353505955 
0.00219375376749431 
-0.007985697121042423 
0.005934936668779962 
-0.02252284009406352 
0 
-0.007985697121042423 
-0.005934936668779962 
0.004394179353505955 
-0.00219375376749431 
-0.0009330378819996843 
0.005714671315696001 
-0.01704657699369914 
-0.001348868678751032 
0.001270757488612669 
0 
-0.01704657699369914 
0.001348868678751032 
-0.0009330378819996843 
-0.005714671315696001 
0.001800186454898383 
-0.008340333036441359 
0.02420561475782056 
-0.006161464680915187 
0.02030744472465014 
0 
0.02420561475782056 
0.006161464680915187 
0.001800186454898383 
0.008340333036441359 
0.002504969326747088 
0.003927514974452598 
-0.01230152587325866 
-0.0006536687527612697 
-0.001616055699252851 
0 
-0.01230152587325866 
0.0006536687527612697 
0.002504969326747088 
-0.003927514974452598 
-0.004729859460427045 
0.005593282580453902 
-0.007969669494373208 
0.01079920013156146 
-0.01754029601865539 
0 
-0.007969669494373208 
-0.01079920013156146 
-0.004729859460427045 
-0.005593282580453902 
-0.00453829849674652 
-0.001492984933737089 
0.003681072751845227 
0.005125715394459756 
-0.007176556158984918 
0 
0.003681072751845227 
-0.005125715394459756 
-0.00453829849674652 
0.001492984933737089 
0.003579769699030593 
-0.0007233873905863514 
0.00768383911870583 
0.00951529684833032 
-0.0006375231441457178 
0 
0.00768383911870583 
-0.00951529684833032 
0.003579769699030593 
0.0007233873905863514 
0.001226034797127391 
-0.006791684509880843 
0.01590098199505044 
0.01407583966519858 
-0.03025285986863538 
0 
0.01590098199505044 
-0.01407583966519858 
0.001226034797127391 
0.006791684509880843 
-7.468274472243712e-05 
-0.007361434774796032 
0.01625933836996332 
0.003955934221849634 
-0.01408092594300661 
0 
0.01625933836996332 
-0.003955934221849634 
-7.468274472243712e-05 
0.007361434774796032 
-0.005168424037601034 
-0.010339356539642 
0.01833473378201836 
0.001731066603464823 
0.003103013158812229 
0 
0.01833473378201836 
-0.001731066603464823 
-0.005168424037601034 
0.010339356539642 
-0.001067948775453724 
-0.0007967617087820076 
0.001424403036478594 
0.01109064380562358 
-0.01854573225092223 
0 
0.001424403036478594 
-0.01109064380562358 
-0.001067948775453724 
0.0007967617087820076 
0.0006899659737063771 
0.00305856120506444 
-0.002262671258510678 
0.004329352864281804 
-0.02008922835544127 
0 
-0.002262671258510678 
-0.004329352864281804 
0.0006899659737063771 
-0.00305856120506444 
0.005221612722678447 
-0.002731615176940781 
0.01493544041811212 
0.001020002091352351 
0.01051613464792619 
0 
0.01493544041811212 
-0.001020002091352351 
0.005221612722678447 
0.002731615176940781 
0.004451007367819637 
0.002941259431489531 
-0.00904333110910868 
0.002923779799882221 
0.004707226026161599 
0 
-0.00904333110910868 
-0.002923779799882221 
0.004451007367819637 
-0.002941259431489531 
0.0008519267494605708 
-0.005052176866082221 
0.008838971090393014 
-0.0002221719021716467 
-0.01037837766060243 
0 
0.008838971090393014 
0.0002221719021716467 
0.0008519267494605708 
0.005052176866082221 
-0.0006185810167142733 
0.001613181358139626 
0.002587438166851259 
-0.004065475043493584 
-0.0004120906081368522 
0 
0.002587438166851259 
0.004065475043493584 
-0.0006185810167142733 
-0.001613181358139626 
-0.004150116717746062 
0.004768553670700444 
0.005065489809714352 
-0.002946924458788108 
-0.009934188243651706 
0 
0.005065489809714352 
0.002946924458788108 
-0.004150116717746062 
-0.004768553670700444 
-0.0004746887232216681 
0.001233049698690526 
0.002933971665305827 
0.004397920738743856 
-0.01097799268406094 
0 
0.002933971665305827 
-0.004397920738743856 
-0.0004746887232216681 
-0.001233049698690526 
-0.0032165784121683 
-0.006108313242100813 
0.01412406125068208 
-0.003856227493858786 
-0.001089736793596079 
0 
0.01412406125068208 
0.003856227493858786 
-0.0032165784121683 
0.006108313242100813 
0.001755276821472807 
0.001439653779290638 
0.001243707588712777 
0.00552764940122367 
-0.01628453301146425 
0 
0.001243707588712777 
-0.00552764940122367 
0.001755276821472807 
-0.001439653779290638 
-8.480764674159337e-05 
-0.000513031674795828 
-0.007049505690015541 
-0.001784470923640638 
0.0009332647179745645 
0 
-0.007049505690015541 
0.001784470923640638 
-8.480764674159337e-05 
0.000513031674795828 
-0.001373615145694164 
-0.002824709826109305 
0.001771230515952785 
0.01036478084798933 
-0.01628862220135976 
0 
0.001771230515952785 
-0.01036478084798933 
-0.001373615145694164 
0.002824709826109305 
0.006669926569455131 
-5.107249876695618e-05 
0.008339094712196821 
0.0009665911685936655 
0.0002157002440271647 
0 
0.008339094712196821 
-0.0009665911685936655 
0.006669926569455131 
5.107249876695618e-05 
-0.0001319949862935137 
0.00101690277167669 
-0.01008607121888565 
0.005613021667580987 
-0.003961757372162599 
0 
-0.01008607121888565 
-0.005613021667580987 
-0.0001319949862935137 
-0.00101690277167669 
-5.472211865783912e-05 
-0.003619267429640739 
0.009196031254198597 
0.02871299408584519 
-0.03606959174758949 
0 
0.009196031254198597 
-0.02871299408584519 
-5.472211865783912e-05 
0.003619267429640739 
0.002653002693058029 
-0.006068496343835025 
0.01487549768189766 
0.009454054180173845 
-0.01232775814840705 
0 
0.01487549768189766 
-0.009454054180173845 
0.002653002693058029 
0.006068496343835025 
0.001932971336267955 
-0.003698494699548465 
0.02002707615311911 
0.006727822204526199 
-0.01179177013929727 
0 
0.02002707615311911 
-0.006727822204526199 
0.001932971336267955 
0.003698494699548465 
0.004151814974764403 
-0.0002751093897346886 
-0.005753129154040775 
0.002121918321479084 
-0.01652070496250174 
0 
-0.005753129154040775 
-0.002121918321479084 
0.004151814974764403 
0.0002751093897346886 
0.003829005585164194 
0.00304661103620268 
0.003439730107495441 
0.02506716269702481 
-0.02500862865790362 
0 
0.003439730107495441 
-0.02506716269702481 
0.003829005585164194 
-0.00304661103620268 
0.006112734917073081 
0.001413324917084471 
0.003374201024846079 
0.01124578229012296 
-0.006491863122735414 
0 
0.003374201024846079 
-0.01124578229012296 
0.006112734917073081 
-0.001413324917084471 
0.002591436185803434 
-0.007239094034124289 
0.0229226826484013 
-0.0002149150000269698 
0.008305406501865434 
0 
0.0229226826484013 
0.0002149150000269698 
0.002591436185803434 
0.007239094034124289 
0.0003265823379921912 
-0.002822541514641885 
0.01981766379528605 
0.02683564975441775 
-0.03214247179075955 
0 
0.01981766379528605 
-0.02683564975441775 
0.0003265823379921912 
0.002822541514641885 
-0.0006634277978739186 
-0.002085103855947229 
0.01798546928057616 
0.01761049815550124 
-0.03767165359074998 
0 
0.01798546928057616 
-0.01761049815550124 
-0.0006634277978739186 
0.002085103855947229 
0.0002568892455656929 
-0.002118887962845604 
0.004924224538436262 
-0.009430740456437209 
0.01330647557420019 
0 
0.004924224538436262 
0.009430740456437209 
0.0002568892455656929 
0.002118887962845604 
0.005067394636587369 
-9.685275079876589e-05 
0.008634520489760041 
0.006198029523174929 
-0.001637337060281266 
0 
0.008634520489760041 
-0.006198029523174929 
0.005067394636587369 
9.685275079876589e-05 
0.005044481902458738 
0.002214955909386892 
0.008951315446294428 
0.02243719434324036 
-0.03339944438037303 
0 
0.008951315446294428 
-0.02243719434324036 
0.005044481902458738 
-0.002214955909386892 
0.002885553633365072 
0.00226916100530729 
0.01347076117399117 
0.02291652981633863 
-0.0363128890715303 
0 
0.01347076117399117 
-0.02291652981633863 
0.002885553633365072 
-0.00226916100530729 
-0.002227708696434706 
-0.002837022032759275 
0.009902386798666549 
-0.006807279079354279 
0.00187408150428287 
0 
0.009902386798666549 
0.006807279079354279 
-0.002227708696434706 
0.002837022032759275 
0.001194960001561508 
-0.0004572539519279247 
0.004859695442152194 
0.003781197478058855 
-0.01192368631532321 
0 
0.004859695442152194 
-0.003781197478058855 
0.001194960001561508 
0.0004572539519279247 
0.002323444521409523 
-0.004866991655802079 
0.01068949395861134 
0.001892339599051657 
-0.01824376926961483 
0 
0.01068949395861134 
-0.001892339599051657 
0.002323444521409523 
0.004866991655802079 
0.003321841909597518 
0.0004889149001348492 
0.003128285329530015 
-0.002775853764909203 
-0.01621069442375537 
0 
0.003128285329530015 
0.002775853764909203 
0.003321841909597518 
-0.0004889149001348492 
-0.001804202751386088 
-0.008098913719428979 
0.01959076077453191 
-0.006710712740822541 
0.01065604949916367 
0 
0.01959076077453191 
0.006710712740822541 
-0.001804202751386088 
0.008098913719428979 
-0.004327184363714756 
-0.0003064470843298822 
0.001053235241072785 
-0.009635691593324726 
-0.002286323308568455 
0 
0.001053235241072785 
0.009635691593324726 
-0.004327184363714756 
0.0003064470843298822 
0.005210451429251072 
0.005280851978733337 
0.002567301251983816 
0.005954771638543392 
-0.03053288050769212 
0 
0.002567301251983816 
-0.005954771638543392 
0.005210451429251072 
-0.005280851978733337 
-0.001582587487607915 
0.00219055868325476 
0.009731702939555744 
-0.0007124966004207071 
-0.01219397490274032 
0 
0.009731702939555744 
0.0007124966004207071 
-0.001582587487607915 
-0.00219055868325476 
-0.004174756291839879 
0.0001733549617920295 
-0.003381979466312174 
-0.01102267381579068 
-0.0006733252087870296 
0 
-0.003381979466312174 
0.01102267381579068 
-0.004174756291839879 
-0.0001733549617920295 
-0.001107599699150927 
0.001405366091589457 
-0.01128112844076692 
0.0005247987859785058 
-0.01272714276537724 
0 
-0.01128112844076692 
-0.0005247987859785058 
-0.001107599699150927 
-0.001405366091589457 
-8.100877578970252e-05 
0.001011241947482257 
0.002117830259524749 
0.008135338628608926 
-0.007027194229961967 
0 
0.002117830259524749 
-0.008135338628608926 
-8.100877578970252e-05 
-0.001011241947482257 
0.001160628051032962 
0.006229688663786255 
-0.003896762862867339 
-0.003322004933223838 
-0.009921032763486073 
0 
-0.003896762862867339 
0.003322004933223838 
0.001160628051032962 
-0.006229688663786255 
-0.0007388453084894106 
-0.00238212059847808 
0.003770654062545845 
-0.002987315221892678 
-0.009379949436126132 
0 
0.003770654062545845 
0.002987315221892678 
-0.0007388453084894106 
0.00238212059847808 
-0.002068008545505501 
0.003315748613377707 
0.00570440233193644 
0.002444595742488573 
-0.01434775201215502 
0 
0.00570440233193644 
-0.002444595742488573 
-0.002068008545505501 
-0.003315748613377707 
0.002187656478117321 
-0.002518893307892075 
-0.0001085026744396038 
0.01544717755608524 
-0.02711174535764554 
0 
-0.0001085026744396038 
-0.01544717755608524 
0.002187656478117321 
0.002518893307892075 
-0.0008988008607287988 
0.005545762148980794 
-0.00991201595824864 
-0.0212416403445654 
0.009869342071510417 
0 
-0.00991201595824864 
0.0212416403445654 
-0.0008988008607287988 
-0.005545762148980794 
0.007969462287153676 
-0.004721328160371217 
0.01370097858237094 
0.002802153615987081 
0.006649559194173984 
0 
0.01370097858237094 
-0.002802153615987081 
0.007969462287153676 
0.004721328160371217 
0.008944104688561156 
-0.0008199214497842305 
-0.0008666179848061176 
0.01028752519896964 
-0.006861474737558335 
0 
-0.0008666179848061176 
-0.01028752519896964 
0.008944104688561156 
0.0008199214497842305 
0.002338597437626303 
0.002266912369787969 
0.007056435931112919 
0.004017735547522543 
-0.01741435773361227 
0 
0.007056435931112919 
-0.004017735547522543 
0.002338597437626303 
-0.002266912369787969 
0.001928899689477754 
-0.0007808122660465689 
0.004926909777220967 
0.002621617295808792 
-0.02029734549413414 
0 
0.004926909777220967 
-0.002621617295808792 
0.001928899689477754 
0.0007808122660465689 
-0.0006027513485628581 
-0.007103977123844029 
0.026183078439731 
-0.007018549835135302 
0.006295972433926529 
0 
0.026183078439731 
0.007018549835135302 
-0.0006027513485628581 
0.007103977123844029 
0.002647372713435911 
-0.003928823147036712 
0.002624146795629835 
0.00992610438714263 
-0.01174182308328787 
0 
0.002624146795629835 
-0.00992610438714263 
0.002647372713435911 
0.003928823147036712 
0.003894345480400564 
-0.003387969628093776 
0.01017274817710482 
0.01558477388657921 
-0.02902736250857 
0 
0.01017274817710482 
-0.01558477388657921 
0.003894345480400564 
0.003387969628093776 
0.00166183568400728 
0.003271989423758804 
-0.008035373381270902 
0.01204985522351497 
-0.01361064072069287 
0 
-0.008035373381270902 
-0.01204985522351497 
0.00166183568400728 
-0.003271989423758804 
0.002235284986695691 
6.419668908655018e-05 
0.002485634626463656 
-0.002034572685136106 
-0.002880095810159794 
0 
0.002485634626463656 
0.002034572685136106 
0.002235284986695691 
-6.419668908655018e-05 
-0.004356343690830769 
-0.005854346472243356 
0.01493880223780255 
-0.01241418207981524 
0.01242898291809213 
0 
0.01493880223780255 
0.01241418207981524 
-0.004356343690830769 
0.005854346472243356 
0.002116976422028159 
0.0005614121478014577 
0.008261722211713273 
0.0166336755446986 
-0.02217147470542486 
0 
0.008261722211713273 
-0.0166336755446986 
0.002116976422028159 
-0.0005614121478014577 
0.002035459332270062 
-0.0003615934964253894 
0.01318178687160931 
0.02415030993094349 
-0.0290929474727552 
0 
0.01318178687160931 
-0.02415030993094349 
0.002035459332270062 
0.0003615934964253894 
0.007637551168172202 
-0.0101407464701017 
0.03124843725359911 
-0.005286236878359525 
0.0223756223532892 
0 
0.03124843725359911 
0.005286236878359525 
0.007637551168172202 
0.0101407464701017 
-0.004793585557135129 
0.001086121154806059 
-0.01941574209826567 
0.002418765937603061 
-0.0205702608743891 
0 
-0.01941574209826567 
-0.002418765937603061 
-0.004793585557135129 
-0.001086121154806059 
-0.005546882379774725 
-0.005612858808277816 
0.01862511562303294 
0.01822270841501254 
-0.03217261517988011 
0 
0.01862511562303294 
-0.01822270841501254 
-0.005546882379774725 
0.005612858808277816 
0.0005498034342432227 
-0.003588663555920994 
0.004898344161057264 
0.04165791881185187 
-0.03579631692311985 
0 
0.004898344161057264 
-0.04165791881185187 
0.0005498034342432227 
0.003588663555920994 
0.007497539167780611 
-0.0009150045412474017 
0.008282477465058592 
0.00772613033891126 
-0.002346459810906812 
0 
0.008282477465058592 
-0.00772613033891126 
0.007497539167780611 
0.0009150045412474017 
-0.001566180794353213 
-0.005393502391794746 
0.007662961317365432 
0.006901271065754486 
-0.01125780923148361 
0 
0.007662961317365432 
-0.006901271065754486 
-0.001566180794353213 
0.005393502391794746 
-0.0009063040266520907 
-0.0004996766978804367 
0.0008722620584905367 
0.01605813498836293 
-0.0214534814482308 
0 
0.0008722620584905367 
-0.01605813498836293 
-0.0009063040266520907 
0.0004996766978804367 
0.0002536012833198908 
-0.00163459661085258 
0.002682490347399495 
0.005753666558939296 
-0.01992909311567631 
0 
0.002682490347399495 
-0.005753666558939296 
0.0002536012833198908 
0.00163459661085258 
-0.002031460876017304 
-0.005570161688844903 
0.01208753952158754 
-0.0108270975806425 
0.003676248636641393 
0 
0.01208753952158754 
0.0108270975806425 
-0.002031460876017304 
0.005570161688844903 
0.001600956476385247 
-0.002955804138549637 
0.006250034621109498 
-0.002803672397812684 
0.004391705593972442 
0 
0.006250034621109498 
0.002803672397812684 
0.001600956476385247 
0.002955804138549637 
0.0003046298044964339 
0.001704195774754777 
0.003401733343118825 
0.006132808000599169 
-0.01799525396625402 
0 
0.003401733343118825 
-0.006132808000599169 
0.0003046298044964339 
-0.001704195774754777 
0.002460948317235808 
0.003578456710956002 
0.008618168548382658 
0.008160333790624136 
-0.008995788089362066 
0 
0.008618168548382658 
-0.008160333790624136 
0.002460948317235808 
-0.003578456710956002 
0.002304436522119187 
-0.0008953402519507843 
-0.002957785608742086 
0.008259667697279221 
-0.009183799370422747 
0 
-0.002957785608742086 
-0.008259667697279221 
0.002304436522119187 
0.0008953402519507843 
0.0001600687300213704 
0.002370077251563228 
0.001485067931872421 
0.00291805217608094 
-0.008023793774312466 
0 
0.001485067931872421 
-0.00291805217608094 
0.0001600687300213704 
-0.002370077251563228 
0.0002915592666772758 
-0.001611065939924418 
-0.002535288278122774 
0.007205861505204836 
0.008629372785332878 
0 
-0.002535288278122774 
-0.007205861505204836 
0.0002915592666772758 
0.001611065939924418 
-0.001103839920025507 
0.001508895577738615 
0.00755785119920539 
-0.001822993315969701 
0.01552186654271583 
0 
0.00755785119920539 
0.001822993315969701 
-0.001103839920025507 
-0.001508895577738615 
-0.002259081400128842 
0.002675516395046265 
0.007061621841083105 
-0.01310124672099412 
-0.0003863203717972614 
0 
0.007061621841083105 
0.01310124672099412 
-0.002259081400128842 
-0.002675516395046265 
-0.003268466977109347 
0.002927430210431721 
-0.006146071376476057 
-0.0004018912744944514 
-0.01262452166063225 
0 
-0.006146071376476057 
0.0004018912744944514 
-0.003268466977109347 
-0.002927430210431721 
-0.001335698807287191 
0.003572621522156191 
-0.004867968864617702 
0.017099977079719 
-0.02370069443482333 
0 
-0.004867968864617702 
-0.017099977079719 
-0.001335698807287191 
-0.003572621522156191 
-0.004743722023261571 
0.001747884742480976 
0.00507627557219809 
0.006859297235098584 
-0.008847507962807843 
0 
0.00507627557219809 
-0.006859297235098584 
-0.004743722023261571 
-0.001747884742480976 
0.002261991464910445 
-0.002158519272783569 
0.003080628125360682 
0.002609766157503975 
0.0004106031412201178 
0 
0.003080628125360682 
-0.002609766157503975 
0.002261991464910445 
0.002158519272783569 
0.001345873437520325 
0.003081577384325041 
0.003898856131741049 
-0.007352770490823001 
0.003557470840365379 
0 
0.003898856131741049 
0.007352770490823001 
0.001345873437520325 
-0.003081577384325041 
-0.008428220422975547 
0.001115021984668156 
-2.977007302237384e-05 
-0.007591930955102833 
0.0003232197347899684 
0 
-2.977007302237384e-05 
0.007591930955102833 
-0.008428220422975547 
-0.001115021984668156 
-0.001225965381187633 
0.002312350710639069 
-0.001790798787789607 
0.005898475631610418 
-0.006452705985884753 
0 
-0.001790798787789607 
-0.005898475631610418 
-0.001225965381187633 
-0.002312350710639069 
0.0003628148206638262 
0.006594931263792221 
0.002440582104895514 
0.001326950843472665 
-0.01040327174132459 
0 
0.002440582104895514 
-0.001326950843472665 
0.0003628148206638262 
-0.006594931263792221 
-0.00577661550189421 
-0.001457748142876589 
0.008301309036466914 
-0.002577669911612927 
-0.006102018413631051 
0 
0.008301309036466914 
0.002577669911612927 
-0.00577661550189421 
0.001457748142876589 
-0.0005541933486593058 
0.002799783817031961 
0.007989222006954483 
0.00439638167849547 
-0.02593946002443354 
0 
0.007989222006954483 
-0.00439638167849547 
-0.0005541933486593058 
-0.002799783817031961 
0.002276548225325734 
0.002506465811458617 
0.002808239476364177 
0.01755039098021458 
-0.0194477543108837 
0 
0.002808239476364177 
-0.01755039098021458 
0.002276548225325734 
-0.002506465811458617 
0.005257558725952282 
0.001276561210055389 
0.003577924292963766 
0.004988614946191099 
-0.002960671763649965 
0 
0.003577924292963766 
-0.004988614946191099 
0.005257558725952282 
-0.001276561210055389 
-0.001216980011488518 
0.000284162556717008 
0.006489936534346341 
-0.02491053914153244 
0.02487405686405959 
0 
0.006489936534346341 
0.02491053914153244 
-0.001216980011488518 
-0.000284162556717008 
-0.005726910934805251 
0.003992350334270989 
0.0007109550808061563 
0.008634720845194949 
-0.01569998527545332 
0 
0.0007109550808061563 
-0.008634720845194949 
-0.005726910934805251 
-0.003992350334270989 
-0.005975797159709977 
0.004448582689289597 
-0.008917721888947858 
-0.002133366136895995 
-0.006754613684404299 
0 
-0.008917721888947858 
0.002133366136895995 
-0.005975797159709977 
-0.004448582689289597 
-0.002776523712624549 
-0.000904819306389228 
0.01577923175830627 
-0.02120251441961558 
0.02411937847211315 
0 
0.01577923175830627 
0.02120251441961558 
-0.002776523712624549 
0.000904819306389228 
-0.006942835597007486 
-0.00176912743026431 
0.005947032581674934 
-0.01822660931986429 
0.008009746179093927 
0 
0.005947032581674934 
0.01822660931986429 
-0.006942835597007486 
0.00176912743026431 
0.003860582235566072 
0.001408974218467806 
-0.005369922493330776 
0.007249137157087485 
-0.01251013218102562 
0 
-0.005369922493330776 
-0.007249137157087485 
0.003860582235566072 
-0.001408974218467806 
0.005295959379339328 
0.004574553872905344 
-0.01668499830411824 
0.02089856626154281 
-0.02862308954321866 
0 
-0.01668499830411824 
-0.02089856626154281 
0.005295959379339328 
-0.004574553872905344 
-0.002978669471064212 
0.003100082183899483 
0.002653949297210356 
-0.007323612313469596 
0.001142986279485756 
0 
0.002653949297210356 
0.007323612313469596 
-0.002978669471064212 
-0.003100082183899483 
0.004668364169087036 
0.001283071068746665 
-0.003587203379127166 
0.003850412932769453 
-0.005151583713602825 
0 
-0.003587203379127166 
-0.003850412932769453 
0.004668364169087036 
-0.001283071068746665 
-0.002378771110939582 
-0.002086268199621262 
0.008527475172119813 
-0.01308972452519457 
0.007537749429909975 
0 
0.008527475172119813 
0.01308972452519457 
-0.002378771110939582 
0.002086268199621262 
0.0015772403332667 
0.001249410423651678 
0.01550744020888688 
-0.01203431005451607 
0.01357151671205762 
0 
0.01550744020888688 
0.01203431005451607 
0.0015772403332667 
-0.001249410423651678 
0.001178926055613407 
-0.001032081667487519 
-0.001441049530768864 
-0.007672416331296679 
-0.009325224877942222 
0 
-0.001441049530768864 
0.007672416331296679 
0.001178926055613407 
0.001032081667487519 
-0.003446994962684223 
-0.001184778755788148 
0.004800282097302816 
-0.0009113222682870803 
-0.01842135469294615 
0 
0.004800282097302816 
0.0009113222682870803 
-0.003446994962684223 
0.001184778755788148 
0.002808235999636618 
-0.001250214642958917 
0.00654993772843149 
0.009673918761262969 
-0.01893233743001776 
0 
0.00654993772843149 
-0.009673918761262969 
0.002808235999636618 
0.001250214642958917 
-0.001876859218461018 
-0.001625279437460581 
0.00808411228712988 
0.02032187521866829 
-0.028262656495767 
0 
0.00808411228712988 
-0.02032187521866829 
-0.001876859218461018 
0.001625279437460581 
-0.002830683427797383 
0.004587461476094608 
-0.007998987638699233 
-0.0003068730992273976 
-0.008749218583637411 
0 
-0.007998987638699233 
0.0003068730992273976 
-0.002830683427797383 
-0.004587461476094608 
-0.001861738133203142 
-0.005206871786717448 
0.008529577060740924 
-0.001630716036116359 
0.002647314038104048 
0 
0.008529577060740924 
0.001630716036116359 
-0.001861738133203142 
0.005206871786717448 
-0.003946939658392664 
-0.001888213536676757 
0.0007729681116249257 
-0.0047853680638573 
0.008195697864192863 
0 
0.0007729681116249257 
0.0047853680638573 
-0.003946939658392664 
0.001888213536676757 
0.001070947270379274 
-0.00269867159750811 
-0.001261176776206888 
0.002202815531392583 
0.0008330291521591112 
0 
-0.001261176776206888 
-0.002202815531392583 
0.001070947270379274 
0.00269867159750811 
-0.001170484514475042 
0.001308138826236982 
0.002908301428734409 
0.003146396170360574 
-0.01266077346872561 
0 
0.002908301428734409 
-0.003146396170360574 
-0.001170484514475042 
-0.001308138826236982 
-0.002875236108748478 
0.001960973118189574 
-0.01953130069065969 
0.009829062990182836 
-0.00388518967654922 
0 
-0.01953130069065969 
-0.009829062990182836 
-0.002875236108748478 
-0.001960973118189574 
-0.008852676904698499 
0.003728541373932496 
-0.002095451421571453 
-0.006535042295084953 
6.241419175478878e-05 
0 
-0.002095451421571453 
0.006535042295084953 
-0.008852676904698499 
-0.003728541373932496 
0.009032266337881456 
0.001089256369653531 
0.02302775597590789 
-0.0096504411495358 
0.0530147507692149 
0 
0.02302775597590789 
0.0096504411495358 
0.009032266337881456 
-0.001089256369653531 
0.002067610075667131 
0.003426421142806225 
-0.01084825970021278 
0.00810687239173538 
-0.01215139358498226 
0 
-0.01084825970021278 
-0.00810687239173538 
0.002067610075667131 
-0.003426421142806225 
-0.005329596555837352 
-0.005073884261332064 
0.01230182265007144 
0.006292998332054743 
-0.001573653445669387 
0 
0.01230182265007144 
-0.006292998332054743 
-0.005329596555837352 
0.005073884261332064 
-0.001723596232942834 
-0.002103108594146943 
0.002657319611487269 
0.0007110604825662397 
-0.001800562027633186 
0 
0.002657319611487269 
-0.0007110604825662397 
-0.001723596232942834 
0.002103108594146943 
-0.003998597241523104 
0.0006306877910533089 
0.0009695632919143715 
-0.01336248723252103 
-0.005625279640244743 
0 
0.0009695632919143715 
0.01336248723252103 
-0.003998597241523104 
-0.0006306877910533089 
-0.006737830953188481 
0.002319864631366219 
0.003372049895198304 
-0.005423254485343418 
-0.006682157131884373 
0 
0.003372049895198304 
0.005423254485343418 
-0.006737830953188481 
-0.002319864631366219 
-0.003907909835341019 
0.001382364623841604 
-0.007245358319911421 
0.01437145894161145 
-0.01674397668754054 
0 
-0.007245358319911421 
-0.01437145894161145 
-0.003907909835341019 
-0.001382364623841604 
0.005259190302679246 
0.0002347733076083493 
-7.033589614222114e-05 
0.01028457639110915 
-0.00938485461369736 
0 
-7.033589614222114e-05 
-0.01028457639110915 
0.005259190302679246 
-0.0002347733076083493 
0.00862294782492971 
0.006310399757852283 
0.01200250782769417 
-0.00271424487245191 
0.0369213127464439 
0 
0.01200250782769417 
0.00271424487245191 
0.00862294782492971 
-0.006310399757852283 
0.003630904779272886 
-0.006990792701404395 
0.009601924458567565 
0.01491309577793213 
-0.008278640164887781 
0 
0.009601924458567565 
-0.01491309577793213 
0.003630904779272886 
0.006990792701404395 
-0.001081547577271427 
-0.00107814241803444 
-0.008460543287527477 
0.001092697972126987 
-0.004002003856624549 
0 
-0.008460543287527477 
-0.001092697972126987 
-0.001081547577271427 
0.00107814241803444 
0.001836889283849767 
0.002578956386738802 
-0.01168462785764723 
0.003603642654280217 
-0.00704533101028709 
0 
-0.01168462785764723 
-0.003603642654280217 
0.001836889283849767 
-0.002578956386738802 
0.001532391551845005 
0.002935681223569114 
-0.004655830262823408 
-0.004036355779517609 
-0.008647190326597547 
0 
-0.004655830262823408 
0.004036355779517609 
0.001532391551845005 
-0.002935681223569114 
-0.001040975370906513 
-0.002552565991981815 
0.004280115669937553 
-0.007931312689033255 
0.005000361549882011 
0 
0.004280115669937553 
0.007931312689033255 
-0.001040975370906513 
0.002552565991981815 
-0.001354800925734408 
-0.002800323153902637 
0.006761516073747579 
-0.00123574004959778 
0.01394119169296451 
0 
0.006761516073747579 
0.00123574004959778 
-0.001354800925734408 
0.002800323153902637 
-0.001202818587026409 
0.005456992991844178 
0.001571017611680173 
0.002898669420094347 
-0.002381134988734681 
0 
0.001571017611680173 
-0.002898669420094347 
-0.001202818587026409 
-0.005456992991844178 
0.008199902952687792 
0.001138914472665878 
0.01498416908011159 
0.01144707072110546 
0.01936418430727502 
0 
0.01498416908011159 
-0.01144707072110546 
0.008199902952687792 
-0.001138914472665878 
-0.0006442804192490516 
0.004331410993187529 
-0.01447057988774057 
-0.001019158815731037 
-0.009745115504930154 
0 
-0.01447057988774057 
0.001019158815731037 
-0.0006442804192490516 
-0.004331410993187529 
-0.0004608231453536054 
-0.003181228592962894 
0.005874332037542704 
0.0005845112700516324 
-0.002161039603693357 
0 
0.005874332037542704 
-0.0005845112700516324 
-0.0004608231453536054 
0.003181228592962894 
0.001088719469502128 
0.004537521157581755 
-0.0100186658002318 
0.008271493091679405 
-0.01291853919029996 
0 
-0.0100186658002318 
-0.008271493091679405 
0.001088719469502128 
-0.004537521157581755 
-0.001818668467584778 
-0.000419980528060606 
0.006491148083936127 
-0.003833721428635578 
-0.004545630295357767 
0 
0.006491148083936127 
0.003833721428635578 
-0.001818668467584778 
0.000419980528060606 
-0.0009070404132182897 
-0.0007698270794575054 
-0.002992392686015183 
-0.0011493371178092 
-0.001867768599059591 
0 
-0.002992392686015183 
0.0011493371178092 
-0.0009070404132182897 
0.0007698270794575054 
-0.001901993183133023 
0.0008618584500300417 
-0.01047554183031943 
0.009834787492537635 
-0.00414260619812091 
0 
-0.01047554183031943 
-0.009834787492537635 
-0.001901993183133023 
-0.0008618584500300417 
0.001810961842546345 
-0.001929168312150748 
0.001419838226782194 
-0.0008156292268788727 
-0.001388818127030152 
0 
0.001419838226782194 
0.0008156292268788727 
0.001810961842546345 
0.001929168312150748 
0.002424611510690501 
-0.008272435269521277 
0.01347478884420623 
0.002193905464998308 
0.01215543021050093 
0 
0.01347478884420623 
-0.002193905464998308 
0.002424611510690501 
0.008272435269521277 
0.0005344622339458711 
0.002025857044880557 
0.00843285488626557 
-0.002169891864633282 
2.654471636036954e-05 
0 
0.00843285488626557 
0.002169891864633282 
0.0005344622339458711 
-0.002025857044880557 
-0.0007769017375789427 
-0.00667652260318831 
0.0120162417344532 
-0.0005654725737364424 
0.02337519990843185 
0 
0.0120162417344532 
0.0005654725737364424 
-0.0007769017375789427 
0.00667652260318831 
0.0002028971124073021 
0.001831766595640329 
-0.02177175209283335 
-0.0002345212481202825 
0.01322227941795011 
0 
-0.02177175209283335 
0.0002345212481202825 
0.0002028971124073021 
-0.001831766595640329 
-0.0003692785822134413 
-0.005416532329625317 
0.0006591954886097059 
-0.004920252145395499 
0.02074837165616853 
0 
0.0006591954886097059 
0.004920252145395499 
-0.0003692785822134413 
0.005416532329625317 
-0.002167970726587583 
-0.004086694346230008 
0.001414543575199375 
0.005413766378859596 
0.003884305222497541 
0 
0.001414543575199375 
-0.005413766378859596 
-0.002167970726587583 
0.004086694346230008 
0.003842274137128264 
-0.005433980700876543 
-0.004061701024022596 
0.006600258844884449 
0.01444433750873113 
0 
-0.004061701024022596 
-0.006600258844884449 
0.003842274137128264 
0.005433980700876543 
0.001918135540701775 
0.0001222634488908503 
-0.00806858613247379 
0.01164461327527321 
-0.01692856484118902 
0 
-0.00806858613247379 
-0.01164461327527321 
0.001918135540701775 
-0.0001222634488908503 
-0.001696535528181287 
-0.004448292845677555 
-7.902925532583729e-05 
-0.005816726049601409 
0.02234850633446255 
0 
-7.902925532583729e-05 
0.005816726049601409 
-0.001696535528181287 
0.004448292845677555 
-0.0006654146786421682 
-0.0009803620735156036 
-0.005517849634735792 
-0.00820046615777705 
0.01950175472261054 
0 
-0.005517849634735792 
0.00820046615777705 
-0.0006654146786421682 
0.0009803620735156036 
0.002810949472662248 
-0.005956049835199162 
0.01409481521818999 
-0.008003889078198021 
0.01871205866402685 
0 
0.01409481521818999 
0.008003889078198021 
0.002810949472662248 
0.005956049835199162 
0.007337745173487023 
0.002770407400139712 
-0.02275575222450662 
0.01118666728740893 
0.00666276145898856 
0 
-0.02275575222450662 
-0.01118666728740893 
0.007337745173487023 
-0.002770407400139712 
-0.001820963828326255 
-0.005025755246000465 
0.008986589414533988 
0.01482977590536277 
-0.005290659170779408 
0 
0.008986589414533988 
-0.01482977590536277 
-0.001820963828326255 
0.005025755246000465 
0.005515301822320936 
-0.002871127646505594 
0.003866706181812015 
-0.00799491569399593 
0.01298248134295718 
0 
0.003866706181812015 
0.00799491569399593 
0.005515301822320936 
0.002871127646505594 
-0.004378549413147905 
-2.449181045807001e-05 
-0.003778104059079938 
-0.01309559436242082 
0.0126233894763819 
0 
-0.003778104059079938 
0.01309559436242082 
-0.004378549413147905 
2.449181045807001e-05 
0.001336369866687587 
0.00119672383243445 
-0.003740984293015284 
0.00239899617422554 
-0.003531588819307072 
0 
-0.003740984293015284 
-0.00239899617422554 
0.001336369866687587 
-0.00119672383243445 
-0.001046564453753355 
0.002215401038639411 
-0.01233844873498775 
0.01788227086646678 
-0.01899462032621386 
0 
-0.01233844873498775 
-0.01788227086646678 
-0.001046564453753355 
-0.002215401038639411 
-0.001903380241828449 
0.002799493281471473 
-0.003335712116654432 
-0.005371196228004352 
-0.000126593798140189 
0 
-0.003335712116654432 
0.005371196228004352 
-0.001903380241828449 
-0.002799493281471473 
0.003377635216366214 
-0.001723905732081604 
0.003868802998239042 
-0.003967388421960582 
0.01213610472651059 
0 
0.003868802998239042 
0.003967388421960582 
0.003377635216366214 
0.001723905732081604 
-0.004682125051253774 
-0.0005105041684404625 
0.0007073974653814069 
-0.01472793816838801 
0.02898183959699341 
0 
0.0007073974653814069 
0.01472793816838801 
-0.004682125051253774 
0.0005105041684404625 
0.0004017673602647468 
-0.002703659158786028 
0.0004338494448855722 
0.00675512766268838 
-0.01059655294440576 
0 
0.0004338494448855722 
-0.00675512766268838 
0.0004017673602647468 
0.002703659158786028 
-0.001216598635904317 
0.003831981229420798 
-0.01124171791151993 
0.01032515493009873 
-0.022522991953433 
0 
-0.01124171791151993 
-0.01032515493009873 
-0.001216598635904317 
-0.003831981229420798 
0.005044718015407099 
0.0008722524560090828 
-0.002971008702107264 
0.01499336502118838 
0.002514011786328907 
0 
-0.002971008702107264 
-0.01499336502118838 
0.005044718015407099 
-0.0008722524560090828 
-0.005824789779106537 
-0.002408537092734772 
-0.005060789128663654 
-0.01781197938592632 
0.03080279260835618 
0 
-0.005060789128663654 
0.01781197938592632 
-0.005824789779106537 
0.002408537092734772 
-0.000939308913853615 
-0.005848817500178805 
0.005049560688882865 
0.01536564260579756 
-0.01023120603053811 
0 
0.005049560688882865 
-0.01536564260579756 
-0.000939308913853615 
0.005848817500178805 
0.002275718775051598 
-0.0007802492756313372 
0.0002455652134851972 
0.007260577125931683 
-0.01454630984752034 
0 
0.0002455652134851972 
-0.007260577125931683 
0.002275718775051598 
0.0007802492756313372 
0.006795660168802461 
0.0008264381671446141 
-0.005007755100891884 
0.0037173545813484 
0.006551144947494847 
0 
-0.005007755100891884 
-0.0037173545813484 
0.006795660168802461 
-0.0008264381671446141 
-0.000446632553328644 
-0.002217015409314615 
0.0003739705891109813 
-0.01975138627674698 
0.031180098633387 
0 
0.0003739705891109813 
0.01975138627674698 
-0.000446632553328644 
0.002217015409314615 
0.004212312581377956 
0.005095234860391318 
-0.02221372430259503 
0.01239076482227446 
-0.0175289167132372 
0 
-0.02221372430259503 
-0.01239076482227446 
0.004212312581377956 
-0.005095234860391318 
0.003010392037418328 
-0.001463857406367729 
0.00194179896331244 
0.006484826268160924 
-0.005365304760861992 
0 
0.00194179896331244 
-0.006484826268160924 
0.003010392037418328 
0.001463857406367729 
-0.002240034883602103 
-0.0002794205757789731 
-0.0199116202448101 
0.006526839289851176 
-0.005968247044421137 
0 
-0.0199116202448101 
-0.006526839289851176 
-0.002240034883602103 
0.0002794205757789731 
0.003830749518833316 
-0.0007157593230626956 
-0.005355812011129777 
-0.01256257383619618 
0.03987070308073587 
0 
-0.005355812011129777 
0.01256257383619618 
0.003830749518833316 
0.0007157593230626956 
0.002625016493588148 
0.004423807779338668 
0.005982399511818032 
0.007864840508680982 
0.003818710130696894 
0 
0.005982399511818032 
-0.007864840508680982 
0.002625016493588148 
-0.004423807779338668 
0.001572961946723252 
0.004560797279917585 
-0.01577013337503508 
0.0008660067089576418 
-0.0137179340131712 
0 
-0.01577013337503508 
-0.0008660067089576418 
0.001572961946723252 
-0.004560797279917585 
-0.0005029135361228872 
-0.0005858458392508191 
-0.002748393012212754 
-0.0009550933589822717 
0.00450970024031663 
0 
-0.002748393012212754 
0.0009550933589822717 
-0.0005029135361228872 
0.0005858458392508191 
0.004044295436951835 
0.004251413922144774 
-0.01104713285480922 
0.002242093578216545 
0.01510531937168788 
0 
-0.01104713285480922 
-0.002242093578216545 
0.004044295436951835 
-0.004251413922144774 
-9.893306190046085e-05 
-0.005301787738987559 
-0.002113567141518564 
-0.001270389037444775 
0.00895386516085587 
0 
-0.002113567141518564 
0.001270389037444775 
-9.893306190046085e-05 
0.005301787738987559 
0.00152708632407051 
3.040955627104823e-05 
-0.007416630344841279 
0.001922885255426792 
-0.006208196576227808 
0 
-0.007416630344841279 
-0.001922885255426792 
0.00152708632407051 
-3.040955627104823e-05 
0.001066145324545203 
0.001963415331880697 
-0.008513063290626179 
-0.005155869018885271 
0.01299951440035802 
0 
-0.008513063290626179 
0.005155869018885271 
0.001066145324545203 
-0.001963415331880697 
0.005893929325786799 
0.004491319620988182 
-0.007241434715997383 
0.01345443296056165 
-0.01707702404708449 
0 
-0.007241434715997383 
-0.01345443296056165 
0.005893929325786799 
-0.004491319620988182 
0.004036510605146339 
0.002223795802472493 
-0.00455602603016063 
-0.0047844117366594 
0.01867031835888499 
0 
-0.00455602603016063 
0.0047844117366594 
0.004036510605146339 
-0.002223795802472493 
-0.005298563126766672 
-0.006271661196327299 
0.002972796160912265 
-0.01198935984858092 
0.006159370900569883 
0 
0.002972796160912265 
0.01198935984858092 
-0.005298563126766672 
0.006271661196327299 
0.0001341898262655176 
-0.004414008460330792 
0.01559477970412898 
-0.005166036947482962 
0.005621046849862668 
0 
0.01559477970412898 
0.005166036947482962 
0.0001341898262655176 
0.004414008460330792 
0.0003936292835678806 
0.004394836202764636 
-0.008432049853600009 
-0.005211364754686934 
0.01716835990915331 
0 
-0.008432049853600009 
0.005211364754686934 
0.0003936292835678806 
-0.004394836202764636 
-0.002548775440539882 
0.001158619376505284 
-0.01689208748309776 
0.01219114260060863 
-0.0006919177015617711 
0 
-0.01689208748309776 
-0.01219114260060863 
-0.002548775440539882 
-0.001158619376505284 
-0.002750923107688856 
0.003702236525241902 
-0.01133712728822955 
0.009171780232794887 
-0.008429094114217365 
0 
-0.01133712728822955 
-0.009171780232794887 
-0.002750923107688856 
-0.003702236525241902 
0.001338336501967768 
-0.0007910138380951197 
0.004557406970519692 
-0.01628484780410154 
0.02152518295716294 
0 
0.004557406970519692 
0.01628484780410154 
0.001338336501967768 
0.0007910138380951197 
0.001339390138418067 
-0.006938680014497969 
0.008398954934999057 
0.01081669757334645 
0.002671722339492108 
0 
0.008398954934999057 
-0.01081669757334645 
0.001339390138418067 
0.006938680014497969 
-0.002043522590314206 
-1.437846040050722e-06 
0.005254820011238069 
-0.001380316038296839 
0.0005733863989009607 
0 
0.005254820011238069 
0.001380316038296839 
-0.002043522590314206 
1.437846040050722e-06 
-0.0006185409155273182 
0.004394321364530148 
-0.009561994758133617 
0.007920196019738146 
-0.0197609385507839 
0 
-0.009561994758133617 
-0.007920196019738146 
-0.0006185409155273182 
-0.004394321364530148 
-0.005190682200988175 
-0.007524691394301114 
0.01318310569339152 
-0.007728608282922173 
0.00577729751707337 
0 
0.01318310569339152 
0.007728608282922173 
-0.005190682200988175 
0.007524691394301114 
-4.096183202142192e-05 
0.0009607053401296345 
-0.001600784328565405 
-0.01390695302376072 
0.03382543719106088 
0 
-0.001600784328565405 
0.01390695302376072 
-4.096183202142192e-05 
-0.0009607053401296345 
-0.003965425059260321 
-0.0010982162043858 
-0.001877509565036749 
0.00946012549229398 
-0.008874165064582811 
0 
-0.001877509565036749 
-0.00946012549229398 
-0.003965425059260321 
0.0010982162043858 
-0.004835432125354425 
0.004563139310360946 
-0.00840990899088518 
0.006133240606445656 
-0.01821065987063602 
0 
-0.00840990899088518 
-0.006133240606445656 
-0.004835432125354425 
-0.004563139310360946 
-0.002909689996189529 
-0.003120639113714581 
0.01529134984107651 
0.0007550037971744909 
0.005291133406643705 
0 
0.01529134984107651 
-0.0007550037971744909 
-0.002909689996189529 
0.003120639113714581 
0.005934586183481392 
0.00265844825890358 
0.003415009187841016 
0.005977456399280297 
-0.002381355804918068 
0 
0.003415009187841016 
-0.005977456399280297 
0.005934586183481392 
-0.00265844825890358 
0.004405006246288188 
0.003364760096199266 
-0.007511695689630524 
0.0008351188154234594 
-0.008490562581329651 
0 
-0.007511695689630524 
-0.0008351188154234594 
0.004405006246288188 
-0.003364760096199266 
-0.002926950623793326 
0.00305379241760647 
-0.007822186487860119 
-0.008910344662030157 
-0.00267461040516528 
0 
-0.007822186487860119 
0.008910344662030157 
-0.002926950623793326 
-0.00305379241760647 
0.005580108970983035 
-0.0003204077341915362 
-0.001045541606570193 
0.01095046112681778 
0.006426723294107173 
0 
-0.001045541606570193 
-0.01095046112681778 
0.005580108970983035 
0.0003204077341915362 
0.00245902570531235 
-0.005936854893930976 
0.003616338940816647 
-0.007234144620499342 
0.03409727722775665 
0 
0.003616338940816647 
0.007234144620499342 
0.00245902570531235 
0.005936854893930976 
0.0001967251302849391 
0.002309163471719895 
0.002943225737006011 
0.01777515010853251 
-0.02201795398545658 
0 
0.002943225737006011 
-0.01777515010853251 
0.0001967251302849391 
-0.002309163471719895 
0.002657048631655349 
0.0007459651725195658 
-0.01977902072248838 
0.01505542150743155 
-0.02512301887578915 
0 
-0.01977902072248838 
-0.01505542150743155 
0.002657048631655349 
-0.0007459651725195658 
0.008552202986015167 
-0.004645613642717283 
0.01503224261313557 
0.002827673779213058 
0.006555340445331769 
0 
0.01503224261313557 
-0.002827673779213058 
0.008552202986015167 
0.004645613642717283 
0.001738211921893644 
-0.0001035269478196212 
-0.003836580769842667 
0.001667944886536267 
-0.0005766390084821866 
0 
-0.003836580769842667 
-0.001667944886536267 
0.001738211921893644 
0.0001035269478196212 
0.0008267243092657056 
0.0006859770763345175 
0.005114074245316883 
0.01727851331923039 
-0.03170270877880884 
0 
0.005114074245316883 
-0.01727851331923039 
0.0008267243092657056 
-0.0006859770763345175 
0.005146629518141118 
0.001393696433383742 
-0.01080847365406749 
0.0103028316933262 
-0.00963700418891128 
0 
-0.01080847365406749 
-0.0103028316933262 
0.005146629518141118 
-0.001393696433383742 
0.002942312547150969 
0.002409271696975976 
-0.001568503226566497 
0.008563986392097045 
0.004687194263692444 
0 
-0.001568503226566497 
-0.008563986392097045 
0.002942312547150969 
-0.002409271696975976 
-0.006910281718772065 
0.003583062480716387 
-0.009697131927698641 
0.002568242467166181 
0.002910564205093654 
0 
-0.009697131927698641 
-0.002568242467166181 
-0.006910281718772065 
-0.003583062480716387 
-0.001038641632250205 
0.003229322346329111 
-0.00890117145817163 
-0.008202512026853489 
0.01318708730915624 
0 
-0.00890117145817163 
0.008202512026853489 
-0.001038641632250205 
-0.003229322346329111 
-0.003957198510450319 
-0.00322552565735693 
0.003910790292539375 
-0.004904488576355999 
0.01413501758974952 
0 
0.003910790292539375 
0.004904488576355999 
-0.003957198510450319 
0.00322552565735693 
-0.005021066858046461 
-0.001142792681367671 
0.004857446124997021 
-0.01818347741850622 
0.02548470813581257 
0 
0.004857446124997021 
0.01818347741850622 
-0.005021066858046461 
0.001142792681367671 
0.0001057724874079447 
0.001822332960888592 
0.0003588458612109769 
0.00638918473091552 
-0.00638504393400222 
0 
0.0003588458612109769 
-0.00638918473091552 
0.0001057724874079447 
-0.001822332960888592 
-0.003721347577365147 
0.004276499350508953 
-0.01011599020814952 
-0.0145793502781659 
0.02479603252989302 
0 
-0.01011599020814952 
0.0145793502781659 
-0.003721347577365147 
-0.004276499350508953 
-0.003326626937117733 
-0.002742244302914578 
-0.007896540628983565 
-0.002292057429713129 
0.006947151753644713 
0 
-0.007896540628983565 
0.002292057429713129 
-0.003326626937117733 
0.002742244302914578 
0.001453774777620182 
-0.001085697251479843 
0.002672350256934568 
-0.004828730928824331 
-0.01452770414664489 
0 
0.002672350256934568 
0.004828730928824331 
0.001453774777620182 
0.001085697251479843 
0.0003168394655503588 
0.005096373011269579 
-0.009999974479969895 
-0.001628686789313172 
0.001027474706047903 
0 
-0.009999974479969895 
0.001628686789313172 
0.0003168394655503588 
-0.005096373011269579 
0.002857638405252576 
0.003147973190349239 
0.005339988760429125 
-0.004465374146035117 
0.00649573543131583 
0 
0.005339988760429125 
0.004465374146035117 
0.002857638405252576 
-0.003147973190349239 
-0.001815825999220925 
-0.004971127272898294 
-0.002075643424918531 
0.004211447266848294 
0.007295418697204047 
0 
-0.002075643424918531 
-0.004211447266848294 
-0.001815825999220925 
0.004971127272898294 
0.003453873714870562 
-0.002879998410737042 
0.01175675928448572 
-0.00514367005345407 
0.009283702329067493 
0 
0.01175675928448572 
0.00514367005345407 
0.003453873714870562 
0.002879998410737042 
-5.602931042264061e-05 
-0.001123032042930436 
0.005998240384447808 
0.01115589815032893 
-0.02184755298929903 
0 
0.005998240384447808 
-0.01115589815032893 
-5.602931042264061e-05 
0.001123032042930436 
0.001250852900591645 
-9.95585559064431e-05 
-0.01366589200091733 
-0.006734866370384424 
0.01397368209022446 
0 
-0.01366589200091733 
0.006734866370384424 
0.001250852900591645 
9.95585559064431e-05 
0.002707177360651006 
0.001469759894994502 
-0.009158827799399229 
0.006775546218489943 
-0.001429500433841577 
0 
-0.009158827799399229 
-0.006775546218489943 
0.002707177360651006 
-0.001469759894994502 
-0.002434042655967652 
-0.002262226938748335 
-0.0005369226903575484 
0.006317192430266741 
-0.01357485776147701 
0 
-0.0005369226903575484 
-0.006317192430266741 
-0.002434042655967652 
0.002262226938748335 
-0.001163673884262507 
-0.00163677793491655 
-0.003888108446328488 
0.00963757852463574 
-0.001060983609200471 
0 
-0.003888108446328488 
-0.00963757852463574 
-0.001163673884262507 
0.00163677793491655 
-0.0004286188536669045 
0.002254798928332583 
0.000802235461755434 
0.0004621994876848299 
-0.004064538239424688 
0 
0.000802235461755434 
-0.0004621994876848299 
-0.0004286188536669045 
-0.002254798928332583 
0.00036919543423164 
-0.009322582072796137 
0.007556083377731656 
0.002418461373696246 
0.01491795880930158 
0 
0.007556083377731656 
-0.002418461373696246 
0.00036919543423164 
0.009322582072796137 
-0.006474197580820492 
0.002522211809089347 
-0.007834592762585569 
-0.001874880076836868 
-0.004701162105092925 
0 
-0.007834592762585569 
0.001874880076836868 
-0.006474197580820492 
-0.002522211809089347 
0.003436668792235668 
-0.0002523647143128458 
-0.009976362056517661 
0.01423169719035678 
-0.005920718103379637 
0 
-0.009976362056517661 
-0.01423169719035678 
0.003436668792235668 
0.0002523647143128458 
-0.008075896879163474 
-0.004057934880813015 
0.01009908035658354 
-0.01543304480911352 
0.02292589150643993 
0 
0.01009908035658354 
0.01543304480911352 
-0.008075896879163474 
0.004057934880813015 
0.0003588452994101869 
-0.003061928354056536 
0.003744161357398595 
-0.008642013348680148 
0.01533596000373121 
0 
0.003744161357398595 
0.008642013348680148 
0.0003588452994101869 
0.003061928354056536 
0.005568118110722923 
-0.004319841067799455 
0.01667126302128408 
-0.001563144872754464 
0.01677340926537772 
0 
0.01667126302128408 
0.001563144872754464 
0.005568118110722923 
0.004319841067799455 
0.001880481647788423 
0.002917042096982771 
-0.007193707578302696 
0.007549879411749742 
-0.024338282567868 
0 
-0.007193707578302696 
-0.007549879411749742 
0.001880481647788423 
-0.002917042096982771 
0.0003694452480219659 
0.003179295743906196 
0.00317232762186291 
0.01162227039013611 
-0.02169088623482906 
0 
0.00317232762186291 
-0.01162227039013611 
0.0003694452480219659 
-0.003179295743906196 
0.005813657743677392 
-0.002290256666014161 
0.01027717310488647 
0.002668592257060021 
0.01205826346890899 
0 
0.01027717310488647 
-0.002668592257060021 
0.005813657743677392 
0.002290256666014161 
-0.002858131215806207 
0.004942560925069475 
-0.01996362905888853 
0.002605728631379524 
-0.01711570673718776 
0 
-0.01996362905888853 
-0.002605728631379524 
-0.002858131215806207 
-0.004942560925069475 
-0.001141878086251548 
-0.002877120774278024 
0.0114039518074417 
0.005884889394289668 
-0.01905827729684234 
0 
0.0114039518074417 
-0.005884889394289668 
-0.001141878086251548 
0.002877120774278024 
-0.002613261036943323 
0.001797955789867987 
-0.004161409776637902 
0.0006944670766089453 
-0.01670267330404647 
0 
-0.004161409776637902 
-0.0006944670766089453 
-0.002613261036943323 
-0.001797955789867987 
0.01115736478540155 
-0.0006044361444776687 
0.01253941350459659 
0.00675937119455447 
0.007177671966049311 
0 
0.01253941350459659 
-0.00675937119455447 
0.01115736478540155 
0.0006044361444776687 
-0.006533984027014137 
-0.005312355176125261 
0.00759677063128477 
0.001553085607135418 
-0.01264164242472541 
0 
0.00759677063128477 
-0.001553085607135418 
-0.006533984027014137 
0.005312355176125261 
-0.004520721206835258 
0.001765100629739144 
-0.003397951066354287 
-0.002588602060603362 
-0.002779041187613413 
0 
-0.003397951066354287 
0.002588602060603362 
-0.004520721206835258 
-0.001765100629739144 
-0.002370609140017956 
-0.002414157440155566 
0.006447013654536929 
-0.005993530403602832 
0.005572362463556521 
0 
0.006447013654536929 
0.005993530403602832 
-0.002370609140017956 
0.002414157440155566 
0.003399358286748972 
-0.004687621407431566 
-7.293880065392991e-05 
2.194373571955853e-05 
0.01225689728614239 
0 
-7.293880065392991e-05 
-2.194373571955853e-05 
0.003399358286748972 
0.004687621407431566 
-0.003642413278167924 
-0.001933941072585569 
0.001735828418357164 
-0.003738504703644189 
0.003394359836369374 
0 
0.001735828418357164 
0.003738504703644189 
-0.003642413278167924 
0.001933941072585569 
-0.002865305794002336 
-0.002302413087482829 
-0.0182263307228629 
0.01016054764201207 
-0.01601122361573188 
0 
-0.0182263307228629 
-0.01016054764201207 
-0.002865305794002336 
0.002302413087482829 
0.008661763713705788 
-0.003525883385388432 
0.01692220576172458 
0.008564007797889716 
0.02081102867619192 
0 
0.01692220576172458 
-0.008564007797889716 
0.008661763713705788 
0.003525883385388432 
0.007856808305172219 
-0.0005266751207723006 
-0.0003373720888286704 
0.01018385996050422 
-0.01343327100903108 
0 
-0.0003373720888286704 
-0.01018385996050422 
0.007856808305172219 
0.0005266751207723006 
0.0003607751809789391 
-0.00331790736542698 
0.01086589650769569 
0.007731308391547368 
0.01843802679056584 
0 
0.01086589650769569 
-0.007731308391547368 
0.0003607751809789391 
0.00331790736542698 
-0.006265484129624139 
-0.002137926785550118 
-0.0005689656138846389 
0.004494138588586521 
-0.01167408335078274 
0 
-0.0005689656138846389 
-0.004494138588586521 
-0.006265484129624139 
0.002137926785550118 
-0.003634958222947642 
0.0002801777488472626 
0.003932591069942127 
-0.005449937116753955 
-0.003152583284659026 
0 
0.003932591069942127 
0.005449937116753955 
-0.003634958222947642 
-0.0002801777488472626 
-0.003013680424100976 
0.001037701837975702 
-0.001210333170743047 
-0.0001472648715672488 
-0.003003880208031953 
0 
-0.001210333170743047 
0.0001472648715672488 
-0.003013680424100976 
-0.001037701837975702 
-0.005548072223978263 
-0.001955112481648469 
0.000235422359089139 
-0.00124872987296999 
-0.01352974820388334 
0 
0.000235422359089139 
0.00124872987296999 
-0.005548072223978263 
0.001955112481648469 
0.00228229987281878 
-0.001005501481382044 
0.005748095767770768 
0.00582036933445085 
-0.01337865673445408 
0 
0.005748095767770768 
-0.00582036933445085 
0.00228229987281878 
0.001005501481382044 
0.000796655796497016 
-0.000577471987933443 
0.00570279473974667 
-0.009733242300282587 
0.01676371522856241 
0 
0.00570279473974667 
0.009733242300282587 
0.000796655796497016 
0.000577471987933443 
-0.001071615934993311 
-0.004118081538639342 
0.005834125734282949 
0.002813319538669745 
0.001415717131757523 
0 
0.005834125734282949 
-0.002813319538669745 
-0.001071615934993311 
0.004118081538639342 
-0.001475329545432952 
0.008565937740659732 
-0.01734222627326226 
0.007519538634014089 
-0.00264874000689579 
0 
-0.01734222627326226 
-0.007519538634014089 
-0.001475329545432952 
-0.008565937740659732 
-0.006069467898893056 
-0.0004938888821241593 
0.001540057107440955 
0.008366071065643133 
-0.02459264824036428 
0 
0.001540057107440955 
-0.008366071065643133 
-0.006069467898893056 
0.0004938888821241593 
0.003985822089324348 
-0.004035292799869241 
0.01400761050153569 
0.002341707831265522 
-0.003952595240379207 
0 
0.01400761050153569 
-0.002341707831265522 
0.003985822089324348 
0.004035292799869241 
-0.004933319337900364 
-0.0002809203060731599 
-0.005474123240137711 
-0.004999458258997671 
0.0174552475565076 
0 
-0.005474123240137711 
0.004999458258997671 
-0.004933319337900364 
0.0002809203060731599 
1.057016233138984e-05 
-0.001624521713375961 
0.0004119065520094866 
-0.0004103198633997515 
-0.002226990093260606 
0 
0.0004119065520094866 
0.0004103198633997515 
1.057016233138984e-05 
0.001624521713375961 
-0.00703071242479109 
-0.002867205649053688 
0.002598304918622479 
-0.005655467765496553 
-0.00453188891456688 
0 
0.002598304918622479 
0.005655467765496553 
-0.00703071242479109 
0.002867205649053688 
0.006161834699460607 
-0.003244640355563575 
0.007640049803084489 
0.002294525660462714 
0.01223133016065004 
0 
0.007640049803084489 
-0.002294525660462714 
0.006161834699460607 
0.003244640355563575 
0.001039462351083896 
-0.003703470402018911 
0.01005187285954863 
-0.003651977519157764 
0.01484283957701466 
0 
0.01005187285954863 
0.003651977519157764 
0.001039462351083896 
0.003703470402018911 
0.002708088341013784 
0.001729120255389407 
-0.003681353118325197 
0.01245264919732813 
0.002541478919050893 
0 
-0.003681353118325197 
-0.01245264919732813 
0.002708088341013784 
-0.001729120255389407 
-0.001232801217785805 
-0.002578223568369719 
0.01639985789166533 
0.008597900047320556 
-0.008761108905337255 
0 
0.01639985789166533 
-0.008597900047320556 
-0.001232801217785805 
0.002578223568369719 
-0.0004094463642269255 
0.0001479384711022434 
0.004927391807712228 
0.001796319627357454 
-0.01299815907273748 
0 
0.004927391807712228 
-0.001796319627357454 
-0.0004094463642269255 
-0.0001479384711022434 
-0.002293997328868652 
-0.0008496239182609447 
0.01352525518265895 
-0.006386927188367413 
0.003457211024416623 
0 
0.01352525518265895 
0.006386927188367413 
-0.002293997328868652 
0.0008496239182609447 
-0.003956317545565331 
0.001905164254638363 
-0.008890557651266886 
0.009412558184894506 
-0.03360015544804481 
0 
-0.008890557651266886 
-0.009412558184894506 
-0.003956317545565331 
-0.001905164254638363 
-0.0006057308254482926 
-0.0007477937483166288 
-0.003733560039978829 
-0.002326754244258923 
0.00777233551536452 
0 
-0.003733560039978829 
0.002326754244258923 
-0.0006057308254482926 
0.0007477937483166288 
0.004196986750554366 
-0.00533614774017219 
0.03989940256759026 
-4.422215842406227e-05 
0.03701792257487447 
0 
0.03989940256759026 
4.422215842406227e-05 
0.004196986750554366 
0.00533614774017219 
0.006631209851205262 
-0.002223327351858795 
-0.004289938419688155 
0.01511187420105856 
-0.002566892661426468 
0 
-0.004289938419688155 
-0.01511187420105856 
0.006631209851205262 
0.002223327351858795 
0.004991249027300596 
0.002073441200606139 
-0.003732957591676541 
0.009254682962667606 
0.005245152740436381 
0 
-0.003732957591676541 
-0.009254682962667606 
0.004991249027300596 
-0.002073441200606139 
-0.001430309014120426 
0.001366350430993347 
0.002843730804910156 
-0.01228209883086051 
-0.00059048587551268 
0 
0.002843730804910156 
0.01228209883086051 
-0.001430309014120426 
-0.001366350430993347 
0.002526147973908307 
0.003304833706397522 
-0.008873058769243627 
0.002400152795157312 
-0.008603841412258931 
0 
-0.008873058769243627 
-0.002400152795157312 
0.002526147973908307 
-0.003304833706397522 
0.0009417204582971032 
0.001619346490596054 
-0.006122578217391198 
-8.301321251416215e-05 
0.01707214465522399 
0 
-0.006122578217391198 
8.301321251416215e-05 
0.0009417204582971032 
-0.001619346490596054 
0.007578731339988361 
-0.001595973564158431 
0.002644693868085496 
-0.007504245888136158 
0.02567014962812712 
0 
0.002644693868085496 
0.007504245888136158 
0.007578731339988361 
0.001595973564158431 
0.0003999586759249185 
-0.0008679753675342125 
-0.0002537815694106251 
-0.007882384929701967 
0.01625035149975178 
0 
-0.0002537815694106251 
0.007882384929701967 
0.0003999586759249185 
0.0008679753675342125 
0.002146933454010556 
0.0031154308510423 
-0.0112383351589857 
0.01768127423930923 
-0.02345065390533123 
0 
-0.0112383351589857 
-0.01768127423930923 
0.002146933454010556 
-0.0031154308510423 
0.005276007229197944 
0.002040883124781839 
-0.008299008632429054 
0.01566054254496861 
-0.0071558685631044 
0 
-0.008299008632429054 
-0.01566054254496861 
0.005276007229197944 
-0.002040883124781839 
0.002081501227406914 
-0.0006836597850323306 
-0.002631246006364636 
0.003301299870472083 
0.004299766605510608 
0 
-0.002631246006364636 
-0.003301299870472083 
0.002081501227406914 
0.0006836597850323306 
0.00016089860939508 
0.001689023258200148 
0.003164576834392467 
-0.002715164292798942 
-0.00512488174060584 
0 
0.003164576834392467 
0.002715164292798942 
0.00016089860939508 
-0.001689023258200148 
0.00291070107520288 
-0.004040235781197727 
-0.001792552604723469 
0.01537835024774568 
-0.02614431487783259 
0 
-0.001792552604723469 
-0.01537835024774568 
0.00291070107520288 
0.004040235781197727 
-0.003771426327844419 
-0.0008189866493698038 
-0.01121956977539253 
-0.00231105039720336 
-0.004623758291918089 
0 
-0.01121956977539253 
0.00231105039720336 
-0.003771426327844419 
0.0008189866493698038 
0.01099528808592237 
-0.007106145810392876 
0.03093411916738169 
-0.002091031020014897 
0.01971990417444599 
0 
0.03093411916738169 
0.002091031020014897 
0.01099528808592237 
0.007106145810392876 
-0.00219074727359268 
-0.001289255780060317 
0.005083421570839131 
0.0113590707988466 
-0.005738640456039293 
0 
0.005083421570839131 
-0.0113590707988466 
-0.00219074727359268 
0.001289255780060317 
-0.002899842891880749 
5.559916265250675e-05 
7.860317297962115e-05 
0.01331170425582922 
-0.01245446229200756 
0 
7.860317297962115e-05 
-0.01331170425582922 
-0.002899842891880749 
-5.559916265250675e-05 
0.002150637556499626 
-0.003278724615229579 
0.002708740720646838 
0.008159441528954871 
0.00295758013486692 
0 
0.002708740720646838 
-0.008159441528954871 
0.002150637556499626 
0.003278724615229579 
-0.001759715468199319 
-0.001180067766841118 
0.0139200562003747 
-0.003917236732514697 
0.01177325250500337 
0 
0.0139200562003747 
0.003917236732514697 
-0.001759715468199319 
0.001180067766841118 
-0.00359672963918185 
-0.001641654996188051 
0.007597668807250109 
0.01189408330059773 
-0.01876280659589644 
0 
0.007597668807250109 
-0.01189408330059773 
-0.00359672963918185 
0.001641654996188051 
-0.002133992940160112 
-0.004325264160403693 
0.009617921769037434 
0.004542354919404935 
-0.00806291334818502 
0 
0.009617921769037434 
-0.004542354919404935 
-0.002133992940160112 
0.004325264160403693 
0.0002712128374087591 
-0.006716822266066316 
0.003301524314453947 
-0.002141230900082372 
0.02070136519828474 
0 
0.003301524314453947 
0.002141230900082372 
0.0002712128374087591 
0.006716822266066316 
-0.0003316390842478306 
0.0020080552777286 
0.0001832776103923362 
-0.006485490294105881 
0.007905295394921441 
0 
0.0001832776103923362 
0.006485490294105881 
-0.0003316390842478306 
-0.0020080552777286 
0.0004827195793748173 
0.003249908858136326 
0.007172167751123176 
0.004941918462369059 
-0.0318589022355769 
0 
0.007172167751123176 
-0.004941918462369059 
0.0004827195793748173 
-0.003249908858136326 
0.004774683751399163 
-0.004574791721186402 
-0.00922614958604007 
0.006483829457445044 
-0.007468833285874536 
0 
-0.00922614958604007 
-0.006483829457445044 
0.004774683751399163 
0.004574791721186402 
-0.002228904965374685 
-0.005988427970504701 
0.003653087332363985 
0.004741910931485376 
0.01676236232411463 
0 
0.003653087332363985 
-0.004741910931485376 
-0.002228904965374685 
0.005988427970504701 
0.002629542740754328 
-0.001797405804738088 
-0.004412367403864359 
0.0008898272001071855 
0.01467266856894061 
0 
-0.004412367403864359 
-0.0008898272001071855 
0.002629542740754328 
0.001797405804738088 
0.001100307006605586 
-0.0009557521731005752 
0.005164788642066024 
0.0005941631575456537 
0.004394574806992093 
0 
0.005164788642066024 
-0.0005941631575456537 
0.001100307006605586 
0.0009557521731005752 
-0.002041319455603284 
-0.0004934909764416479 
-0.00353062450830403 
-0.0121468781378403 
0.01514601367775223 
0 
-0.00353062450830403 
0.0121468781378403 
-0.002041319455603284 
0.0004934909764416479 
0.00379068341252691 
0.005079516191008038 
-0.005871961477815575 
0.005104961158772891 
0.006934430442690917 
0 
-0.005871961477815575 
-0.005104961158772891 
0.00379068341252691 
-0.005079516191008038 
-0.002350354863945791 
0.005096384286155365 
-0.006020506787695618 
0.001796399747335647 
-0.009932849297197257 
0 
-0.006020506787695618 
-0.001796399747335647 
-0.002350354863945791 
-0.005096384286155365 
-0.0005448749793204754 
0.004230605485180901 
0.007436850302086109 
-0.001878915347615555 
-0.02535687588517554 
0 
0.007436850302086109 
0.001878915347615555 
-0.0005448749793204754 
-0.004230605485180901 
-7.335617666935305e-05 
-0.0004877517490802404 
0.0001239345509705448 
0.01025834342777278 
-7.035088431078907e-05 
0 
0.0001239345509705448 
-0.01025834342777278 
-7.335617666935305e-05 
0.0004877517490802404 
-0.001092577164786256 
0.001312112177154574 
-0.005393073162980112 
-0.0023072589457257 
0.01931738995051491 
0 
-0.005393073162980112 
0.0023072589457257 
-0.001092577164786256 
-0.001312112177154574 
0.003403942261164663 
-0.003559496511301735 
0.01839745180975928 
0.003782771882622178 
0.01582498821226972 
0 
0.01839745180975928 
-0.003782771882622178 
0.003403942261164663 
0.003559496511301735 
0.0002454519256526171 
0.003123918439418777 
0.005816577540397632 
0.01138139190507876 
-0.005697562184002708 
0 
0.005816577540397632 
-0.01138139190507876 
0.0002454519256526171 
-0.003123918439418777 
0.002901558600125947 
0.002120881038437097 
-0.001363299928321891 
0.01722951555772796 
-0.02518402567668395 
0 
-0.001363299928321891 
-0.01722951555772796 
0.002901558600125947 
-0.002120881038437097 
0.003476247976382775 
0.007531738371399858 
-0.001348593329060552 
-0.006637810240513175 
0.01773277519795779 
0 
-0.001348593329060552 
0.006637810240513175 
0.003476247976382775 
-0.007531738371399858 
0.005931964152206773 
0.003607087226624324 
0.001498790058079092 
0.01219289140112471 
-0.01143935467834637 
0 
0.001498790058079092 
-0.01219289140112471 
0.005931964152206773 
-0.003607087226624324 
0.0009408589127654353 
0.0001457492756268498 
0.02070477885998033 
0.01536929681791787 
-0.02693213805282898 
0 
0.02070477885998033 
-0.01536929681791787 
0.0009408589127654353 
-0.0001457492756268498 
0.0004473079365141472 
0.004282656002157538 
0.002761707697783763 
0.01544513678076098 
-0.03381970473742466 
0 
0.002761707697783763 
-0.01544513678076098 
0.0004473079365141472 
-0.004282656002157538 
0.008012936143788511 
-0.002388773340215164 
0.001049107019398039 
0.003393657423407079 
-0.001958820674414457 
0 
0.001049107019398039 
-0.003393657423407079 
0.008012936143788511 
0.002388773340215164 
0.001828289845204716 
-0.003037413846597649 
0.006909168741480821 
0.001698439419010931 
0.004983436804224042 
0 
0.006909168741480821 
-0.001698439419010931 
0.001828289845204716 
0.003037413846597649 
0.0006978890957789612 
0.00178795640885134 
0.0001831002322759596 
0.01152308264958552 
-0.01687460398304485 
0 
0.0001831002322759596 
-0.01152308264958552 
0.0006978890957789612 
-0.00178795640885134 
0.001999469563293636 
0.0004133534702332622 
0.01187401904478289 
0.00211625480216115 
-0.02488438853946491 
0 
0.01187401904478289 
-0.00211625480216115 
0.001999469563293636 
-0.0004133534702332622 
-0.0002630194902309531 
-0.000432473598368861 
-0.002219672386221322 
0.007286419267651124 
0.0002671460318179629 
0 
-0.002219672386221322 
-0.007286419267651124 
-0.0002630194902309531 
0.000432473598368861 
0.01298572305628118 
-0.002376614111567405 
0.02931249034081677 
0.01140342068815909 
0.01899108085514332 
0 
0.02931249034081677 
-0.01140342068815909 
0.01298572305628118 
0.002376614111567405 
-3.514151871398956e-05 
0.001347266979522751 
-0.008115614207714433 
0.007603876790600753 
-0.03494411297400907 
0 
-0.008115614207714433 
-0.007603876790600753 
-3.514151871398956e-05 
-0.001347266979522751 
0.0001372088942281106 
0.003097204052254003 
-0.003262632621384081 
0.006241239781845122 
-0.03461073327945267 
0 
-0.003262632621384081 
-0.006241239781845122 
0.0001372088942281106 
-0.003097204052254003 
0.005971680964768727 
0.005052334138301997 
-0.001556954810233946 
0.008840725222587727 
-0.002999342117868595 
0 
-0.001556954810233946 
-0.008840725222587727 
0.005971680964768727 
-0.005052334138301997 
-0.0006880252004541577 
6.896854010113166e-05 
0.002378370854320346 
-0.0001998466557278729 
-0.01065404129661897 
0 
0.002378370854320346 
0.0001998466557278729 
-0.0006880252004541577 
-6.896854010113166e-05 
1.253127735490587e-05 
-0.002647784168036543 
0.01369784864331466 
0.0032634925657966 
-0.01872653931221964 
0 
0.01369784864331466 
-0.0032634925657966 
1.253127735490587e-05 
0.002647784168036543 
0.001310114831827895 
0.004407043205289123 
0.002256047600060235 
-0.007094249437818747 
-0.01341618902690831 
0 
0.002256047600060235 
0.007094249437818747 
0.001310114831827895 
-0.004407043205289123 
0.00163587933559041 
-0.00289338543773414 
0.009159864814350677 
-0.005852791417065332 
0.02292872280150342 
0 
0.009159864814350677 
0.005852791417065332 
0.00163587933559041 
0.00289338543773414 
0.002390662908897074 
-0.004557363453918282 
-0.00209273197250884 
-0.006810382851818386 
0.01770727861563681 
0 
-0.00209273197250884 
0.006810382851818386 
0.002390662908897074 
0.004557363453918282 
-7.172543971953458e-05 
-0.002440825537961187 
-0.002148720238145181 
0.01811219269698692 
-0.03059913580761312 
0 
-0.002148720238145181 
-0.01811219269698692 
-7.172543971953458e-05 
0.002440825537961187 
0.001409182165383473 
0.001620403302901981 
-0.003633431988048764 
0.002126636629345707 
-0.01739261983382998 
0 
-0.003633431988048764 
-0.002126636629345707 
0.001409182165383473 
-0.001620403302901981 
0.002671557214668023 
-0.003393123419669198 
0.008354670056160654 
-0.002426084062662941 
0.003330941412727605 
0 
0.008354670056160654 
0.002426084062662941 
0.002671557214668023 
0.003393123419669198 
0.003644420584261775 
-0.006351671489755898 
0.01683702690846053 
-0.0003325806331749093 
0.01895332426076838 
0 
0.01683702690846053 
0.0003325806331749093 
0.003644420584261775 
0.006351671489755898 
0.004047183992618637 
-0.0009929197831879909 
0.00140309899376021 
-0.00221731340490929 
0.005115220392790012 
0 
0.00140309899376021 
0.00221731340490929 
0.004047183992618637 
0.0009929197831879909 
-0.005779904196205592 
-3.80649186973766e-05 
0.007109461782433986 
-0.003453497435784357 
-0.005063835123727542 
0 
0.007109461782433986 
0.003453497435784357 
-0.005779904196205592 
3.80649186973766e-05 
-0.0002480097017741581 
0.001190004042420683 
-0.005061761919640467 
-0.003770437760090482 
-0.0004176285256023183 
0 
-0.005061761919640467 
0.003770437760090482 
-0.0002480097017741581 
-0.001190004042420683 
0.00305120865022186 
-0.006596396609813572 
-0.0006569511261687619 
0.003515968774387849 
-0.01038884824539152 
0 
-0.0006569511261687619 
-0.003515968774387849 
0.00305120865022186 
0.006596396609813572 
0.0006707783544432078 
0.002293788538405819 
2.268228430042717e-05 
0.007706267377472626 
-0.02481587915815367 
0 
2.268228430042717e-05 
-0.007706267377472626 
0.0006707783544432078 
-0.002293788538405819 
-0.003584136126917824 
0.001081299544926388 
0.006602976647540356 
-0.001964223344131967 
0.004075493573440621 
0 
0.006602976647540356 
0.001964223344131967 
-0.003584136126917824 
-0.001081299544926388 
-0.004749657857390586 
-0.001656978457152132 
5.980819395428619e-05 
-0.01698196788398131 
0.01635410417114736 
0 
5.980819395428619e-05 
0.01698196788398131 
-0.004749657857390586 
0.001656978457152132 
-0.002135546478427274 
-0.009965323524537804 
0.01994819790590418 
-0.0006107418345604575 
0.01610071494236922 
0 
0.01994819790590418 
0.0006107418345604575 
-0.002135546478427274 
0.009965323524537804 
0.004964085983304702 
0.00114805663738689 
0.005116259286515265 
0.01113695035535982 
-0.03778251532819708 
0 
0.005116259286515265 
-0.01113695035535982 
0.004964085983304702 
-0.00114805663738689 
-0.001177062754473111 
0.0005946110413635734 
0.0006951825875266575 
0.01240136899654528 
-0.0303838830042957 
0 
0.0006951825875266575 
-0.01240136899654528 
-0.001177062754473111 
-0.0005946110413635734 
-0.001323883859025 
-0.002249149071702886 
0.007999416271279595 
0.0005070064991473546 
0.01210675061679794 
0 
0.007999416271279595 
-0.0005070064991473546 
-0.001323883859025 
0.002249149071702886 
-6.900963623776012e-05 
-0.006000448438714049 
0.01518724069792204 
0.01312436010889674 
-0.00205374183103725 
0 
0.01518724069792204 
-0.01312436010889674 
-6.900963623776012e-05 
0.006000448438714049 
-0.001351057687360977 
0.001913564997410623 
0.0003929555486310869 
0.003301624919900102 
-0.01779595286029518 
0 
0.0003929555486310869 
-0.003301624919900102 
-0.001351057687360977 
-0.001913564997410623 
-0.0007364470302183554 
0.005021921331780209 
-0.003397708137081648 
0.009259058719059621 
-0.02912702971664377 
0 
-0.003397708137081648 
-0.009259058719059621 
-0.0007364470302183554 
-0.005021921331780209 
0.0008158568250810169 
0.0002054782611461389 
0.004491434319864928 
-0.001862484418338004 
0.003476906137117056 
0 
0.004491434319864928 
0.001862484418338004 
0.0008158568250810169 
-0.0002054782611461389 
0.005035067479514597 
-0.00367958469421428 
0.01069259008232745 
-0.002055752039182567 
0.01618812316815823 
0 
0.01069259008232745 
0.002055752039182567 
0.005035067479514597 
0.00367958469421428 
0.0001933943272362766 
-0.002013175645931415 
0.001295169818427728 
0.01721963923700046 
-0.03826225048187513 
0 
0.001295169818427728 
-0.01721963923700046 
0.0001933943272362766 
0.002013175645931415 
0.001219829135102124 
0.0009267987247903013 
0.000492689260346319 
0.004498290396659704 
-0.02261261387349518 
0 
0.000492689260346319 
-0.004498290396659704 
0.001219829135102124 
-0.0009267987247903013 
-0.001574220503631386 
-0.009147120924366876 
0.01431841449872752 
-0.008380523926749659 
0.02259496207493423 
0 
0.01431841449872752 
0.008380523926749659 
-0.001574220503631386 
0.009147120924366876 
-0.00275606726637108 
-0.001843822032751627 
-0.000954493976519086 
-0.000142659970577258 
-0.006207160959574243 
0 
-0.000954493976519086 
0.000142659970577258 
-0.00275606726637108 
0.001843822032751627 
0.001425268154003267 
0.003094708843465 
-0.007360576112698874 
0.01350812088653522 
-0.02683951175811076 
0 
-0.007360576112698874 
-0.01350812088653522 
0.001425268154003267 
-0.003094708843465 
0.002682201245909967 
-0.00578813725995736 
0.002891888934539667 
0.009588007601549821 
-0.03314491690138061 
0 
0.002891888934539667 
-0.009588007601549821 
0.002682201245909967 
0.00578813725995736 
-0.004149389806820431 
-0.0007691407182309522 
0.008154497985264986 
-0.006466145574007983 
0.01001278280511491 
0 
0.008154497985264986 
0.006466145574007983 
-0.004149389806820431 
0.0007691407182309522 
0.001173231191402838 
0.009711305491265183 
-0.02829552789739126 
0.0103990565628236 
-0.02441342400294692 
0 
-0.02829552789739126 
-0.0103990565628236 
0.001173231191402838 
-0.009711305491265183 
0.0009818727053423524 
0.001602203104085759 
0.0004843217174358221 
0.01042052946899486 
-0.01889235109067295 
0 
0.0004843217174358221 
-0.01042052946899486 
0.0009818727053423524 
-0.001602203104085759 
0.002838528206664079 
-0.0001446948594852292 
-0.01424114590686817 
0.004508954210116216 
-0.01146428576457237 
0 
-0.01424114590686817 
-0.004508954210116216 
0.002838528206664079 
0.0001446948594852292 
-0.001491834593585577 
-0.01017319858425273 
0.02113843581131651 
-0.002475591160096134 
0.02207237969425674 
0 
0.02113843581131651 
0.002475591160096134 
-0.001491834593585577 
0.01017319858425273 
-0.00206073871661634 
-0.00301959001683473 
0.01283095188222862 
-0.01754965796240284 
0.03083795735370173 
0 
0.01283095188222862 
0.01754965796240284 
-0.00206073871661634 
0.00301959001683473 
-0.0002956414757101384 
0.003559226333511645 
-0.002827628692147172 
0.01378966432295646 
-0.02777961225215418 
0 
-0.002827628692147172 
-0.01378966432295646 
-0.0002956414757101384 
-0.003559226333511645 
-0.002058856260264622 
-0.0006847948832584603 
0.006581738057088971 
0.005938232650737419 
-0.01082191032602764 
0 
0.006581738057088971 
-0.005938232650737419 
-0.002058856260264622 
0.0006847948832584603 
0.003658707541032224 
-0.001213334921438862 
0.008652240146882664 
-0.001486482646767498 
0.01142741407048971 
0 
0.008652240146882664 
0.001486482646767498 
0.003658707541032224 
0.001213334921438862 
0.001961503140792478 
-0.004008710979887658 
0.00370019583568899 
0.006208340642935712 
0.003676661718995651 
0 
0.00370019583568899 
-0.006208340642935712 
0.001961503140792478 
0.004008710979887658 
0.002351785685131561 
-0.002630599178809253 
-0.0004372448543014515 
-0.006014748438394728 
0.01288595068584989 
0 
-0.0004372448543014515 
0.006014748438394728 
0.002351785685131561 
0.002630599178809253 
0.003761231727167967 
-0.000331838519793983 
-0.01208898062922566 
-0.003104786719519835 
0.009501135620363362 
0 
-0.01208898062922566 
0.003104786719519835 
0.003761231727167967 
0.000331838519793983 
0.004527032019749086 
-0.003416970116178667 
-0.00254401927622682 
-0.00219960562637806 
0.001761705593397001 
0 
-0.00254401927622682 
0.00219960562637806 
0.004527032019749086 
0.003416970116178667 
-0.006455165632724466 
0.00521234623581009 
-0.0145269531933351 
-0.004278044839984401 
-0.01218226343884282 
0 
-0.0145269531933351 
0.004278044839984401 
-0.006455165632724466 
-0.00521234623581009 
-0.003099446038296372 
-0.002349480413216214 
-0.00205411380237259 
0.004507859776273931 
-0.004535645790467412 
0 
-0.00205411380237259 
-0.004507859776273931 
-0.003099446038296372 
0.002349480413216214 
-0.001133373178493194 
0.002040259397453453 
-0.004282086129680247 
-0.01324533487860391 
0.01412547169692703 
0 
-0.004282086129680247 
0.01324533487860391 
-0.001133373178493194 
-0.002040259397453453 
-0.004027250191752405 
-0.003019711464135273 
0.005139771677049786 
-0.01101118820298888 
0.01782955018688183 
0 
0.005139771677049786 
0.01101118820298888 
-0.004027250191752405 
0.003019711464135273 
-0.002644358605983894 
0.001006752783606626 
-0.007927993394705608 
-0.0004349254274186632 
-0.001844826277876206 
0 
-0.007927993394705608 
0.0004349254274186632 
-0.002644358605983894 
-0.001006752783606626 
0.003006248239446508 
-0.001556472475307942 
-0.003498080327473716 
0.00966464854328739 
0.01848711767755297 
0 
-0.003498080327473716 
-0.00966464854328739 
0.003006248239446508 
0.001556472475307942 
0.002140246489563653 
0.0006314031648671161 
-0.01798463413318845 
0.005480888085724761 
0.01656474725390048 
0 
-0.01798463413318845 
-0.005480888085724761 
0.002140246489563653 
-0.0006314031648671161 
0.0001347502054773763 
0.002223307425162842 
-0.009161351539136576 
-0.003962636750398094 
0.003995017833110824 
0 
-0.009161351539136576 
0.003962636750398094 
0.0001347502054773763 
-0.002223307425162842 
-0.002254004802654877 
-0.001283771174342716 
0.003437235779626774 
-0.002724627583369438 
0.009154804313386073 
0 
0.003437235779626774 
0.002724627583369438 
-0.002254004802654877 
0.001283771174342716 
0.002453326469034272 
0.001103507698451751 
0.0001334421608380134 
0.004625389716874219 
-0.007437796138104183 
0 
0.0001334421608380134 
-0.004625389716874219 
0.002453326469034272 
-0.001103507698451751 
-0.003028954453987721 
0.002031646886936363 
-0.009471616165993296 
-0.002543722274545628 
0.01859472860978468 
0 
-0.009471616165993296 
0.002543722274545628 
-0.003028954453987721 
-0.002031646886936363 
-0.002497844086781895 
-0.007713610922307395 
0.01367799637374528 
-0.003931906531821606 
0.005741658849044905 
0 
0.01367799637374528 
0.003931906531821606 
-0.002497844086781895 
0.007713610922307395 
0.005535546226857893 
0.003317649034062798 
-0.004735590373530434 
0.005701913661843567 
-0.01442013475856771 
0 
-0.004735590373530434 
-0.005701913661843567 
0.005535546226857893 
-0.003317649034062798 
0.001670155209214211 
0.003208806902208 
-0.01294066306944772 
-0.005309730141161231 
-0.001451821015998414 
0 
-0.01294066306944772 
0.005309730141161231 
0.001670155209214211 
-0.003208806902208 
0.0006051391180632771 
0.001559769576111441 
-0.01239699036771841 
0.00437210349375852 
-0.00783156434132503 
0 
-0.01239699036771841 
-0.00437210349375852 
0.0006051391180632771 
-0.001559769576111441 
0.003548918361321854 
-0.007090948256923144 
-0.002205083911418058 
0.008357502871376307 
0.0001722706946669855 
0 
-0.002205083911418058 
-0.008357502871376307 
0.003548918361321854 
0.007090948256923144 
0.003076658916653026 
0.01117509490542276 
-0.009821632289142269 
-0.0002426046822579739 
-0.009875330186383367 
0 
-0.009821632289142269 
0.0002426046822579739 
0.003076658916653026 
-0.01117509490542276 
-0.0003837469356473056 
0.002420029585631881 
-0.003493983381141524 
0.006117705803119916 
-0.007052746753156889 
0 
-0.003493983381141524 
-0.006117705803119916 
-0.0003837469356473056 
-0.002420029585631881 
-0.004967076581040809 
-0.001175714834732456 
-0.008133382901431202 
-0.009852126608550525 
0.01659974642028657 
0 
-0.008133382901431202 
0.009852126608550525 
-0.004967076581040809 
0.001175714834732456 
0.007261774845547434 
0.005915409062212705 
0.003838230930913315 
0.001836177886186567 
0.0009172192754950365 
0 
0.003838230930913315 
-0.001836177886186567 
0.007261774845547434 
-0.005915409062212705 
0.005589268181408317 
-0.002951127614892817 
-0.007450873727594498 
0.0156126857718318 
-0.01332947319997294 
0 
-0.007450873727594498 
-0.0156126857718318 
0.005589268181408317 
0.002951127614892817 
0.002078273788241537 
-0.002605928435852009 
-0.001776343469532435 
0.003364363724323302 
0.01688195042628516 
0 
-0.001776343469532435 
-0.003364363724323302 
0.002078273788241537 
0.002605928435852009 
-0.0008592617786323167 
0.004574452650884573 
-0.01164879296987526 
-0.008398227254439431 
0.01469716288662017 
0 
-0.01164879296987526 
0.008398227254439431 
-0.0008592617786323167 
-0.004574452650884573 
0.003388239484312377 
-0.002118161206769799 
0.005264380709912146 
0.003121494313930248 
-0.002892604268505521 
0 
0.005264380709912146 
-0.003121494313930248 
0.003388239484312377 
0.002118161206769799 
-0.003151016474470963 
-0.0004593407017057854 
-0.0007508631146897561 
-0.006179359267689874 
-0.001734021473536339 
0 
-0.0007508631146897561 
0.006179359267689874 
-0.003151016474470963 
0.0004593407017057854 
0.001335207526867444 
0.0005248117786114448 
-0.00283484569817851 
-0.001736069574977485 
-0.006723192591448648 
0 
-0.00283484569817851 
0.001736069574977485 
0.001335207526867444 
-0.0005248117786114448 
-0.002745528351049398 
0.002072851274609307 
-0.005980702621633459 
-0.006569631759150412 
0.01502156348077493 
0 
-0.005980702621633459 
0.006569631759150412 
-0.002745528351049398 
-0.002072851274609307 
0.005558194730018664 
-0.002601830662601396 
0.002145198240334809 
0.005813498829342311 
0.002893598642457291 
0 
0.002145198240334809 
-0.005813498829342311 
0.005558194730018664 
0.002601830662601396 
0.006026962882781952 
-7.853559545944376e-05 
0.003299156846605519 
0.005520241617434227 
0.004520112052446727 
0 
0.003299156846605519 
-0.005520241617434227 
0.006026962882781952 
7.853559545944376e-05 
0.005813201277077578 
0.002905722624424838 
0.003058468916277293 
-0.006059938262003385 
-0.007855712697068038 
0 
0.003058468916277293 
0.006059938262003385 
0.005813201277077578 
-0.002905722624424838 
-0.000893384468870058 
0.001391198681941697 
-0.001439536903211869 
0.01503748490292441 
-0.02247799449810105 
0 
-0.001439536903211869 
-0.01503748490292441 
-0.000893384468870058 
-0.001391198681941697 
0.006075479048838893 
-0.003815701979620025 
0.01850052262537644 
0.007696156917292507 
-0.001390459885967976 
0 
0.01850052262537644 
-0.007696156917292507 
0.006075479048838893 
0.003815701979620025 
9.81493165935167e-05 
0.00260796493028818 
-0.009761312665267259 
0.01444956785366395 
-0.02139668271708448 
0 
-0.009761312665267259 
-0.01444956785366395 
9.81493165935167e-05 
-0.00260796493028818 
-0.006310149249989809 
0.002305619107317894 
0.01390497605229739 
0.005816714257398718 
-0.02499489895825366 
0 
0.01390497605229739 
-0.005816714257398718 
-0.006310149249989809 
-0.002305619107317894 
-0.002957475002441007 
-0.003058123991268245 
-0.0003016339243788237 
0.0007493808261867369 
-0.008135715724855682 
0 
-0.0003016339243788237 
-0.0007493808261867369 
-0.002957475002441007 
0.003058123991268245 
-0.001097436677579544 
-0.004181432979195887 
0.01115127405407702 
-0.009027197755147019 
0.007397025695864586 
0 
0.01115127405407702 
0.009027197755147019 
-0.001097436677579544 
0.004181432979195887 
-0.00067539635136237 
-0.00331498156473898 
-0.005427482299802138 
0.002285265362493978 
0.0007276281600480558 
0 
-0.005427482299802138 
-0.002285265362493978 
-0.00067539635136237 
0.00331498156473898 
0.001855421563375492 
-0.001397960520187958 
-0.005056574394074352 
0.005063362055892431 
0.006763139992225512 
0 
-0.005056574394074352 
-0.005063362055892431 
0.001855421563375492 
0.001397960520187958 
0.005597168788849989 
0.002434286517077347 
-0.007290116965997294 
0.005093824507735676 
0.01700357903710248 
0 
-0.007290116965997294 
-0.005093824507735676 
0.005597168788849989 
-0.002434286517077347 
0.00509201507758268 
0.002994570798923533 
-0.02038549079514777 
0.008914910956121479 
0.002415845564508674 
0 
-0.02038549079514777 
-0.008914910956121479 
0.00509201507758268 
-0.002994570798923533 
0.001235658890127169 
0.003157909527527381 
0.002295673122643624 
-0.002705629897889262 
0.007038657559306392 
0 
0.002295673122643624 
0.002705629897889262 
0.001235658890127169 
-0.003157909527527381 
0.004389865379665215 
0.002419565356968962 
-0.01733309574028412 
0.01343944300249755 
-0.003410181871162828 
0 
-0.01733309574028412 
-0.01343944300249755 
0.004389865379665215 
-0.002419565356968962 
0.001322570939378045 
-0.003229308289734249 
-6.344887000206939e-07 
-0.01153485773769737 
0.03386439516277107 
0 
-6.344887000206939e-07 
0.01153485773769737 
0.001322570939378045 
0.003229308289734249 
0.00350669417112626 
-0.001013362207784363 
0.005160210570484 
-0.01003865933412947 
0.02406477646540651 
0 
0.005160210570484 
0.01003865933412947 
0.00350669417112626 
0.001013362207784363 
0.005702183683109805 
-0.0003325645304462323 
-0.004765156189309052 
0.005598463853124465 
0.001359922514217862 
0 
-0.004765156189309052 
-0.005598463853124465 
0.005702183683109805 
0.0003325645304462323 
0.0001496862605646166 
-7.282096515396976e-05 
-0.01298533609975787 
0.004779492960026084 
-0.01514512292958504 
0 
-0.01298533609975787 
-0.004779492960026084 
0.0001496862605646166 
7.282096515396976e-05 
0.00228959707554734 
0.0005867831322647157 
-0.003113339218976127 
0.0009636181479924319 
-0.002971015056623639 
0 
-0.003113339218976127 
-0.0009636181479924319 
0.00228959707554734 
-0.0005867831322647157 
-0.001955980577114953 
0.0005545135718705333 
-0.006035421803493314 
-0.00197605834703659 
0.001029028302006828 
0 
-0.006035421803493314 
0.00197605834703659 
-0.001955980577114953 
-0.0005545135718705333 
0.0005888879228672265 
-0.001377396710608761 
0.001529552358486134 
-0.01186809042669523 
0.002886238211055332 
0 
0.001529552358486134 
0.01186809042669523 
0.0005888879228672265 
0.001377396710608761 
0.001451743398693366 
2.800900463231582e-05 
-0.007521157800909321 
0.008108785552545831 
-0.02313162770725498 
0 
-0.007521157800909321 
-0.008108785552545831 
0.001451743398693366 
-2.800900463231582e-05 
-0.003786388653778542 
0.002104212593982408 
0.001178377772593756 
-0.01127848925151103 
0.005220668562569934 
0 
0.001178377772593756 
0.01127848925151103 
-0.003786388653778542 
-0.002104212593982408 
-0.0001519319896008891 
-0.002617032096372106 
0.007024130005180857 
0.004702382270877451 
0.006149170649757596 
0 
0.007024130005180857 
-0.004702382270877451 
-0.0001519319896008891 
0.002617032096372106 
0.001290833800741139 
0.003544831983471412 
-0.007690893579709353 
0.01337550590846443 
-0.02469368320830177 
0 
-0.007690893579709353 
-0.01337550590846443 
0.001290833800741139 
-0.003544831983471412 
-0.001174429447521528 
0.001943672857817997 
-0.0002872976141269341 
0.008134404590726835 
0.0003225258200027533 
0 
-0.0002872976141269341 
-0.008134404590726835 
-0.001174429447521528 
-0.001943672857817997 
0.002530336320222527 
-0.001887539814342878 
0.01177036698621307 
-0.000194198168415676 
0.01535039488297117 
0 
0.01177036698621307 
0.000194198168415676 
0.002530336320222527 
0.001887539814342878 
-0.0008019799633733629 
0.004548705957469206 
-0.01431632663210375 
-0.004090479911153879 
-9.135941936093158e-05 
0 
-0.01431632663210375 
0.004090479911153879 
-0.0008019799633733629 
-0.004548705957469206 
0.00550135783234969 
-0.005358067422215671 
0.009652712423698797 
0.01034283822114297 
-0.0067243597838587 
0 
0.009652712423698797 
-0.01034283822114297 
0.00550135783234969 
0.005358067422215671 
-0.001609700096707667 
0.001158981545178386 
-0.003218254670551349 
0.01101976146493168 
-0.01213718141787473 
0 
-0.003218254670551349 
-0.01101976146493168 
-0.001609700096707667 
-0.001158981545178386 
0.00244585964616223 
-0.00405849403074597 
-0.003293617630203932 
0.003007175972148464 
0.01157773988389974 
0 
-0.003293617630203932 
-0.003007175972148464 
0.00244585964616223 
0.00405849403074597 
0.004141468340606034 
0.0038444194523383 
-0.003885417568094717 
0.004605088095515624 
0.001687645458953949 
0 
-0.003885417568094717 
-0.004605088095515624 
0.004141468340606034 
-0.0038444194523383 
0.004265484856939338 
0.004051341928251593 
0.006034776442834336 
0.01204730348924741 
0.005394709023282127 
0 
0.006034776442834336 
-0.01204730348924741 
0.004265484856939338 
-0.004051341928251593 
-0.005574266903962299 
-0.001507638928523271 
0.007288376109021197 
-0.004937807072637899 
-0.01212468146120478 
0 
0.007288376109021197 
0.004937807072637899 
-0.005574266903962299 
0.001507638928523271 
-0.001717553849064567 
0.001783623732479282 
0.0005404378195728388 
0.008919759371758157 
-0.02215900976930782 
0 
0.0005404378195728388 
-0.008919759371758157 
-0.001717553849064567 
-0.001783623732479282 
-0.0004073208091161003 
-0.001339778208545701 
0.004617979798576283 
0.00166930666108635 
0.001406793108071145 
0 
0.004617979798576283 
-0.00166930666108635 
-0.0004073208091161003 
0.001339778208545701 
0.001127122219858635 
-0.0005412882649567797 
0.002499446096047865 
0.001798178985079022 
-0.004611046765286374 
0 
0.002499446096047865 
-0.001798178985079022 
0.001127122219858635 
0.0005412882649567797 
-0.002590681837501334 
-0.002214706230760701 
0.0008251590137152714 
0.008046455794819477 
-0.01910799015140937 
0 
0.0008251590137152714 
-0.008046455794819477 
-0.002590681837501334 
0.002214706230760701 
-0.002115717357251063 
-0.00112509365228163 
0.001787457717512956 
0.002422671575257729 
-0.005963041273659572 
0 
0.001787457717512956 
-0.002422671575257729 
-0.002115717357251063 
0.00112509365228163 
0.001943949645978847 
-0.001879048390202449 
0.002756273102592197 
-0.002181294422427212 
0.006740730093816888 
0 
0.002756273102592197 
0.002181294422427212 
0.001943949645978847 
0.001879048390202449 
-0.001169284961782952 
0.004317986587262223 
-0.009582641487882347 
0.00107738772260903 
-0.009741869193442901 
0 
-0.009582641487882347 
-0.00107738772260903 
-0.001169284961782952 
-0.004317986587262223 
0.005818549225273638 
-0.002997800579789857 
-0.001449126448227051 
0.01200774084841539 
-0.0024749392367668 
0 
-0.001449126448227051 
-0.01200774084841539 
0.005818549225273638 
0.002997800579789857 
0.005404251233907865 
0.005497497968384827 
-0.01557615005763374 
0.01055042919095971 
0.001854633831619732 
0 
-0.01557615005763374 
-0.01055042919095971 
0.005404251233907865 
-0.005497497968384827 
-0.003560839496562815 
-0.0004301646478978539 
0.01018942499794326 
-0.006948567554060128 
0.006670512780854594 
0 
0.01018942499794326 
0.006948567554060128 
-0.003560839496562815 
0.0004301646478978539 
-0.0001530171026808882 
0.003820868847283952 
-0.01391216075524802 
-0.006095155652983216 
0.002691656806818244 
0 
-0.01391216075524802 
0.006095155652983216 
-0.0001530171026808882 
-0.003820868847283952 
0.003141178253362993 
0.00410490040086457 
-0.01552794318686758 
0.0003289784533499779 
0.004739756502386131 
0 
-0.01552794318686758 
-0.0003289784533499779 
0.003141178253362993 
-0.00410490040086457 
-0.001926930121342096 
-0.003919950226140775 
0.008955123723951275 
-0.001084038652382337 
0.02879840536955859 
0 
0.008955123723951275 
0.001084038652382337 
-0.001926930121342096 
0.003919950226140775 
0.005503695940499848 
-0.003175885439883934 
0.01584891705459332 
0.001513617400412602 
0.01935936453241074 
0 
0.01584891705459332 
-0.001513617400412602 
0.005503695940499848 
0.003175885439883934 
0.001125816499125054 
0.002783992829105091 
-0.003246668921741973 
0.002160146010064749 
-0.00823860422117436 
0 
-0.003246668921741973 
-0.002160146010064749 
0.001125816499125054 
-0.002783992829105091 
-7.163540183049821e-05 
0.006722914286546981 
-0.003975868740231302 
-0.008988151043988223 
0.004269662942601483 
0 
-0.003975868740231302 
0.008988151043988223 
-7.163540183049821e-05 
-0.006722914286546981 
0.003255123603103533 
0.0001922004794217598 
-0.006629374697013738 
0.005416275786659326 
0.008726160044294077 
0 
-0.006629374697013738 
-0.005416275786659326 
0.003255123603103533 
-0.0001922004794217598 
0.00207286600400248 
-0.001660776866132707 
-0.00154482479724595 
-0.001474548725544033 
0.01417250178342161 
0 
-0.00154482479724595 
0.001474548725544033 
0.00207286600400248 
0.001660776866132707 
-0.005282186321607697 
-0.005063902487903492 
-0.004768029973161972 
-0.01957676421169781 
0.009609798135703947 
0 
-0.004768029973161972 
0.01957676421169781 
-0.005282186321607697 
0.005063902487903492 
0.003502216110743874 
0.002948193356227984 
-0.005827789518325588 
0.004687883217687532 
0.006063833729628467 
0 
-0.005827789518325588 
-0.004687883217687532 
0.003502216110743874 
-0.002948193356227984 
-0.004308041498421053 
-0.002229346892760934 
-0.003163574236911449 
-0.0048876172997072 
0.01375528288822527 
0 
-0.003163574236911449 
0.0048876172997072 
-0.004308041498421053 
0.002229346892760934 
-0.00052679301622141 
-0.008008496181128246 
0.007960018969392369 
-0.000928011607408527 
0.004770800992306395 
0 
0.007960018969392369 
0.000928011607408527 
-0.00052679301622141 
0.008008496181128246 
-0.00646834093799065 
0.0008596003560068875 
-0.008424324520409613 
0.00350999625183789 
-0.01434274044180029 
0 
-0.008424324520409613 
-0.00350999625183789 
-0.00646834093799065 
-0.0008596003560068875 
-0.002191029671870015 
0.002725523672588243 
0.0008479289174683614 
0.001592271934297217 
0.01417835977042329 
0 
0.0008479289174683614 
-0.001592271934297217 
-0.002191029671870015 
-0.002725523672588243 
-0.000864076091274775 
0.003358708040437763 
-0.01433313184055278 
-0.004128071887729283 
0.010212355759943 
0 
-0.01433313184055278 
0.004128071887729283 
-0.000864076091274775 
-0.003358708040437763 
0.001333813178355953 
0.0002889271485703412 
-0.01526836033243381 
0.002105848280028978 
0.005875155549532372 
0 
-0.01526836033243381 
-0.002105848280028978 
0.001333813178355953 
-0.0002889271485703412 
-0.001489185084498182 
-0.004005486158234714 
0.009672039191338586 
-0.004040930467486576 
0.0002932441488721195 
0 
0.009672039191338586 
0.004040930467486576 
-0.001489185084498182 
0.004005486158234714 
-0.002905410337313407 
-0.0002540501366048105 
-0.0005630249251402593 
0.007804510478035251 
-0.0006214784759217887 
0 
-0.0005630249251402593 
-0.007804510478035251 
-0.002905410337313407 
0.0002540501366048105 
0.001196690013604168 
-0.003754884195217201 
-0.009823879472977387 
-0.006249176115301429 
0.02767765020692926 
0 
-0.009823879472977387 
0.006249176115301429 
0.001196690013604168 
0.003754884195217201 
0.007644178361589446 
0.004034737146028231 
-0.002637492976362848 
-0.004330377301178942 
0.02022253368433483 
0 
-0.002637492976362848 
0.004330377301178942 
0.007644178361589446 
-0.004034737146028231 
0.001553989652294288 
-0.0001048482732763118 
0.009961009205256893 
-0.009953588900421662 
0.01986656424917484 
0 
0.009961009205256893 
0.009953588900421662 
0.001553989652294288 
0.0001048482732763118 
0.0002709783502198123 
0.0009047894617344052 
-0.0004508636905199453 
-0.000534558528589207 
-0.003214855568592297 
0 
-0.0004508636905199453 
0.000534558528589207 
0.0002709783502198123 
-0.0009047894617344052 
-0.003133434144838563 
0.006069260538709795 
-0.00489853078236174 
0.004528847267210216 
-0.01961652425086498 
0 
-0.00489853078236174 
-0.004528847267210216 
-0.003133434144838563 
-0.006069260538709795 
-0.000285383508396921 
-0.002442607643541136 
-0.002793471215552343 
0.005082321565748772 
-0.008899086328211155 
0 
-0.002793471215552343 
-0.005082321565748772 
-0.000285383508396921 
0.002442607643541136 
5.546973520607952e-07 
-0.003918050301165025 
0.008036023105751931 
-0.006598392038312932 
0.006279915155264664 
0 
0.008036023105751931 
0.006598392038312932 
5.546973520607952e-07 
0.003918050301165025 
8.802327503830292e-05 
0.002204842114516424 
-0.0025366088725321 
-0.003471006930078497 
0.0009434245033247802 
0 
-0.0025366088725321 
0.003471006930078497 
8.802327503830292e-05 
-0.002204842114516424 
0.002970271680729146 
-0.006414329760439962 
0.003754152002526279 
0.003851335206420197 
-0.007688446066412015 
0 
0.003754152002526279 
-0.003851335206420197 
0.002970271680729146 
0.006414329760439962 
-0.000335076986675653 
0.002097441649106138 
-0.006341840993958151 
-0.003789848056207121 
0.002098424312720584 
0 
-0.006341840993958151 
0.003789848056207121 
-0.000335076986675653 
-0.002097441649106138 
-0.003284899134328742 
-0.001704179457690629 
-0.007742355561945109 
0.002267880943165288 
0.0002821760878437224 
0 
-0.007742355561945109 
-0.002267880943165288 
-0.003284899134328742 
0.001704179457690629 
-0.0003329872641179297 
-0.003510067352576446 
-0.01024851018781615 
0.007582190131059501 
0.02435462255356474 
0 
-0.01024851018781615 
-0.007582190131059501 
-0.0003329872641179297 
0.003510067352576446 
0.003625957070661318 
-0.004645481008535735 
0.01947037191187429 
-0.003533345155650617 
0.04266190040660326 
0 
0.01947037191187429 
0.003533345155650617 
0.003625957070661318 
0.004645481008535735 
0.003307172791986058 
-0.0003379997329520731 
-0.003558780275418939 
-0.003688838180436619 
0.01330668460231455 
0 
-0.003558780275418939 
0.003688838180436619 
0.003307172791986058 
0.0003379997329520731 
-0.004999690854267905 
0.001275178421440117 
-0.01698080813879231 
-0.01047775227813836 
0.001203036040796345 
0 
-0.01698080813879231 
0.01047775227813836 
-0.004999690854267905 
-0.001275178421440117 
0.001122972052751807 
0.005403409248017778 
-0.0006475564515085101 
0.007050794423495654 
-0.01105678442402315 
0 
-0.0006475564515085101 
-0.007050794423495654 
0.001122972052751807 
-0.005403409248017778 
-0.003119021372026692 
-0.002408057335047791 
-0.006211312948717432 
-0.006316556614246284 
0.01118025877038433 
0 
-0.006211312948717432 
0.006316556614246284 
-0.003119021372026692 
0.002408057335047791 
0.001574220612748742 
0.001706707412864865 
-0.00689290963128437 
-0.002042950414381366 
0.00273643455904065 
0 
-0.00689290963128437 
0.002042950414381366 
0.001574220612748742 
-0.001706707412864865 
0.003250662616062253 
-0.0006285517925423399 
-0.002345509652375656 
-0.000434577812401508 
0.01379471563599175 
0 
-0.002345509652375656 
0.000434577812401508 
0.003250662616062253 
0.0006285517925423399 
0.002061359187481338 
0.0003657566820247031 
-0.003995225069545178 
0.0009951011241551974 
0.008492934744024454 
0 
