solver_type L2R_L2LOSS_SVC_DUAL
nr_class 10
label 1 2 3 4 5 6 7 8 9 10
nr_feature 8320
bias -1
w
0.003078973244519822 -0.0009662463598235421 0.004244380834957389 -0.007101660576541332 -0.005385728725795133 0.001118039696554706 -0.001914031984484681 -9.807698979572547e-05 0.003070703188900165 0.003763977094802322 
0.002550293394920942 0.00557757610206656 0.003411105888798647 0.00159819729849484 -0.003901129154687742 0.0033818320936903 0.0005638776698983219 0.002182955627878757 -0.00228375101411069 -0.00163174890231553 
-0.005683914807895611 0.001525767999528958 -0.0032406792559656 -0.003183847449732369 0.007987131396847693 -0.008366293547226775 0.00491934578916292 -0.0005265525257350454 0.0006774380162659607 -0.005535815543919756 
0.01243768914459797 -0.002886532202001541 0.004425477466100281 -0.01674330690012009 -0.0132232474131038 0.001968309736817445 0.001265947301732899 -0.005318826448202019 -0.009249892640758107 0.01275262148019279 
-0.01725567960156207 -0.001758815227693925 0.003035769252270483 0.01053762864266919 0.01408084820477029 -0.001351985109502334 0.006948174481582019 0.005269567691663827 0.00710344915717334 -0.01017142751600573 
0 0 0 0 0 0 0 0 0 0 
-0.005683914807895611 0.001525767999528958 -0.0032406792559656 -0.003183847449732369 0.007987131396847693 -0.008366293547226775 0.00491934578916292 -0.0005265525257350454 0.0006774380162659607 -0.005535815543919756 
-0.01243768914459797 0.002886532202001541 -0.004425477466100281 0.01674330690012009 0.0132232474131038 -0.001968309736817445 -0.001265947301732899 0.005318826448202019 0.009249892640758107 -0.01275262148019279 
0.003078973244519822 -0.0009662463598235421 0.004244380834957389 -0.007101660576541332 -0.005385728725795133 0.001118039696554706 -0.001914031984484681 -9.807698979572547e-05 0.003070703188900165 0.003763977094802322 
-0.002550293394920942 -0.00557757610206656 -0.003411105888798647 -0.00159819729849484 0.003901129154687742 -0.0033818320936903 -0.0005638776698983219 -0.002182955627878757 0.00228375101411069 0.00163174890231553 
0.004860837853809442 -0.003725907123926118 -0.004571710395972427 -0.003325822780859099 0.003863177620350992 0.003445899001584374 0.002972591556426595 -0.0006399285653991298 -0.003755929851776708 -0.0004320041789640824 
0.0024595321871259 -0.002883829047244981 -0.00112374221891723 0.002951343636798001 -0.001644776306968113 -0.0005517059519091249 -0.004548747703447996 -0.0003464991507990851 0.003403579106562543 0.004055065354792208 
-0.01344682416305024 3.182693166911007e-05 -7.380491020131318e-05 -0.003845766944748833 0.0003123511255297498 0.01045122677516793 0.01059109084522724 -0.0009393298989621827 -0.006781018445120975 -0.006021403145766952 
-0.005519934408995108 0.01508811662434869 -0.001921395706974533 -0.01145426433563322 0.005068075975067373 0.007795240106071031 0.007601284462903 0.003868885423004772 -0.01322063219266894 0.005052746079568755 
0.0007902741271427659 -0.00897475193466182 0.0159661165968859 0.00743258539339276 -0.01121440242298018 -0.006127961444144295 0.004375954009172638 -0.001281198638659322 0.009268538780628924 -0.009644245643207251 
0 0 0 0 0 0 0 0 0 0 
-0.01344682416305024 3.182693166911007e-05 -7.380491020131318e-05 -0.003845766944748833 0.0003123511255297498 0.01045122677516793 0.01059109084522724 -0.0009393298989621827 -0.006781018445120975 -0.006021403145766952 
0.005519934408995108 -0.01508811662434869 0.001921395706974533 0.01145426433563322 -0.005068075975067373 -0.007795240106071031 -0.007601284462903 -0.003868885423004772 0.01322063219266894 -0.005052746079568755 
0.004860837853809442 -0.003725907123926118 -0.004571710395972427 -0.003325822780859099 0.003863177620350992 0.003445899001584374 0.002972591556426595 -0.0006399285653991298 -0.003755929851776708 -0.0004320041789640824 
-0.0024595321871259 0.002883829047244981 0.00112374221891723 -0.002951343636798001 0.001644776306968113 0.0005517059519091249 0.004548747703447996 0.0003464991507990851 -0.003403579106562543 -0.004055065354792208 
-0.0009533375135479786 -0.003375100675159056 0.002894257042554677 -0.003056146997233101 -0.002927342509486864 0.00168711388287323 0.008247785647040195 0.00184911332165186 -0.001635673842845833 0.001649381879277735 
-0.002798337411288656 0.004686375663056264 -0.0009028590889803921 0.0009559743734392612 0.006593985471491373 0.001224483304039608 0.001470134064617407 0.002022064824911227 -0.005557639605218271 -0.0005743430202685365 
0.01039082077372069 -0.006381921024291397 0.01017837484358706 -0.007042686217776381 -0.01167740334312903 -0.008580369809079343 -0.001324279323242966 0.001109004981320762 0.01342374524234936 0.001819090238095166 
-0.01104572291304569 -0.01029896352437869 -0.004951249882488996 0.002135027059500371 0.006967305836008957 0.01106878035852175 0.01739565637246541 0.001096108610178323 -0.008233294293032531 0.01052911426294436 
0.01153673781481425 0.01898785691797665 0.01706656553224276 -0.006341105426387494 -0.03540129315916526 -0.003864232016153324 -0.01315809588444627 0.004030741879580984 0.007048048043065118 -0.01362082956863141 
0 0 0 0 0 0 0 0 0 0 
0.01039082077372069 -0.006381921024291397 0.01017837484358706 -0.007042686217776381 -0.01167740334312903 -0.008580369809079343 -0.001324279323242966 0.001109004981320762 0.01342374524234936 0.001819090238095166 
0.01104572291304569 0.01029896352437869 0.004951249882488996 -0.002135027059500371 -0.006967305836008957 -0.01106878035852175 -0.01739565637246541 -0.001096108610178323 0.008233294293032531 -0.01052911426294436 
-0.0009533375135479786 -0.003375100675159056 0.002894257042554677 -0.003056146997233101 -0.002927342509486864 0.00168711388287323 0.008247785647040195 0.00184911332165186 -0.001635673842845833 0.001649381879277735 
0.002798337411288656 -0.004686375663056264 0.0009028590889803921 -0.0009559743734392612 -0.006593985471491373 -0.001224483304039608 -0.001470134064617407 -0.002022064824911227 0.005557639605218271 0.0005743430202685365 
0.00314980532885527 -0.001563646305318872 -0.004710101290806935 0.0008229882482120534 0.0002104313036253303 0.00594250153274703 -0.001670385639886774 -0.006897617599370515 0.003978017137851373 0.0007154411874881204 
-0.001963141048852423 0.002197613293685685 -0.002451933583277842 0.00219815317412034 -0.007505430403110441 -0.0009928988798923774 0.002033904173450867 0.002114853260775866 0.006187959240957488 -0.002886421188396324 
0.01025144135379877 0.00414578672407258 -0.006190989510872413 -0.01102327281725766 0.0175125439163332 -0.005587389008280636 0.01154780123692384 -0.008968296754550688 -0.01894964818740938 -0.001379313816625382 
0.002609493763056248 -0.01072015166986505 -0.003160375541049007 0.004752862990324264 0.007880024223617518 0.005312599959394784 0.005473700009517075 -0.003138050780195135 0.005079746411778007 -0.006814103772255492 
0.007511454447358898 0.02244604630282409 0.01052385922539536 -0.009908528556250899 -0.02691811392184789 0.004434337555008965 -0.007131557049520259 -0.003928497277414482 -0.01274762710259535 0.01015152910406948 
0 0 0 0 0 0 0 0 0 0 
0.01025144135379877 0.00414578672407258 -0.006190989510872413 -0.01102327281725766 0.0175125439163332 -0.005587389008280636 0.01154780123692384 -0.008968296754550688 -0.01894964818740938 -0.001379313816625382 
-0.002609493763056248 0.01072015166986505 0.003160375541049007 -0.004752862990324264 -0.007880024223617518 -0.005312599959394784 -0.005473700009517075 0.003138050780195135 -0.005079746411778007 0.006814103772255492 
0.00314980532885527 -0.001563646305318872 -0.004710101290806935 0.0008229882482120534 0.0002104313036253303 0.00594250153274703 -0.001670385639886774 -0.006897617599370515 0.003978017137851373 0.0007154411874881204 
0.001963141048852423 -0.002197613293685685 0.002451933583277842 -0.00219815317412034 0.007505430403110441 0.0009928988798923774 -0.002033904173450867 -0.002114853260775866 -0.006187959240957488 0.002886421188396324 
-0.002904025521549458 -0.004580190953371723 0.003943386923386379 -0.003583151295690392 0.0004303378238992177 0.000788659607665973 -0.0001627376364531882 0.000723218118635474 0.002742384536017309 -0.004982668690664698 
-0.002174296211226932 -0.001047227512258528 -0.0004736711741579437 0.0008215492382116545 -0.008920552030028154 0.004062789329457319 0.0009488176533962956 -0.0003378065369212039 0.005182798904155956 0.001096740486740391 
0.002992934122921737 0.001906848350973323 -0.00351225929921426 -0.002307770915516829 0.005089693758080095 -0.01155877244434186 -0.0007121216945677417 0.004839844152548367 -0.007762380198529745 0.005195975095336463 
0.008715042274945283 -0.0004609328121973041 0.006085848005185461 -0.007919600603664199 0.00322134744463284 -0.01160071613823227 0.004814896104369101 -0.004392650262561359 0.004133576153118784 -0.01316800422745427 
-0.006240741389151166 -0.001540775582195707 0.004050946127503479 0.002422508751313451 -0.007507732203189579 0.0158580876405825 -0.006500417431627496 0.01672349253782041 -0.009388697500774227 0.001419928913045388 
0 0 0 0 0 0 0 0 0 0 
0.002992934122921737 0.001906848350973323 -0.00351225929921426 -0.002307770915516829 0.005089693758080095 -0.01155877244434186 -0.0007121216945677417 0.004839844152548367 -0.007762380198529745 0.005195975095336463 
-0.008715042274945283 0.0004609328121973041 -0.006085848005185461 0.007919600603664199 -0.00322134744463284 0.01160071613823227 -0.004814896104369101 0.004392650262561359 -0.004133576153118784 0.01316800422745427 
-0.002904025521549458 -0.004580190953371723 0.003943386923386379 -0.003583151295690392 0.0004303378238992177 0.000788659607665973 -0.0001627376364531882 0.000723218118635474 0.002742384536017309 -0.004982668690664698 
0.002174296211226932 0.001047227512258528 0.0004736711741579437 -0.0008215492382116545 0.008920552030028154 -0.004062789329457319 -0.0009488176533962956 0.0003378065369212039 -0.005182798904155956 -0.001096740486740391 
0.00274537938544783 -0.0009145803533310736 0.001790528188856247 -0.003481240745857566 0.002209473616780834 -0.001920778602142636 -0.002804717837937132 -0.000110097044229886 -0.001063142556663973 0.004217936524222149 
-0.001191273183366283 0.0004640946175135074 -0.004938599910590524 -0.0001733602136472847 -0.004059359778543157 0.001439294503898689 0.003042867349676325 -0.0005557075996639421 0.005439087789656876 -0.0001213787365492683 
-0.004894822364850266 -0.002697327440463907 -0.007972938958065187 -0.001103807783408275 0.004372730805433344 0.001154871401837424 0.005146573190079108 -0.002738885373612437 0.00211406796067838 -0.001190447323840162 
0.005251212564296664 -0.0001555197397900891 0.0105403119686456 -0.006025646453164122 0.002281661760197146 -0.003770953664620694 -0.006106539878025375 0.0002367411550459763 -0.007914641225561066 0.01314106489653136 
-0.008733902096021543 0.003571306462575843 0.01700206477063872 0.01316761582944132 -0.006112353671981379 0.005219581067775119 -0.009627968261104987 0.003040121987261646 0.007340617853395757 -0.02223111540260169 
0 0 0 0 0 0 0 0 0 0 
-0.004894822364850266 -0.002697327440463907 -0.007972938958065187 -0.001103807783408275 0.004372730805433344 0.001154871401837424 0.005146573190079108 -0.002738885373612437 0.00211406796067838 -0.001190447323840162 
-0.005251212564296664 0.0001555197397900891 -0.0105403119686456 0.006025646453164122 -0.002281661760197146 0.003770953664620694 0.006106539878025375 -0.0002367411550459763 0.007914641225561066 -0.01314106489653136 
0.00274537938544783 -0.0009145803533310736 0.001790528188856247 -0.003481240745857566 0.002209473616780834 -0.001920778602142636 -0.002804717837937132 -0.000110097044229886 -0.001063142556663973 0.004217936524222149 
0.001191273183366283 -0.0004640946175135074 0.004938599910590524 0.0001733602136472847 0.004059359778543157 -0.001439294503898689 -0.003042867349676325 0.0005557075996639421 -0.005439087789656876 0.0001213787365492683 
7.597278212896971e-05 -0.00985263236112361 0.0007773372914502362 0.00122863567261142 -0.001558967628933368 -0.00094402620017854 0.005395987338264457 0.001478129212871725 0.00207971524990918 -0.001855757402083395 
-0.006843131158898539 -8.320796714545613e-05 0.003889073033748125 0.002258353919100729 -0.004494801158757579 0.0005214832901950697 -0.002289918989128641 0.001325388686553039 0.002557357563457573 -0.001735284385944414 
0.0006732939391199851 -0.005865423090614351 -0.008538945120053439 -0.01105688564070622 0.01342301434368385 0.007367722748878898 0.002411951635431872 -0.002643171510759718 -0.007717361516007555 -0.003756542179990581 
0.003708556885877866 -0.01227345582264314 -0.002408451099705514 -0.002087546017578553 0.004761605068347194 -0.001063125650633677 0.009799838593856594 -0.0001990053452169867 0.003746883042915364 -0.004391256271862845 
0.005474030655583931 -0.005456483761857804 0.006638543905682218 0.003306700516003909 -0.01194368013445863 0.00649756051277827 -0.01065306608966564 -0.003659545925771458 -0.01133992260507667 0.006315244035043317 
0 0 0 0 0 0 0 0 0 0 
0.0006732939391199851 -0.005865423090614351 -0.008538945120053439 -0.01105688564070622 0.01342301434368385 0.007367722748878898 0.002411951635431872 -0.002643171510759718 -0.007717361516007555 -0.003756542179990581 
-0.003708556885877866 0.01227345582264314 0.002408451099705514 0.002087546017578553 -0.004761605068347194 0.001063125650633677 -0.009799838593856594 0.0001990053452169867 -0.003746883042915364 0.004391256271862845 
7.597278212896971e-05 -0.00985263236112361 0.0007773372914502362 0.00122863567261142 -0.001558967628933368 -0.00094402620017854 0.005395987338264457 0.001478129212871725 0.00207971524990918 -0.001855757402083395 
0.006843131158898539 8.320796714545613e-05 -0.003889073033748125 -0.002258353919100729 0.004494801158757579 -0.0005214832901950697 0.002289918989128641 -0.001325388686553039 -0.002557357563457573 0.001735284385944414 
-0.007035463690137334 -0.006924846103227732 -0.004156647294790934 -0.0007071608429167191 0.009230542007133104 -0.00378617910627703 0.004275181246669757 0.0002949278089117582 0.002192304516471883 3.570590911860834e-05 
0.004464005353738758 -0.006252473607979545 0.00233383335218365 0.001113947023956046 0.001197220915434791 -0.0004920736129814336 -0.005571968870929751 -0.002124681325737398 0.006036483834568226 -0.003208284653092422 
-0.001405789230996677 0.009137909402507563 -0.006384784161447154 -0.002769023238234832 -0.01208502025455721 0.006623426721985926 0.004497735691915914 0.008938951009951471 -0.01899997065743606 0.004370134965925919 
-0.01734870093926395 -0.0141321926068944 -0.007802482340239129 -0.006257983450463042 0.009520127808643477 -0.006163426461103278 0.02671983787006793 0.0006402305258937637 -0.0008103909772746028 0.005345326461806875 
0.003057427913756792 0.001556882656210352 0.01280181682219201 0.007180590637084622 -0.006376851522280715 0.002072572056637132 -0.00699671587017348 -0.0001384295837150872 -0.01937850055264387 0.008159365336174725 
0 0 0 0 0 0 0 0 0 0 
-0.001405789230996677 0.009137909402507563 -0.006384784161447154 -0.002769023238234832 -0.01208502025455721 0.006623426721985926 0.004497735691915914 0.008938951009951471 -0.01899997065743606 0.004370134965925919 
0.01734870093926395 0.0141321926068944 0.007802482340239129 0.006257983450463042 -0.009520127808643477 0.006163426461103278 -0.02671983787006793 -0.0006402305258937637 0.0008103909772746028 -0.005345326461806875 
-0.007035463690137334 -0.006924846103227732 -0.004156647294790934 -0.0007071608429167191 0.009230542007133104 -0.00378617910627703 0.004275181246669757 0.0002949278089117582 0.002192304516471883 3.570590911860834e-05 
-0.004464005353738758 0.006252473607979545 -0.00233383335218365 -0.001113947023956046 -0.001197220915434791 0.0004920736129814336 0.005571968870929751 0.002124681325737398 -0.006036483834568226 0.003208284653092422 
-0.007907823694157759 0.002539340623825824 -0.00228278780037965 0.001049247041178688 -0.001288640266958179 0.0007397614011071768 3.77783215612987e-05 -0.001710529264768649 0.001388157372702138 0.003259144915235203 
7.555411912217816e-05 0.003670000401768454 0.004788467490734619 0.0008673380892886213 -0.00479120682032781 -0.001963499953386644 -0.005418765159820866 -0.001230794534667754 -0.00258503700552099 -0.0001219706725152275 
-0.001841084207827271 -0.003431159556121386 -0.005279775775906329 0.003229725451426269 0.0125555192086386 0.002117982168746555 0.008827218574822559 0.005098964682170973 -0.001961360694874383 -0.008809674387946408 
-0.014891932862895 0.01225289395129798 0.001934504358462826 0.004346642168010269 -0.01235632553243362 -0.008392948041771325 0.006393281915733043 -0.006492719722798951 0.005548464869249323 0.01144516879705762 
0.007279782688540734 -0.01295830408105013 0.01022073607764328 -0.005307483583683303 -0.008741375622606871 0.0124201667721317 0.002455252183549545 0.001368092715307393 -0.01600424920907893 -0.009440957843219999 
0 0 0 0 0 0 0 0 0 0 
-0.001841084207827271 -0.003431159556121386 -0.005279775775906329 0.003229725451426269 0.0125555192086386 0.002117982168746555 0.008827218574822559 0.005098964682170973 -0.001961360694874383 -0.008809674387946408 
0.014891932862895 -0.01225289395129798 -0.001934504358462826 -0.004346642168010269 0.01235632553243362 0.008392948041771325 -0.006393281915733043 0.006492719722798951 -0.005548464869249323 -0.01144516879705762 
-0.007907823694157759 0.002539340623825824 -0.00228278780037965 0.001049247041178688 -0.001288640266958179 0.0007397614011071768 3.77783215612987e-05 -0.001710529264768649 0.001388157372702138 0.003259144915235203 
-7.555411912217816e-05 -0.003670000401768454 -0.004788467490734619 -0.0008673380892886213 0.00479120682032781 0.001963499953386644 0.005418765159820866 0.001230794534667754 0.00258503700552099 0.0001219706725152275 
-0.002199526111970318 0.002400153522816468 0.008154151260919397 -0.002116033545249485 -0.01393959378845428 -0.001812977941611999 0.006755232030707719 0.004254356158444731 -0.005401147543214967 0.002306341550833332 
0.001843976573826068 0.008355643964223053 -0.00158212814233993 -0.001747997636097333 -0.00482536848052433 0.0004042820149791615 0.002083279892241953 0.002975993569539063 0.001427932468712913 0.0002904516352897209 
0.01128712223891319 -0.009669771962220535 0.01030447661543344 0.001763091077481648 0.005503938959451048 -0.001622371611625429 -0.01709696372314129 -0.00251814681384575 -0.003752800608425129 -0.02009737023605105 
-0.002796066100985225 0.0008532446437404292 -0.007591249654156095 0.006492066764810423 -0.0102497450490533 0.005176083994106561 0.01343987543073849 0.001250687155234393 -0.007739243711379145 -0.00335385095500808 
-0.01061377562202427 -0.008283863822709028 0.02651919175838325 -0.007863737418564522 -0.00217138375261481 -0.0001326556279633354 -0.003968210121894874 -0.002794393432367926 -0.01107872920430066 0.01027502372624634 
0 0 0 0 0 0 0 0 0 0 
0.01128712223891319 -0.009669771962220535 0.01030447661543344 0.001763091077481648 0.005503938959451048 -0.001622371611625429 -0.01709696372314129 -0.00251814681384575 -0.003752800608425129 -0.02009737023605105 
0.002796066100985225 -0.0008532446437404292 0.007591249654156095 -0.006492066764810423 0.0102497450490533 -0.005176083994106561 -0.01343987543073849 -0.001250687155234393 0.007739243711379145 0.00335385095500808 
-0.002199526111970318 0.002400153522816468 0.008154151260919397 -0.002116033545249485 -0.01393959378845428 -0.001812977941611999 0.006755232030707719 0.004254356158444731 -0.005401147543214967 0.002306341550833332 
-0.001843976573826068 -0.008355643964223053 0.00158212814233993 0.001747997636097333 0.00482536848052433 -0.0004042820149791615 -0.002083279892241953 -0.002975993569539063 -0.001427932468712913 -0.0002904516352897209 
0.005078220036419751 0.006670696698839734 -0.004849501058951686 0.002722137083227509 -0.0005894596349299097 -0.001096283422968882 0.00512277995233559 -0.004087155596950554 0.002182658794678688 -0.01029422657367765 
0.003638129466004032 0.0003294335261979585 0.004089943096474801 0.001131919777087068 -0.008148194677924795 -0.001969781231910173 0.006038040330615475 -0.0005302639789972541 0.003945016045532282 -0.001112963801573121 
-0.0116777085816759 0.02545402903950008 -0.01491992981054623 -0.009255843624136055 0.003900010640850729 0.009553634719967865 -0.02417428270159054 -0.007053708945371092 -0.0004314090944667319 -0.004086982240213467 
0.01842601323684891 0.003479855306334188 0.003679181142588669 0.0130485631011236 0.005807959640058737 -0.0009819418195838921 0.005405422554353462 -0.005323976174659336 -0.003857588786228948 -0.01727081934771391 
-0.02051517517567964 0.007948185825835459 -0.01976240049749003 -0.01425204003234039 -0.007257102368710478 -0.003623226853505394 -0.01434132016396659 -0.005045293007933355 0.002453205558214952 0.01208771228927767 
0 0 0 0 0 0 0 0 0 0 
-0.0116777085816759 0.02545402903950008 -0.01491992981054623 -0.009255843624136055 0.003900010640850729 0.009553634719967865 -0.02417428270159054 -0.007053708945371092 -0.0004314090944667319 -0.004086982240213467 
-0.01842601323684891 -0.003479855306334188 -0.003679181142588669 -0.0130485631011236 -0.005807959640058737 0.0009819418195838921 -0.005405422554353462 0.005323976174659336 0.003857588786228948 0.01727081934771391 
0.005078220036419751 0.006670696698839734 -0.004849501058951686 0.002722137083227509 -0.0005894596349299097 -0.001096283422968882 0.00512277995233559 -0.004087155596950554 0.002182658794678688 -0.01029422657367765 
-0.003638129466004032 -0.0003294335261979585 -0.004089943096474801 -0.001131919777087068 0.008148194677924795 0.001969781231910173 -0.006038040330615475 0.0005302639789972541 -0.003945016045532282 0.001112963801573121 
-0.002426931022285916 -0.000874433745177059 -0.0004186471506735625 0.004367642080977492 0.007351084810802308 -0.001860901195049282 -0.0001449472814814922 -0.002595188793425086 0.001236836869069881 -0.001407370078180541 
0.003308501728901708 0.008733269859576349 0.002309384949037519 -0.0007871674924420029 -0.002076563225460499 -0.001626794617072018 8.263912254913746e-05 0.0004594596968576168 -0.002103171989025717 -0.002483126857453453 
-0.004595351299654189 -0.01349401257859915 -0.0003168639870164452 0.0001104664967685622 0.0035717687009816 0.007069542359720096 0.01572159527996575 -0.01059059168325884 -0.001101265168276814 -0.002976087366487158 
-0.006135041305064759 0.004632215816815989 -0.005042360751363506 0.001198337167678095 -0.004091898596287184 0.01137147309646747 -0.01379487939418299 -0.005173217952346117 0.00882232377756462 0.005138338662843222 
0.007883923793781505 -0.01518814419139055 -0.0009604196912721485 0.003366925378659499 -0.004241918092457374 -0.01233076864482561 0.00642202199608781 -0.005625753361049583 -0.007837751208002067 -0.0007462621647003476 
0 0 0 0 0 0 0 0 0 0 
-0.004595351299654189 -0.01349401257859915 -0.0003168639870164452 0.0001104664967685622 0.0035717687009816 0.007069542359720096 0.01572159527996575 -0.01059059168325884 -0.001101265168276814 -0.002976087366487158 
0.006135041305064759 -0.004632215816815989 0.005042360751363506 -0.001198337167678095 0.004091898596287184 -0.01137147309646747 0.01379487939418299 0.005173217952346117 -0.00882232377756462 -0.005138338662843222 
-0.002426931022285916 -0.000874433745177059 -0.0004186471506735625 0.004367642080977492 0.007351084810802308 -0.001860901195049282 -0.0001449472814814922 -0.002595188793425086 0.001236836869069881 -0.001407370078180541 
-0.003308501728901708 -0.008733269859576349 -0.002309384949037519 0.0007871674924420029 0.002076563225460499 0.001626794617072018 -8.263912254913746e-05 -0.0004594596968576168 0.002103171989025717 0.002483126857453453 
-0.005300847346251707 -0.00134204063999025 -0.00280523210316384 -0.001734444837611473 -7.520388825222861e-05 -0.004521854640514221 0.003544087527184961 0.004018123628134766 -0.002959727689786704 0.003373909495242512 
-0.00796042194680238 0.002893855671954395 0.003847170047141306 -0.001139167192323944 0.006418661605278516 -0.00292569804585343 0.001463078254571366 -0.0004025538226188217 -0.002719794926744735 0.0007561777140993918 
0.002098124721613789 -0.00720233840333144 -0.01117399158854073 0.006028646970249548 -0.007752760004922136 0.003451343517558624 0.0003530648496045958 0.003746223318360618 0.00241042929369593 -0.001019636111520128 
-0.008391325587957044 0.0009229501080793783 -0.004850831074803466 -0.006068564847714873 0.006437105020656378 -0.007044066767335023 0.01555696552849473 -0.009145131451008056 -0.002140673808050166 0.02118384853668702 
0.005708127443951587 -0.009322450144568652 -0.00355169750108156 0.002707206279205613 -0.009896510207819237 0.003089350843917419 -0.01753995008601994 0.009876627531729807 -0.006134306136414888 -0.02525339615517523 
0 0 0 0 0 0 0 0 0 0 
0.002098124721613789 -0.00720233840333144 -0.01117399158854073 0.006028646970249548 -0.007752760004922136 0.003451343517558624 0.0003530648496045958 0.003746223318360618 0.00241042929369593 -0.001019636111520128 
0.008391325587957044 -0.0009229501080793783 0.004850831074803466 0.006068564847714873 -0.006437105020656378 0.007044066767335023 -0.01555696552849473 0.009145131451008056 0.002140673808050166 -0.02118384853668702 
-0.005300847346251707 -0.00134204063999025 -0.00280523210316384 -0.001734444837611473 -7.520388825222861e-05 -0.004521854640514221 0.003544087527184961 0.004018123628134766 -0.002959727689786704 0.003373909495242512 
0.00796042194680238 -0.002893855671954395 -0.003847170047141306 0.001139167192323944 -0.006418661605278516 0.00292569804585343 -0.001463078254571366 0.0004025538226188217 0.002719794926744735 -0.0007561777140993918 
-0.002747013176226259 0.002051952800863948 -0.007134009084325867 0.001160530514982351 -0.0005648240772186266 0.0007104432948563636 0.002197925782701664 0.003049449252306905 -0.003816899595143255 -0.001458337150457235 
0.0002738589392139964 0.006629072805224443 -0.0007842861548102412 -0.002707394763699064 -0.006377401047006626 -0.0001178160189594546 -0.0001646947247126701 0.002905823154506504 -0.005603058458281668 0.003614804416254865 
-0.001227928359671106 -0.006629422105082028 0.01428515923682162 -0.0008556206413990754 0.005702477857034819 0.0007451773218292341 -0.004399799575349625 0.000463233811753611 0.01006002929635847 -0.009777004290047566 
-0.002484366718289682 0.004647506412468062 -0.03494717419759668 0.001270959668507861 0.009179739541675669 0.007643223796485347 -0.004532582485731861 0.002969120153665311 0.01074236767326754 -0.000566991981247402 
0.01000554078781576 -0.01109356997753074 0.0277934848869623 -0.001600604527249226 -0.005628478464242581 -0.003462278538869212 -0.009899524400592448 -0.009157699692288458 -0.00796013060528237 -0.0066239199526429 
0 0 0 0 0 0 0 0 0 0 
-0.001227928359671106 -0.006629422105082028 0.01428515923682162 -0.0008556206413990754 0.005702477857034819 0.0007451773218292341 -0.004399799575349625 0.000463233811753611 0.01006002929635847 -0.009777004290047566 
0.002484366718289682 -0.004647506412468062 0.03494717419759668 -0.001270959668507861 -0.009179739541675669 -0.007643223796485347 0.004532582485731861 -0.002969120153665311 -0.01074236767326754 0.000566991981247402 
-0.002747013176226259 0.002051952800863948 -0.007134009084325867 0.001160530514982351 -0.0005648240772186266 0.0007104432948563636 0.002197925782701664 0.003049449252306905 -0.003816899595143255 -0.001458337150457235 
-0.0002738589392139964 -0.006629072805224443 0.0007842861548102412 0.002707394763699064 0.006377401047006626 0.0001178160189594546 0.0001646947247126701 -0.002905823154506504 0.005603058458281668 -0.003614804416254865 
-0.0004401053585509498 -0.00118337157404137 -0.001306343873674187 0.001850002249990436 -5.857782848214379e-05 -0.003407824516092285 -0.004740653516170504 0.004503006119205243 0.0008989743777635784 -0.00191660423201983 
0.002880109263640712 -0.003285417566987006 -0.001630498376158047 0.0008558241580812982 0.006582158242744335 0.001523600171662961 0.002726225819602246 -0.004357291612702452 -0.0003449592715144892 0.0004844295023974062 
0.008009509424562846 0.003961240583626711 -0.00732219569982585 -0.002183927130424041 0.001452169597977716 -0.009980058871711748 -0.002296502717603309 0.006964082928187931 -0.006698792405968126 0.004180134551299409 
-0.01096267011313066 0.0003785208560207459 0.006116368666322785 0.0003725639217798549 -0.009096053850856548 -0.00538577055309428 0.009722903175250923 0.007454140114320824 0.01503925538504565 -0.01809904352781803 
0.005770097789269549 0.0006296020004746055 -0.01488472337232649 -0.002989120764689683 -0.004314604434219557 0.01074461552074569 -0.01174257608243592 -0.002390145043540212 -0.0167388786041601 0.008172509562731649 
0 0 0 0 0 0 0 0 0 0 
0.008009509424562846 0.003961240583626711 -0.00732219569982585 -0.002183927130424041 0.001452169597977716 -0.009980058871711748 -0.002296502717603309 0.006964082928187931 -0.006698792405968126 0.004180134551299409 
0.01096267011313066 -0.0003785208560207459 -0.006116368666322785 -0.0003725639217798549 0.009096053850856548 0.00538577055309428 -0.009722903175250923 -0.007454140114320824 -0.01503925538504565 0.01809904352781803 
-0.0004401053585509498 -0.00118337157404137 -0.001306343873674187 0.001850002249990436 -5.857782848214379e-05 -0.003407824516092285 -0.004740653516170504 0.004503006119205243 0.0008989743777635784 -0.00191660423201983 
-0.002880109263640712 0.003285417566987006 0.001630498376158047 -0.0008558241580812982 -0.006582158242744335 -0.001523600171662961 -0.002726225819602246 0.004357291612702452 0.0003449592715144892 -0.0004844295023974062 
-0.00592726320053539 -0.003466327925983019 -0.003445144626992668 -0.002877937882946024 0.00055533066302181 0.003507475670712332 -0.000850426885996904 -0.0004771515707336239 0.001783127828888089 0.008821621730190373 
-0.005000469727783762 0.008096533089662567 0.0008860502993194662 0.003251231899737617 0.003916260906747499 0.0001504113362796555 -0.003682182658277609 0.0001029678442252932 0.001894632796636036 -0.005391463816495696 
0.005573926049933706 -0.01018031178854847 -0.002576623794614315 -0.003089841510898966 -0.003545761055820658 0.002414270531030922 0.001523048972653489 0.005905587054589893 -0.01281439813676588 0.001686125464668073 
-0.02129453398750514 0.0009171945604503967 0.004827636819003471 -0.005662434999572809 0.002923648896815346 0.00248565151513823 0.0129131324128004 0.006540934654035389 6.850906443347974e-05 0.009692221429357811 
0.0179772579686082 -0.01317612264466768 -0.009462160731282383 -0.001968114497993975 -0.03138415042625714 0.00371137462708047 -8.299202537780426e-05 -0.005148151646452461 -0.01008746770368621 0.002072299863990436 
0 0 0 0 0 0 0 0 0 0 
0.005573926049933706 -0.01018031178854847 -0.002576623794614315 -0.003089841510898966 -0.003545761055820658 0.002414270531030922 0.001523048972653489 0.005905587054589893 -0.01281439813676588 0.001686125464668073 
0.02129453398750514 -0.0009171945604503967 -0.004827636819003471 0.005662434999572809 -0.002923648896815346 -0.00248565151513823 -0.0129131324128004 -0.006540934654035389 -6.850906443347974e-05 -0.009692221429357811 
-0.00592726320053539 -0.003466327925983019 -0.003445144626992668 -0.002877937882946024 0.00055533066302181 0.003507475670712332 -0.000850426885996904 -0.0004771515707336239 0.001783127828888089 0.008821621730190373 
0.005000469727783762 -0.008096533089662567 -0.0008860502993194662 -0.003251231899737617 -0.003916260906747499 -0.0001504113362796555 0.003682182658277609 -0.0001029678442252932 -0.001894632796636036 0.005391463816495696 
0.002102748426841647 -0.001059808760088783 -0.001902112172034309 -0.003690419348297089 0.009755673686227789 -0.004636542497512657 0.005270865817079717 0.001712236435006484 -0.006767768392139947 -0.0008745082652917649 
0.0003427893057220203 -0.004086221653736011 -0.005746477876239564 0.00092530986933036 0.01029432470149569 -0.001145535474251943 -0.002414485364773478 -0.0004010111575865884 0.006613802182340566 -0.000822338429140756 
0.0009105235440273029 0.005294134927216526 0.01016706990048139 -0.001098770486855561 -0.0299254271983943 0.006004741292144963 -0.007799986789304721 0.004424805687599839 -0.004818609226067914 0.0009907911609212173 
0.01065039994836727 -0.009724122010263654 0.00670678883784072 -0.005761576136795523 0.003935305382046127 -0.02829327482338007 -0.0006378583212470097 0.00138902471299409 0.0004066173744072474 0.01898120137275744 
-0.02427205912514041 0.00917916136656498 -0.002546026392825138 0.001828066405088248 -0.00707490159219184 0.03207014534734182 -0.002609101767216448 -0.00174857903482716 -0.01573669763504274 -0.01705868763366114 
0 0 0 0 0 0 0 0 0 0 
0.0009105235440273029 0.005294134927216526 0.01016706990048139 -0.001098770486855561 -0.0299254271983943 0.006004741292144963 -0.007799986789304721 0.004424805687599839 -0.004818609226067914 0.0009907911609212173 
-0.01065039994836727 0.009724122010263654 -0.00670678883784072 0.005761576136795523 -0.003935305382046127 0.02829327482338007 0.0006378583212470097 -0.00138902471299409 -0.0004066173744072474 -0.01898120137275744 
0.002102748426841647 -0.001059808760088783 -0.001902112172034309 -0.003690419348297089 0.009755673686227789 -0.004636542497512657 0.005270865817079717 0.001712236435006484 -0.006767768392139947 -0.0008745082652917649 
-0.0003427893057220203 0.004086221653736011 0.005746477876239564 -0.00092530986933036 -0.01029432470149569 0.001145535474251943 0.002414485364773478 0.0004010111575865884 -0.006613802182340566 0.000822338429140756 
-0.002196119174483754 0.002801202167429756 0.00478335093200423 0.001314347941015597 -0.01071587608848701 6.042815656439898e-06 0.0006348595573907923 0.0003765755321495029 -0.0009645230363588527 -0.003375561747719916 
-0.0008328663372335087 -0.002348349276861957 -0.004892356711776596 0.001725339962727882 0.005281481395739867 0.0007061414252902433 0.002629564987914341 -1.123144520896586e-05 0.006102020898919298 -0.002250082230044764 
0.01265316867733109 0.0005641211643123211 -0.005382121124224793 -0.00301319102040076 -0.005561158657124535 -0.003317929412721151 -0.01295910098992658 0.002205150768013878 -0.008837685758103644 -0.006865996547441847 
0.007982769239881763 0.01262765809282063 0.01526070068707213 0.01098409787911855 -0.0294190313077837 0.007969448862769797 -0.002065253412329751 0.006593832914265864 -0.002940943294423602 -0.0253238349106031 
-0.02476709974327877 -0.01085845169824262 -0.003721190295350083 -0.01193123061229377 0.01778887399456286 0.0004983389190377141 0.0008818042302504841 -0.01754199359928852 -0.01001447779473028 0.01800867934688409 
0 0 0 0 0 0 0 0 0 0 
0.01265316867733109 0.0005641211643123211 -0.005382121124224793 -0.00301319102040076 -0.005561158657124535 -0.003317929412721151 -0.01295910098992658 0.002205150768013878 -0.008837685758103644 -0.006865996547441847 
-0.007982769239881763 -0.01262765809282063 -0.01526070068707213 -0.01098409787911855 0.0294190313077837 -0.007969448862769797 0.002065253412329751 -0.006593832914265864 0.002940943294423602 0.0253238349106031 
-0.002196119174483754 0.002801202167429756 0.00478335093200423 0.001314347941015597 -0.01071587608848701 6.042815656439898e-06 0.0006348595573907923 0.0003765755321495029 -0.0009645230363588527 -0.003375561747719916 
0.0008328663372335087 0.002348349276861957 0.004892356711776596 -0.001725339962727882 -0.005281481395739867 -0.0007061414252902433 -0.002629564987914341 1.123144520896586e-05 -0.006102020898919298 0.002250082230044764 
0.002320297180125544 0.002479237625318995 0.002513932172509792 0.0003697892617184695 -0.008638444776695814 0.000594897591685292 -0.004280324386350419 0.001346010431692628 -0.0002854132832591738 -0.001219783398177566 
0.0002621669736991672 -0.005064678223262039 0.003078087101742425 0.00164081317113546 0.001813161413962912 -0.001396771640950056 0.005226491012965795 0.0005868828930027581 0.002946922755080553 -0.002318531685640449 
0.004614180467031499 -0.007014000625073375 -0.002973810369440075 0.0003826374651873921 -0.01235291438055114 -0.001077290623725472 -0.01691125097222953 0.01295420140457471 0.006821439010501778 0.002614291043135664 
0.01011993202620361 0.01312323760797362 0.008427860918214109 0.01546224634970088 -0.008749825479546447 0.002997226192868229 -0.01192644546810474 -0.005774680363665112 -0.01359877946661858 -0.0009187604286029472 
-0.01561624002111458 -0.008934692745550815 -0.01548102059473687 -0.0204088989454775 -0.001964166903040303 0.004040442080795764 0.007511533087497012 0.001808762569370154 0.004427377961971269 -0.005494569884860349 
0 0 0 0 0 0 0 0 0 0 
0.004614180467031499 -0.007014000625073375 -0.002973810369440075 0.0003826374651873921 -0.01235291438055114 -0.001077290623725472 -0.01691125097222953 0.01295420140457471 0.006821439010501778 0.002614291043135664 
-0.01011993202620361 -0.01312323760797362 -0.008427860918214109 -0.01546224634970088 0.008749825479546447 -0.002997226192868229 0.01192644546810474 0.005774680363665112 0.01359877946661858 0.0009187604286029472 
0.002320297180125544 0.002479237625318995 0.002513932172509792 0.0003697892617184695 -0.008638444776695814 0.000594897591685292 -0.004280324386350419 0.001346010431692628 -0.0002854132832591738 -0.001219783398177566 
-0.0002621669736991672 0.005064678223262039 -0.003078087101742425 -0.00164081317113546 -0.001813161413962912 0.001396771640950056 -0.005226491012965795 -0.0005868828930027581 -0.002946922755080553 0.002318531685640449 
0.002371465278059095 -0.0008206036987533247 -0.0001395961416452343 0.002462500297682606 0.001666215398409005 0.0006001182766231123 -0.005369102484189739 -0.0001717505516509048 -0.002555728613110421 0.002479011296646054 
-0.002033945312875452 0.001879686134339846 -0.0001894182070292102 -0.0005093402156265687 -0.004476583567069119 0.002356833703168797 0.01413665525364012 0.0001853641265399908 -0.00264567959333126 -0.004486609679916856 
-0.002383668621729289 -0.00794244775194668 8.008974766031457e-05 -0.002873392484223965 -0.00808627656271094 -0.000367722868074665 -0.009701842264166248 0.003068337195872082 -0.0004992003367217346 -0.004233181040828604 
-0.01218967615674661 0.008910043835260022 -0.005843525089511926 -0.004669229940262892 0.004061467892466995 0.01231712301094491 -0.01858356823457761 0.003093446073753785 -0.003921820087623878 0.02250405696589689 
0.008858489458276697 -0.004486203235828326 0.001045267204141473 0.006769978164247788 0.003572781954755998 -0.01044109271387613 -0.001496589050827095 -0.01199344799634487 -0.003820973593801182 -0.01360476311804395 
0 0 0 0 0 0 0 0 0 0 
-0.002383668621729289 -0.00794244775194668 8.008974766031457e-05 -0.002873392484223965 -0.00808627656271094 -0.000367722868074665 -0.009701842264166248 0.003068337195872082 -0.0004992003367217346 -0.004233181040828604 
0.01218967615674661 -0.008910043835260022 0.005843525089511926 0.004669229940262892 -0.004061467892466995 -0.01231712301094491 0.01858356823457761 -0.003093446073753785 0.003921820087623878 -0.02250405696589689 
0.002371465278059095 -0.0008206036987533247 -0.0001395961416452343 0.002462500297682606 0.001666215398409005 0.0006001182766231123 -0.005369102484189739 -0.0001717505516509048 -0.002555728613110421 0.002479011296646054 
0.002033945312875452 -0.001879686134339846 0.0001894182070292102 0.0005093402156265687 0.004476583567069119 -0.002356833703168797 -0.01413665525364012 -0.0001853641265399908 0.00264567959333126 0.004486609679916856 
-0.003253061734926488 0.001810001560758819 -0.002047008019492908 0.0007307260532103886 0.00476679184956642 -0.002553537622051038 0.008044527008017404 0.001376019995859843 -0.004840456981995532 0.003281477333004106 
0.007586425105409023 -0.002980302446789868 0.01187630688309835 0.0002578427894441835 0.0001898416052482066 -0.005717152820987511 -0.002022129399223806 -0.003962142366397092 -6.427111798609574e-05 -0.004679546883660772 
-0.01656306625814746 0.01451291978889465 -0.01444833331123936 -0.001661462792749884 -0.0102448233093366 0.01438680175835918 -0.01132076429572619 0.0130318148846352 0.007151340179955079 0.01666146931408473 
-0.005647429642391569 -0.003063258080436947 0.003864657438059716 0.0003821645272030747 0.002630649350912402 -0.01386850492083723 0.01391821335696966 0.01801153637494554 -0.009887710954760971 0.002090853442182583 
-0.01288078006915886 0.007177445950875762 -0.006082869978710188 -0.001701177261341665 -0.009783573347894673 0.02097800402320631 -0.01221867205506865 -0.02053204800816338 -0.002896078680496678 0.00255339059875616 
0 0 0 0 0 0 0 0 0 0 
-0.01656306625814746 0.01451291978889465 -0.01444833331123936 -0.001661462792749884 -0.0102448233093366 0.01438680175835918 -0.01132076429572619 0.0130318148846352 0.007151340179955079 0.01666146931408473 
0.005647429642391569 0.003063258080436947 -0.003864657438059716 -0.0003821645272030747 -0.002630649350912402 0.01386850492083723 -0.01391821335696966 -0.01801153637494554 0.009887710954760971 -0.002090853442182583 
-0.003253061734926488 0.001810001560758819 -0.002047008019492908 0.0007307260532103886 0.00476679184956642 -0.002553537622051038 0.008044527008017404 0.001376019995859843 -0.004840456981995532 0.003281477333004106 
-0.007586425105409023 0.002980302446789868 -0.01187630688309835 -0.0002578427894441835 -0.0001898416052482066 0.005717152820987511 0.002022129399223806 0.003962142366397092 6.427111798609574e-05 0.004679546883660772 
0.0005205483317405076 -0.003342915429156152 0.0002416833432075563 -0.0005913862184872342 0.001036303535172015 -0.0009669206364461511 0.004571883354660694 0.001734428708408814 0.004138721417229676 -0.004192758154921477 
0.005134405537673501 -0.004151166264353872 0.003807545835519876 -0.0007708684620486623 0.0003416807354024685 -0.003269789224908047 -0.0008194302122727431 0.004124235200361238 0.0006671461539590791 -0.002388575644965934 
-0.01445688286097807 -0.0008572290578882671 0.004143469036889484 0.006620643165715321 -0.009931418894778152 -0.00249363314776791 -0.01149694990032765 0.00169952466115847 -0.001701561405685873 0.004642748326970742 
0.008056628535293304 0.002461733390854727 -0.007422988214778864 0.003610371961106569 -0.003215248784824197 0.003638477998393592 0.01624854401143212 0.000882751695641174 -0.001957354056503069 -0.02214977225831871 
-0.01459617029696848 -0.007777202668527786 0.007944793665700341 -0.01351766121712544 0.008017812178448271 0.003353151771730001 -0.004435796265567149 -0.02175920240461229 -0.01033627031941252 0.01937167625632879 
0 0 0 0 0 0 0 0 0 0 
-0.01445688286097807 -0.0008572290578882671 0.004143469036889484 0.006620643165715321 -0.009931418894778152 -0.00249363314776791 -0.01149694990032765 0.00169952466115847 -0.001701561405685873 0.004642748326970742 
-0.008056628535293304 -0.002461733390854727 0.007422988214778864 -0.003610371961106569 0.003215248784824197 -0.003638477998393592 -0.01624854401143212 -0.000882751695641174 0.001957354056503069 0.02214977225831871 
0.0005205483317405076 -0.003342915429156152 0.0002416833432075563 -0.0005913862184872342 0.001036303535172015 -0.0009669206364461511 0.004571883354660694 0.001734428708408814 0.004138721417229676 -0.004192758154921477 
-0.005134405537673501 0.004151166264353872 -0.003807545835519876 0.0007708684620486623 -0.0003416807354024685 0.003269789224908047 0.0008194302122727431 -0.004124235200361238 -0.0006671461539590791 0.002388575644965934 
-0.00225118536827468 0.00322144985870786 -0.00880411617055845 -0.001538603022206268 -0.002811377634428828 0.001149079505973977 -0.001107669904452832 0.002425668890455802 0.009758862842010435 -0.006295202638561011 
0.002325662328895258 -0.002629427095310164 0.005601059124533889 -0.002727631780613797 0.002384646509381734 0.001535394028003483 -0.002492373389440953 -0.0003032396982118734 0.002808078220279731 0.00284659033196338 
0.01121900230539058 0.001034317443047963 -0.005104662195866792 0.003276315726261165 -0.0001394884864276623 -0.00606945127525738 0.0002206349583421781 0.007226247748056064 -0.01383661539020118 -0.0123148243723701 
-0.006277843551091409 0.01912645534556904 -0.01729437650220002 0.008672513862381753 -0.02521241701685032 0.002644560111363884 -0.01182632546619556 -0.001023625260635853 0.01344145086775747 -0.005784390575655213 
-0.00810886227783403 -0.02535559426851454 0.003860179464623613 -0.009968943983728249 0.02589982487401284 -0.0005106019677278978 0.01517483598571745 -0.005599324858277738 -0.01317108518794597 -0.0007700878291232172 
0 0 0 0 0 0 0 0 0 0 
0.01121900230539058 0.001034317443047963 -0.005104662195866792 0.003276315726261165 -0.0001394884864276623 -0.00606945127525738 0.0002206349583421781 0.007226247748056064 -0.01383661539020118 -0.0123148243723701 
0.006277843551091409 -0.01912645534556904 0.01729437650220002 -0.008672513862381753 0.02521241701685032 -0.002644560111363884 0.01182632546619556 0.001023625260635853 -0.01344145086775747 0.005784390575655213 
-0.00225118536827468 0.00322144985870786 -0.00880411617055845 -0.001538603022206268 -0.002811377634428828 0.001149079505973977 -0.001107669904452832 0.002425668890455802 0.009758862842010435 -0.006295202638561011 
-0.002325662328895258 0.002629427095310164 -0.005601059124533889 0.002727631780613797 -0.002384646509381734 -0.001535394028003483 0.002492373389440953 0.0003032396982118734 -0.002808078220279731 -0.00284659033196338 
-0.001296967303996077 0.004024773868000851 0.005150237408331097 -0.002806593115234133 -0.006100265158897116 0.001224949103452429 -0.006211135674175512 0.006231432750182704 0.002759615203962442 -0.001926803629758136 
-0.006674674130534537 0.004845412456762215 -0.000806784453433332 -0.003344083927404381 0.004799669579644846 0.001224220191386592 -8.404744225060592e-05 -0.003616351735500741 0.005806724055362289 -0.0009991683868950984 
0.01719129707726544 -0.019710523855069 -0.000921881111601932 0.009511531017523594 0.003391495839772244 -0.006070996715711672 0.001607157322872903 -0.002139201254144474 -0.02058831038393263 0.009884898378778964 
-0.01278455836729671 -0.00747727995551881 0.006141304087512807 -0.01540286934322951 -0.01198338042418999 0.008518887904699261 -0.01337207038587535 0.01529096772161894 -0.006688986832162213 0.03522439781273955 
0.01253766109745161 -0.003253612107479517 -0.01019005994023328 0.01514974279940946 -0.00172552768716929 -0.007173906814352575 0.009234386179221461 -0.007898654194510159 -0.004768542833388239 -0.02468965767032067 
0 0 0 0 0 0 0 0 0 0 
0.01719129707726544 -0.019710523855069 -0.000921881111601932 0.009511531017523594 0.003391495839772244 -0.006070996715711672 0.001607157322872903 -0.002139201254144474 -0.02058831038393263 0.009884898378778964 
0.01278455836729671 0.00747727995551881 -0.006141304087512807 0.01540286934322951 0.01198338042418999 -0.008518887904699261 0.01337207038587535 -0.01529096772161894 0.006688986832162213 -0.03522439781273955 
-0.001296967303996077 0.004024773868000851 0.005150237408331097 -0.002806593115234133 -0.006100265158897116 0.001224949103452429 -0.006211135674175512 0.006231432750182704 0.002759615203962442 -0.001926803629758136 
0.006674674130534537 -0.004845412456762215 0.000806784453433332 0.003344083927404381 -0.004799669579644846 -0.001224220191386592 8.404744225060592e-05 0.003616351735500741 -0.005806724055362289 0.0009991683868950984 
-0.00636977762807012 -0.005266551588094865 0.01163353710023455 0.0002537406929112508 -0.001443550544962512 -0.003495868206253011 0.003495326972464286 -0.002033758591470808 -0.00128642107725557 0.0008746841512612441 
0.00101381227917548 -0.005498928875065873 0.003365117821750621 -0.002806090790713753 0.008403245451214604 -0.0009500805634859064 0.00483231371159326 -0.00357674288835879 0.000733751642164748 -0.00328361336632095 
-0.006107273051888261 0.007018010407705388 0.01277039634750612 0.008942033949113347 -0.01884322056183186 0.002886953705062103 -0.009602497556210034 0.001018232700958929 -0.005647687232124415 -0.006333163389198863 
0.00445241058354495 -0.002892981927165759 0.01823944029783718 -0.006252513357659897 0.007128099908995368 0.002088918627826423 -0.002988939803683217 -0.006037063864964692 7.543664272929774e-05 0.0007404937100214123 
-0.01656538817253583 0.003409412693724002 0.02171358457549623 0.006559450174536365 -0.01703196133774216 -0.008697629600927743 -0.006864858900972078 0.006109076006641515 -0.01148770566448122 -0.008017172404917602 
0 0 0 0 0 0 0 0 0 0 
-0.006107273051888261 0.007018010407705388 0.01277039634750612 0.008942033949113347 -0.01884322056183186 0.002886953705062103 -0.009602497556210034 0.001018232700958929 -0.005647687232124415 -0.006333163389198863 
-0.00445241058354495 0.002892981927165759 -0.01823944029783718 0.006252513357659897 -0.007128099908995368 -0.002088918627826423 0.002988939803683217 0.006037063864964692 -7.543664272929774e-05 -0.0007404937100214123 
-0.00636977762807012 -0.005266551588094865 0.01163353710023455 0.0002537406929112508 -0.001443550544962512 -0.003495868206253011 0.003495326972464286 -0.002033758591470808 -0.00128642107725557 0.0008746841512612441 
-0.00101381227917548 0.005498928875065873 -0.003365117821750621 0.002806090790713753 -0.008403245451214604 0.0009500805634859064 -0.00483231371159326 0.00357674288835879 -0.000733751642164748 0.00328361336632095 
0.001865594162374025 0.004900096151239574 0.007492926464978942 -0.0001292219178333746 -0.00317513170357748 0.003377130293835542 0.003361352890848442 -0.0006891059242605418 -0.01379516620432686 -0.004125134001610575 
0.00359954614134343 -0.002890933258990936 0.003413729679166807 -0.002131749705658319 -0.001475965106700342 0.0004517720403234049 -0.004874717444545703 0.0006827622754428412 -7.494627113034487e-05 0.005303438568618416 
0.002835778457993575 0.00953906827664544 -0.01617693390074913 -0.000211984945731141 0.0151075401784655 -0.0005787661086171276 -0.009062226604513578 -0.004713735790125519 -0.002190579930315237 -0.005815657251844049 
0.005665194862015578 0.004171016237184114 0.003130964288143639 0.00472268719435122 -0.006364301550905276 0.001430545104518872 -0.001137667182629798 0.007803801614469148 -0.01650653277838122 -0.008176486635092479 
-0.03047255458474364 0.002003809314462123 0.006450866655012581 -0.002919422994562637 0.002151734331663191 0.003892032741578449 -0.002658257641031976 -0.004656021014632257 0.002757051007936133 -0.005109121512948014 
0 0 0 0 0 0 0 0 0 0 
0.002835778457993575 0.00953906827664544 -0.01617693390074913 -0.000211984945731141 0.0151075401784655 -0.0005787661086171276 -0.009062226604513578 -0.004713735790125519 -0.002190579930315237 -0.005815657251844049 
-0.005665194862015578 -0.004171016237184114 -0.003130964288143639 -0.00472268719435122 0.006364301550905276 -0.001430545104518872 0.001137667182629798 -0.007803801614469148 0.01650653277838122 0.008176486635092479 
0.001865594162374025 0.004900096151239574 0.007492926464978942 -0.0001292219178333746 -0.00317513170357748 0.003377130293835542 0.003361352890848442 -0.0006891059242605418 -0.01379516620432686 -0.004125134001610575 
-0.00359954614134343 0.002890933258990936 -0.003413729679166807 0.002131749705658319 0.001475965106700342 -0.0004517720403234049 0.004874717444545703 -0.0006827622754428412 7.494627113034487e-05 -0.005303438568618416 
0.003047307512550359 0.007479808450966042 -0.001327856185790737 -0.002717556454744564 -0.002560710732705705 -0.001092491608707335 0.008769758828467915 0.003770941439949622 0.001769335834371102 -0.003121021509572307 
0.009099204355314024 -0.002124898415519859 -0.001307582977493344 -0.001374821973206772 0.001560455296502759 0.0006692057352286285 0.001028404059656051 -0.004029219571355938 -0.001951775757779262 -0.000291028848505198 
-0.006693937344898837 -0.003185958073150216 -0.003271861443722054 0.001257017251630727 -0.01275349789972822 0.0006390644668301218 -0.002602141705682082 -0.001641685958195523 0.001295216141450801 0.01148411870579594 
0.002873800844931713 0.01584489283725736 0.01507011520082396 0.009141271705739263 -0.01569116589412288 -0.009838073821713592 0.008032960550464079 0.005111029430482332 -0.0106031447707083 0.01113411420874239 
-0.01911309470261084 -0.01788761567694579 -0.01278682050381189 -0.00877920713240235 0.02166664032982344 0.01579647511716611 -0.00199101570966589 -0.0001377636430933604 0.008915215565888963 -0.01533310319533584 
0 0 0 0 0 0 0 0 0 0 
-0.006693937344898837 -0.003185958073150216 -0.003271861443722054 0.001257017251630727 -0.01275349789972822 0.0006390644668301218 -0.002602141705682082 -0.001641685958195523 0.001295216141450801 0.01148411870579594 
-0.002873800844931713 -0.01584489283725736 -0.01507011520082396 -0.009141271705739263 0.01569116589412288 0.009838073821713592 -0.008032960550464079 -0.005111029430482332 0.0106031447707083 -0.01113411420874239 
0.003047307512550359 0.007479808450966042 -0.001327856185790737 -0.002717556454744564 -0.002560710732705705 -0.001092491608707335 0.008769758828467915 0.003770941439949622 0.001769335834371102 -0.003121021509572307 
-0.009099204355314024 0.002124898415519859 0.001307582977493344 0.001374821973206772 -0.001560455296502759 -0.0006692057352286285 -0.001028404059656051 0.004029219571355938 0.001951775757779262 0.000291028848505198 
-0.003855065190930452 -0.0007058570577046501 0.001541634675858815 0.002128064070305273 0.002728773837581389 8.417504457720857e-05 -0.001244184441742425 -0.002083417716555111 -0.00311126520505469 0.001970076259453877 
-0.006144488855939236 -0.002923716012256973 -0.001346094338459275 0.0003207046296371059 0.005474378564155986 0.001164729097552567 -0.001095733038234214 0.00303566274109133 0.002143697009234441 0.00163451343133364 
0.002761005314830777 -0.001835002463994795 0.0005203709873513631 0.006645182234353379 -0.004889134543195121 -0.003754933199977522 0.006432067710751412 -0.007482990986870836 0.001100978082309558 -0.001140510920679139 
0.002983326686030578 0.009555839008117096 0.011241708003414 0.002542512256287972 -0.01046260153664118 -0.001662444147663047 -0.01398269041302451 0.0005771419681934811 -0.007991640098826053 0.01671703498669953 
-0.002822320937370482 -0.0171070363307503 -0.01539064439942065 0.00145954169860658 -0.004610394980294624 0.008142055232698535 0.01007299444643069 0.003124618709277 0.005179111982701057 -0.02078457883939968 
0 0 0 0 0 0 0 0 0 0 
0.002761005314830777 -0.001835002463994795 0.0005203709873513631 0.006645182234353379 -0.004889134543195121 -0.003754933199977522 0.006432067710751412 -0.007482990986870836 0.001100978082309558 -0.001140510920679139 
-0.002983326686030578 -0.009555839008117096 -0.011241708003414 -0.002542512256287972 0.01046260153664118 0.001662444147663047 0.01398269041302451 -0.0005771419681934811 0.007991640098826053 -0.01671703498669953 
-0.003855065190930452 -0.0007058570577046501 0.001541634675858815 0.002128064070305273 0.002728773837581389 8.417504457720857e-05 -0.001244184441742425 -0.002083417716555111 -0.00311126520505469 0.001970076259453877 
0.006144488855939236 0.002923716012256973 0.001346094338459275 -0.0003207046296371059 -0.005474378564155986 -0.001164729097552567 0.001095733038234214 -0.00303566274109133 -0.002143697009234441 -0.00163451343133364 
-0.0007887029407236011 0.001470558134274346 -0.0009100748385534225 0.003417278862653362 0.0003726569259075723 -0.002291854285751516 -0.0002634625751356007 -0.001288379797236523 -0.004495991813640738 0.0001913551239130585 
-0.0003863347309877988 -0.002845575220615766 -0.001484022921994906 0.001865455458316352 -0.006454152655479393 0.0005029167528028747 -0.002655011956367124 -0.0006634851494318604 0.003388374437780431 -0.005757256864689803 
-0.01057717376536129 0.01772753794657337 -0.00904775852407514 -0.002375572265909657 -0.0002039225693637442 -0.004189069841957137 0.0005475090011580022 0.004273551127378038 -0.01098548502517467 0.02357248612407361 
-0.001827483377943046 0.002577413299320025 0.02408684477349613 0.005722358400228644 -0.009321710107017352 0.005125735286606239 0.008109980437905237 -0.01031594638380981 -0.0168362271214371 -0.001217097678687904 
0.01095268386058631 -0.0101096879776862 -0.02306152979303574 -0.004950770081278462 -0.004538078617806218 -0.004172753458221051 -0.008798624853214133 0.01129928222991376 0.0004222761591127515 -0.0007230424626671892 
0 0 0 0 0 0 0 0 0 0 
-0.01057717376536129 0.01772753794657337 -0.00904775852407514 -0.002375572265909657 -0.0002039225693637442 -0.004189069841957137 0.0005475090011580022 0.004273551127378038 -0.01098548502517467 0.02357248612407361 
0.001827483377943046 -0.002577413299320025 -0.02408684477349613 -0.005722358400228644 0.009321710107017352 -0.005125735286606239 -0.008109980437905237 0.01031594638380981 0.0168362271214371 0.001217097678687904 
-0.0007887029407236011 0.001470558134274346 -0.0009100748385534225 0.003417278862653362 0.0003726569259075723 -0.002291854285751516 -0.0002634625751356007 -0.001288379797236523 -0.004495991813640738 0.0001913551239130585 
0.0003863347309877988 0.002845575220615766 0.001484022921994906 -0.001865455458316352 0.006454152655479393 -0.0005029167528028747 0.002655011956367124 0.0006634851494318604 -0.003388374437780431 0.005757256864689803 
0.01037409148680927 0.005656152266512041 -0.004378024246296229 -0.0003473533744435514 0.002304287472155747 -0.004817669125995856 0.003347726988647256 -0.004621778373498935 0.00513443061438177 -0.005106170596009196 
-0.003672397030053946 -0.003575029416465251 -4.138581201483357e-05 0.0009104797237200133 0.005433472089331789 -0.002677375880199162 0.007875089048534362 -3.989878124646833e-05 -0.004489570298890453 0.001860838389059235 
0.01082526966597954 0.0005640621713345974 0.004818955010986761 0.0070502426673516 -0.002641298334621295 -0.001494306875641896 -0.02223003075337646 -0.005132083388693166 -0.0007899278640727589 -0.004560752637768985 
0.001187996059016876 0.00852096210220612 0.005681367372539097 -0.001627214414334213 -0.003053087757717385 -0.01623502067129359 0.01095855201232475 0.00692510709138363 0.008102448410947476 -0.00496001405888392 
0.02334072512963445 -0.02029834904656855 -0.004830574480906495 -0.02455777904111221 0.002312228913950126 0.02743524114052894 0.00122905927698988 -0.004632746643631975 -0.008694319099263511 -0.01360239147984277 
0 0 0 0 0 0 0 0 0 0 
0.01082526966597954 0.0005640621713345974 0.004818955010986761 0.0070502426673516 -0.002641298334621295 -0.001494306875641896 -0.02223003075337646 -0.005132083388693166 -0.0007899278640727589 -0.004560752637768985 
-0.001187996059016876 -0.00852096210220612 -0.005681367372539097 0.001627214414334213 0.003053087757717385 0.01623502067129359 -0.01095855201232475 -0.00692510709138363 -0.008102448410947476 0.00496001405888392 
0.01037409148680927 0.005656152266512041 -0.004378024246296229 -0.0003473533744435514 0.002304287472155747 -0.004817669125995856 0.003347726988647256 -0.004621778373498935 0.00513443061438177 -0.005106170596009196 
0.003672397030053946 0.003575029416465251 4.138581201483357e-05 -0.0009104797237200133 -0.005433472089331789 0.002677375880199162 -0.007875089048534362 3.989878124646833e-05 0.004489570298890453 -0.001860838389059235 
-0.001831737335055705 0.001935888797138972 -0.004435944829683983 -0.0004049388674984303 0.004703096945556838 -0.004768334696105879 0.002316070869795712 0.003076690727687606 0.001927250619109136 0.001301702241163043 
-7.23926160274436e-05 -0.0008527412172057694 -0.009679564282474531 -0.003012609578824785 0.008000105363588556 -0.00219597942320135 0.00320107313322621 0.001737446531935478 0.002572339887885564 -0.001342231900546469 
-0.009601587763768432 -0.006989465033197736 0.01813420424259825 0.009880055180985938 -0.001075510049154565 -0.003933800233333245 -0.0144884453226323 -0.004315234590765306 -0.006729316414307566 0.01150267721310695 
-0.01722835235654111 0.01433553770023452 -0.00759659499494027 0.006884407439438926 -0.01275397336702487 0.001844162938356141 -0.008411852781661526 0.00328432990449917 0.01427330492604011 0.005045808249463291 
0.02141601644203067 -0.01691787648542363 0.009454945845114306 -0.01196589869235782 0.01487985581645726 0.004045304325242252 0.008883136706320023 -0.001164107443244089 -0.01529434984522373 -0.02059890250890029 
0 0 0 0 0 0 0 0 0 0 
-0.009601587763768432 -0.006989465033197736 0.01813420424259825 0.009880055180985938 -0.001075510049154565 -0.003933800233333245 -0.0144884453226323 -0.004315234590765306 -0.006729316414307566 0.01150267721310695 
0.01722835235654111 -0.01433553770023452 0.00759659499494027 -0.006884407439438926 0.01275397336702487 -0.001844162938356141 0.008411852781661526 -0.00328432990449917 -0.01427330492604011 -0.005045808249463291 
-0.001831737335055705 0.001935888797138972 -0.004435944829683983 -0.0004049388674984303 0.004703096945556838 -0.004768334696105879 0.002316070869795712 0.003076690727687606 0.001927250619109136 0.001301702241163043 
7.23926160274436e-05 0.0008527412172057694 0.009679564282474531 0.003012609578824785 -0.008000105363588556 0.00219597942320135 -0.00320107313322621 -0.001737446531935478 -0.002572339887885564 0.001342231900546469 
0.002071969526360434 -0.003477433233494729 -0.001661796833392754 -0.002989835434327017 -0.00214307208743098 0.0001270460499907382 -0.002056729626887787 -0.002763605871290572 0.003328177746264452 0.003118879823348704 
-0.01026001749588801 -0.0003142860064326061 -0.0008127961398807103 -3.94108851426801e-05 0.005372164811280737 0.001990689588511882 0.007246739295360976 -0.0002333973714600592 0.001147204961598501 0.003390758585993705 
0.01393610059104193 0.002669976876487951 0.001329644047040344 -0.002227277998819039 -0.01261442982996766 0.001937587317788811 -0.005615372089733475 0.002602733383175876 -0.01807586705962765 0.002993654490397752 
-0.004415685836871278 -0.00640009962437769 0.005083487697425301 -0.002392949798593749 0.008540862287170003 0.004668752426720301 -0.008694350667471278 -0.01452440932907679 0.004694149416151671 0.013334859351112 
0.02235838763352628 0.00683413490754459 -0.0008130397034582909 -0.002262506138355476 -0.02256322487798781 -0.002964577828610853 -0.006130975503359895 0.01286577618327518 -0.01358525036585127 -0.02129131265982359 
0 0 0 0 0 0 0 0 0 0 
0.01393610059104193 0.002669976876487951 0.001329644047040344 -0.002227277998819039 -0.01261442982996766 0.001937587317788811 -0.005615372089733475 0.002602733383175876 -0.01807586705962765 0.002993654490397752 
0.004415685836871278 0.00640009962437769 -0.005083487697425301 0.002392949798593749 -0.008540862287170003 -0.004668752426720301 0.008694350667471278 0.01452440932907679 -0.004694149416151671 -0.013334859351112 
0.002071969526360434 -0.003477433233494729 -0.001661796833392754 -0.002989835434327017 -0.00214307208743098 0.0001270460499907382 -0.002056729626887787 -0.002763605871290572 0.003328177746264452 0.003118879823348704 
0.01026001749588801 0.0003142860064326061 0.0008127961398807103 3.94108851426801e-05 -0.005372164811280737 -0.001990689588511882 -0.007246739295360976 0.0002333973714600592 -0.001147204961598501 -0.003390758585993705 
0.001932906647000849 -0.005426038057259409 0.004113745695404918 -0.001137873278807514 0.003731871550407756 -0.0008625460145739664 -5.049323343898537e-05 -0.001034933733996174 -0.002357284807207699 -0.003747616985436518 
-0.01066984295796661 0.004555527901612519 -0.002893523063186571 -0.004244763094358198 0.001798042473674598 -0.002099996735359506 0.005905967675785041 0.002744416783228314 -0.0009140618333899416 -0.001422782343189227 
0.0038860278501247 -0.0136948896774313 0.001127453346101629 0.005797719126631113 -0.005677828378704006 0.0101661670343152 -0.01503526239357269 -0.006767874549571328 0.007958693902629901 0.00824989848360401 
0.0006956511507389807 -0.003800811361789697 -0.001555582068056102 -0.003835945189086433 0.005258941825039629 0.001180325272697278 -0.004337387336799674 0.006831525247442356 -0.007772140232758 -0.006762673643745715 
0.01068757559047676 -0.006723279152571622 0.0106233877057538 0.007543113602126976 0.009789590781758801 -0.005226400047633519 -0.002152125581800443 -0.01226536257175083 -0.008756335646801802 -0.004093160318562722 
0 0 0 0 0 0 0 0 0 0 
0.0038860278501247 -0.0136948896774313 0.001127453346101629 0.005797719126631113 -0.005677828378704006 0.0101661670343152 -0.01503526239357269 -0.006767874549571328 0.007958693902629901 0.00824989848360401 
-0.0006956511507389807 0.003800811361789697 0.001555582068056102 0.003835945189086433 -0.005258941825039629 -0.001180325272697278 0.004337387336799674 -0.006831525247442356 0.007772140232758 0.006762673643745715 
0.001932906647000849 -0.005426038057259409 0.004113745695404918 -0.001137873278807514 0.003731871550407756 -0.0008625460145739664 -5.049323343898537e-05 -0.001034933733996174 -0.002357284807207699 -0.003747616985436518 
0.01066984295796661 -0.004555527901612519 0.002893523063186571 0.004244763094358198 -0.001798042473674598 0.002099996735359506 -0.005905967675785041 -0.002744416783228314 0.0009140618333899416 0.001422782343189227 
-0.0004965468066091131 0.004255955690793895 -0.002033794927750005 -0.003662846234989326 -0.001389915933652634 0.002173515005269899 0.001088368451215809 0.0009746330719504866 0.002391129766801519 0.002611408598014265 
0.002089273929810833 -0.004310498774835888 0.00386050143356295 -0.002182439283091529 -0.002231525052214569 -0.002127214722141476 0.0008081031621019958 0.003429725693523845 -0.001119343022741269 0.002585864816177833 
0.001886100521676142 -0.006264195828182654 -0.008974009883767613 0.004402769558850979 0.0006011172069259871 0.003803207031285266 0.0005070661939957241 -0.006978876646663547 0.0004760147546046829 0.00111176029081862 
-0.001985403640447066 0.006263356124745901 -0.009893372502826639 -0.008637073906624099 -0.006716668398521424 0.009790834119360919 -0.001715834514915523 -0.004244114322496804 0.007938105153203517 0.01225036873068675 
-0.00396936242123769 0.007339257237183169 0.005454313717888915 0.006190702004928516 0.01774729831003791 -0.01750866489324788 -0.0007924722913844598 -0.002677302384199568 -0.01820439035644529 -0.01710037755116564 
0 0 0 0 0 0 0 0 0 0 
0.001886100521676142 -0.006264195828182654 -0.008974009883767613 0.004402769558850979 0.0006011172069259871 0.003803207031285266 0.0005070661939957241 -0.006978876646663547 0.0004760147546046829 0.00111176029081862 
0.001985403640447066 -0.006263356124745901 0.009893372502826639 0.008637073906624099 0.006716668398521424 -0.009790834119360919 0.001715834514915523 0.004244114322496804 -0.007938105153203517 -0.01225036873068675 
-0.0004965468066091131 0.004255955690793895 -0.002033794927750005 -0.003662846234989326 -0.001389915933652634 0.002173515005269899 0.001088368451215809 0.0009746330719504866 0.002391129766801519 0.002611408598014265 
-0.002089273929810833 0.004310498774835888 -0.00386050143356295 0.002182439283091529 0.002231525052214569 0.002127214722141476 -0.0008081031621019958 -0.003429725693523845 0.001119343022741269 -0.002585864816177833 
-0.002758095280446912 0.005553774455774332 -0.005324505005308361 0.0005224556815424973 -0.007825122280501111 0.0006613778923404138 -0.001546772199734907 -0.001241314456295 -0.00298035386138093 0.005060454566919895 
-0.0008621163258040867 0.005378483863776682 -0.002292462055469447 0.003362025665663455 -0.002342542240514711 0.001880373683942339 -0.001126812881214191 -0.002041582030195475 6.32553676903337e-05 -0.004088744906588579 
0.004391282139320542 -0.01146776369029353 0.007532436822607357 -0.001461115143000862 0.00751780151826319 -0.001221311826721977 -0.006842775994227247 0.0007772260088389297 0.0007244746690447494 -0.001424307456801418 
-0.003870620423914017 0.01105110539659385 0.003049744172335858 -0.006295531049372016 -0.03115906019952547 -0.00830331589058801 0.01722823434132111 0.00101332582497576 0.003499254510422437 0.00649113291997792 
0.002266187029368894 -0.006121658309615847 -0.01829206421575709 0.00253544180643533 0.02695701250501226 0.007681817577409097 -0.0207318450948325 -0.001867519387626288 -0.02251403649001991 -0.008411179540965841 
0 0 0 0 0 0 0 0 0 0 
0.004391282139320542 -0.01146776369029353 0.007532436822607357 -0.001461115143000862 0.00751780151826319 -0.001221311826721977 -0.006842775994227247 0.0007772260088389297 0.0007244746690447494 -0.001424307456801418 
0.003870620423914017 -0.01105110539659385 -0.003049744172335858 0.006295531049372016 0.03115906019952547 0.00830331589058801 -0.01722823434132111 -0.00101332582497576 -0.003499254510422437 -0.00649113291997792 
-0.002758095280446912 0.005553774455774332 -0.005324505005308361 0.0005224556815424973 -0.007825122280501111 0.0006613778923404138 -0.001546772199734907 -0.001241314456295 -0.00298035386138093 0.005060454566919895 
0.0008621163258040867 -0.005378483863776682 0.002292462055469447 -0.003362025665663455 0.002342542240514711 -0.001880373683942339 0.001126812881214191 0.002041582030195475 -6.32553676903337e-05 0.004088744906588579 
-0.006463088095261603 0.0003165084233575474 -0.003803166212630021 0.002220594123306655 -0.008195839346806774 0.003989815533912052 0.002627048429864253 0.002530341256347964 -0.006406675181621165 0.01222666368049992 
-0.00196841851803163 -0.005351126698745753 0.004203169537004856 0.002011416664161709 -0.0007325753832688217 -0.000715721488644332 0.001286684657304696 2.083635682781303e-05 0.001948356032606608 -0.008522367834797118 
0.01036788160439874 0.01803840875955774 -0.01941044158817291 -0.01293000478321168 -0.00973780661008963 0.008541076869043563 -0.00414414631755152 -0.01370932056764794 0.0009556205546718238 0.01210486667482173 
0.0004635077056631373 -0.0105778730265803 0.003636072219909165 0.01472832757441149 0.00503610079047283 -0.0004642973241613233 -0.005998337484589908 0.002499126429191644 -0.009988608604541831 0.008029180778523671 
-0.004076198799650442 0.02130790381294607 -0.0164523592804644 -0.01441678622615482 -0.02252949558425767 0.005317615657254264 -0.0003654020747234749 -0.008946252884250756 -0.0182229240652918 0.01628657808454043 
0 0 0 0 0 0 0 0 0 0 
0.01036788160439874 0.01803840875955774 -0.01941044158817291 -0.01293000478321168 -0.00973780661008963 0.008541076869043563 -0.00414414631755152 -0.01370932056764794 0.0009556205546718238 0.01210486667482173 
-0.0004635077056631373 0.0105778730265803 -0.003636072219909165 -0.01472832757441149 -0.00503610079047283 0.0004642973241613233 0.005998337484589908 -0.002499126429191644 0.009988608604541831 -0.008029180778523671 
-0.006463088095261603 0.0003165084233575474 -0.003803166212630021 0.002220594123306655 -0.008195839346806774 0.003989815533912052 0.002627048429864253 0.002530341256347964 -0.006406675181621165 0.01222666368049992 
0.00196841851803163 0.005351126698745753 -0.004203169537004856 -0.002011416664161709 0.0007325753832688217 0.000715721488644332 -0.001286684657304696 -2.083635682781303e-05 -0.001948356032606608 0.008522367834797118 
0.001737360103762062 0.00140350763694686 0.003150699821216942 0.001047995236822773 -0.007390609015908551 -0.003406408925727158 -0.004684426765065453 -0.001118677699573342 0.003926353305451023 0.001380236070804504 
0.003964129742325197 0.005863515387725473 -0.007153952253227721 -0.001651488257642315 0.01037396816949097 0.000403808271624944 0.004074110248415573 -0.001632294969398037 -0.006121517019717021 -0.0008359571360041671 
-0.01128553489778607 -0.02333116930274954 0.04612456995262739 -0.002089826863440383 -0.02136213564714749 -0.003714805997856361 -0.005651052891442402 0.005402664235533677 0.01079212505659582 0.001462874237926322 
0.0004007808070490185 0.002835749935464686 -0.00397678171696333 0.005701187428097004 -0.009051515596053654 -0.003433014713316802 -0.01201067601709775 -0.004424629315003722 0.001539954079481958 0.01656260372719953 
0.0001247234011832952 -0.01004278588440678 0.02319777225214698 -0.003939842229069452 -0.01314863812170764 -0.003449763968541394 0.0002680623309405986 -0.002793285526904719 -0.003754588794515647 -0.006944028019713583 
0 0 0 0 0 0 0 0 0 0 
-0.01128553489778607 -0.02333116930274954 0.04612456995262739 -0.002089826863440383 -0.02136213564714749 -0.003714805997856361 -0.005651052891442402 0.005402664235533677 0.01079212505659582 0.001462874237926322 
-0.0004007808070490185 -0.002835749935464686 0.00397678171696333 -0.005701187428097004 0.009051515596053654 0.003433014713316802 0.01201067601709775 0.004424629315003722 -0.001539954079481958 -0.01656260372719953 
0.001737360103762062 0.00140350763694686 0.003150699821216942 0.001047995236822773 -0.007390609015908551 -0.003406408925727158 -0.004684426765065453 -0.001118677699573342 0.003926353305451023 0.001380236070804504 
-0.003964129742325197 -0.005863515387725473 0.007153952253227721 0.001651488257642315 -0.01037396816949097 -0.000403808271624944 -0.004074110248415573 0.001632294969398037 0.006121517019717021 0.0008359571360041671 
0.005546099159049961 0.001387314295276909 0.001915174308879316 -0.0008789961495596776 -0.003443051646588133 -0.003402751375659519 -0.005998484927985799 0.001539859357480625 -0.004775206440425073 0.00383781415983447 
0.005727810918956328 0.001126350400233739 0.002117207014680724 0.001211525312212116 3.614467215234551e-05 -0.00161538657343808 -0.001934042895900904 -0.002142591824175667 0.0002828482725430049 -0.0001190557681641248 
-0.01619168927327798 -0.01034820678648089 -0.009646548925207806 -0.004721807455771851 -0.006254046214061839 0.009763000881202574 0.001312171333978213 0.01219375763353724 0.00123760447927428 0.004528901624817156 
-0.01404637800756791 0.01041781918788338 0.003607126946222856 -0.004592281941398958 -0.02617368113656736 0.0002417486618339781 0.001713859171625833 -0.0001309025996580481 -0.01043337197626315 0.0254225717236695 
0.02051103693708142 -0.002417186510810323 -0.004061174609888588 -0.001385960343754636 0.03060458766306983 -0.009639410682601626 -0.003222396066539739 0.003666256046854234 -0.02006742926376589 -0.03389062090269919 
0 0 0 0 0 0 0 0 0 0 
-0.01619168927327798 -0.01034820678648089 -0.009646548925207806 -0.004721807455771851 -0.006254046214061839 0.009763000881202574 0.001312171333978213 0.01219375763353724 0.00123760447927428 0.004528901624817156 
0.01404637800756791 -0.01041781918788338 -0.003607126946222856 0.004592281941398958 0.02617368113656736 -0.0002417486618339781 -0.001713859171625833 0.0001309025996580481 0.01043337197626315 -0.0254225717236695 
0.005546099159049961 0.001387314295276909 0.001915174308879316 -0.0008789961495596776 -0.003443051646588133 -0.003402751375659519 -0.005998484927985799 0.001539859357480625 -0.004775206440425073 0.00383781415983447 
-0.005727810918956328 -0.001126350400233739 -0.002117207014680724 -0.001211525312212116 -3.614467215234551e-05 0.00161538657343808 0.001934042895900904 0.002142591824175667 -0.0002828482725430049 0.0001190557681641248 
-0.005606350095311172 -0.0004335912079143871 -0.0007229850942550317 -0.002502320526039158 -0.002775435703128518 0.005454660993283396 0.003791105365778327 0.002801056693463388 0.0008800237994365327 -0.00119355014122007 
-0.0008378405220371108 0.004965088382932568 0.0008566724725054461 -0.001675613599825017 -0.006850214102238746 -0.004959347932748929 0.002418793903774526 0.003252260340509833 0.00686937474177477 0.00553738959000418 
-0.004934731341910298 -0.009874729739477436 -0.007500239944584522 0.00145017762434305 0.02369893068071477 0.01109087445046247 -0.008622516762298178 -0.00139570750088204 0.008487278239123115 -0.02295829774348761 
-0.006931385529600893 0.002642810189935322 0.002257183544667841 -0.0005972514824554378 -0.006377573281675264 0.006197888821095306 0.01455398016733334 0.001654220565317193 -0.00677422769043588 -0.002820752553976713 
0.003758239910706505 -0.01075164655504256 -0.01396198787863215 -0.003421109990649913 0.00729219719089507 0.01341189903993563 -0.01469953495562427 -0.00988865211672545 -0.01276049334936867 -0.01091341426686355 
0 0 0 0 0 0 0 0 0 0 
-0.004934731341910298 -0.009874729739477436 -0.007500239944584522 0.00145017762434305 0.02369893068071477 0.01109087445046247 -0.008622516762298178 -0.00139570750088204 0.008487278239123115 -0.02295829774348761 
0.006931385529600893 -0.002642810189935322 -0.002257183544667841 0.0005972514824554378 0.006377573281675264 -0.006197888821095306 -0.01455398016733334 -0.001654220565317193 0.00677422769043588 0.002820752553976713 
-0.005606350095311172 -0.0004335912079143871 -0.0007229850942550317 -0.002502320526039158 -0.002775435703128518 0.005454660993283396 0.003791105365778327 0.002801056693463388 0.0008800237994365327 -0.00119355014122007 
0.0008378405220371108 -0.004965088382932568 -0.0008566724725054461 0.001675613599825017 0.006850214102238746 0.004959347932748929 -0.002418793903774526 -0.003252260340509833 -0.00686937474177477 -0.00553738959000418 
-0.002867561610441013 -0.005363540032125359 -0.001319275921155351 -0.0002240868463898826 -0.007473521016244765 -0.001840396188488903 0.00222515904609025 0.0005578329093125373 0.001063290638040385 0.0003643570481145801 
-0.001074292232825558 -0.003120830800680093 0.005086718787379943 0.002506126561732173 0.001569404413469856 0.002189827120333508 -0.005233564750211696 0.002177140085803823 0.003419713857813028 -0.009040119338539787 
-0.005495986439490455 0.002824008773079406 -0.002327353447279846 -0.007842975939311452 -0.01822409730244044 -0.009613051668250281 0.01042769270221483 0.006696691824438284 -0.001019364477320354 0.009565596059987729 
-0.007433237361141635 -0.01144348539534503 0.005252996365037499 -0.0001165957523626153 0.001382221989898469 0.003273347896545717 0.00550538695044336 0.003797647423535371 -0.007467902323095962 -0.005741938910264403 
0.01005235761968581 0.003277952737247672 -0.01613370823794474 -0.004055956478217108 -0.01677444489153663 0.0003374401139770951 0.003460197772833461 -0.0035561604170043 -0.006475528290801979 -0.001416459130361255 
0 0 0 0 0 0 0 0 0 0 
-0.005495986439490455 0.002824008773079406 -0.002327353447279846 -0.007842975939311452 -0.01822409730244044 -0.009613051668250281 0.01042769270221483 0.006696691824438284 -0.001019364477320354 0.009565596059987729 
0.007433237361141635 0.01144348539534503 -0.005252996365037499 0.0001165957523626153 -0.001382221989898469 -0.003273347896545717 -0.00550538695044336 -0.003797647423535371 0.007467902323095962 0.005741938910264403 
-0.002867561610441013 -0.005363540032125359 -0.001319275921155351 -0.0002240868463898826 -0.007473521016244765 -0.001840396188488903 0.00222515904609025 0.0005578329093125373 0.001063290638040385 0.0003643570481145801 
0.001074292232825558 0.003120830800680093 -0.005086718787379943 -0.002506126561732173 -0.001569404413469856 -0.002189827120333508 0.005233564750211696 -0.002177140085803823 -0.003419713857813028 0.009040119338539787 
-0.01146811494097282 -0.001631864906522414 -0.001483599811844265 0.001788227532798332 0.001304593074420462 -0.003909037975421238 0.01052183173744948 0.001395923916419425 -0.001839705044957075 0.00181612245757835 
-0.001622456463793778 0.003326404998240216 -0.01437760114340301 0.002089915381908497 0.002771917788215133 0.001450793610009367 -0.0007767199096572076 -0.000143248859668825 0.004138298093886808 0.002714643812925753 
0.002497881888623393 -0.01156595970092042 0.0269795496859776 -0.006074549303469768 -0.007714305222929724 0.006929260300597545 -0.001468182588056002 0.005109799009572993 -0.005427950064902533 -0.01501065728737542 
-0.01743401958634854 0.006757583989317729 0.002664900355347243 -0.0001209785163887377 0.006383094757797607 -0.01599532932257757 0.02011883962062448 0.009547360258790199 -0.003634196274373877 -0.003191615867890225 
0.01557610004921787 -0.01420485087285388 0.01386562539239279 -0.002027053345067418 -0.01604653983760668 0.01411591834717783 -0.01887133201199676 -0.01757140007664156 -0.006630473154447659 0.003878715702439565 
0 0 0 0 0 0 0 0 0 0 
0.002497881888623393 -0.01156595970092042 0.0269795496859776 -0.006074549303469768 -0.007714305222929724 0.006929260300597545 -0.001468182588056002 0.005109799009572993 -0.005427950064902533 -0.01501065728737542 
0.01743401958634854 -0.006757583989317729 -0.002664900355347243 0.0001209785163887377 -0.006383094757797607 0.01599532932257757 -0.02011883962062448 -0.009547360258790199 0.003634196274373877 0.003191615867890225 
-0.01146811494097282 -0.001631864906522414 -0.001483599811844265 0.001788227532798332 0.001304593074420462 -0.003909037975421238 0.01052183173744948 0.001395923916419425 -0.001839705044957075 0.00181612245757835 
0.001622456463793778 -0.003326404998240216 0.01437760114340301 -0.002089915381908497 -0.002771917788215133 -0.001450793610009367 0.0007767199096572076 0.000143248859668825 -0.004138298093886808 -0.002714643812925753 
-0.000101650875361001 0.0002357167384759636 -0.0003350163594746701 0.002739779810824949 -0.0115094915842799 -0.00038603320560236 0.00613176403487494 0.003196127058199172 -0.003952453951875065 0.004911433710691701 
0.00606776212102362 0.001649026765993857 -0.004407692977045921 0.001007737904524439 0.002241097806388522 -0.003941645097569675 -0.001939387368399621 0.0002424951166038154 -0.003923004956693569 0.009735666439777123 
-0.005071211852893059 -0.002608193970250038 0.005927680712136664 -0.003769191322255498 0.001297107623331647 0.008401627592441842 -0.008951801406572779 0.0002261853092074077 0.01142791526788731 -0.02054998096932771 
0.002544176350230826 -0.0006825778081000278 -0.008172757027522626 0.005805816836317922 -0.02818439422371363 0.01405752434939692 0.02686993867121306 0.002366105928304613 -0.004537498115898482 -0.002766317384575006 
0.001863323360774057 -0.005275434200170584 0.013818472160052 -0.008970412989524312 0.01953459207032567 -0.02996277745958747 -0.02110900379227169 -0.006798858805383984 -0.001820186121128492 -0.000367358617349938 
0 0 0 0 0 0 0 0 0 0 
-0.005071211852893059 -0.002608193970250038 0.005927680712136664 -0.003769191322255498 0.001297107623331647 0.008401627592441842 -0.008951801406572779 0.0002261853092074077 0.01142791526788731 -0.02054998096932771 
-0.002544176350230826 0.0006825778081000278 0.008172757027522626 -0.005805816836317922 0.02818439422371363 -0.01405752434939692 -0.02686993867121306 -0.002366105928304613 0.004537498115898482 0.002766317384575006 
-0.000101650875361001 0.0002357167384759636 -0.0003350163594746701 0.002739779810824949 -0.0115094915842799 -0.00038603320560236 0.00613176403487494 0.003196127058199172 -0.003952453951875065 0.004911433710691701 
-0.00606776212102362 -0.001649026765993857 0.004407692977045921 -0.001007737904524439 -0.002241097806388522 0.003941645097569675 0.001939387368399621 -0.0002424951166038154 0.003923004956693569 -0.009735666439777123 
0.009126230914674209 -0.002868586167987415 -0.0008093237329580136 0.002158231472391029 0.002508099602147445 -0.0007745675582508483 -0.005236529607154574 -0.002152215042397307 -0.001258639651833508 0.001659699445475759 
0.006837036580802333 -0.001435595250149902 -0.0007455943339961788 -0.001561161039236328 -0.007977874168300878 0.003683285345840029 0.006237214015478427 -0.002868223716596347 -0.0003140649912350764 0.0069331725110954 
-0.01665537070613409 -0.0009272942496703257 -0.002134318932282938 -0.00301914031150526 0.01555014274643727 0.002451855032316629 -0.01764227809196112 0.01504476262889179 -0.005373456136725152 -0.02468187854420921 
0.008375538088387121 -0.01064537360491423 0.03058437342925211 0.008075432804343217 -0.01505120022081921 -0.0006957894745580434 -0.002081405653695099 -0.006254786910543678 0.0041221486562206 -0.002649674758025527 
-0.003080698551471705 -0.002877145572636226 -0.03010307317491273 -0.01037192431139074 0.0189921359684581 -0.01966589571605934 -0.008794967282808788 0.002474893474317596 -0.01308681357122103 -0.005442052772748045 
0 0 0 0 0 0 0 0 0 0 
-0.01665537070613409 -0.0009272942496703257 -0.002134318932282938 -0.00301914031150526 0.01555014274643727 0.002451855032316629 -0.01764227809196112 0.01504476262889179 -0.005373456136725152 -0.02468187854420921 
-0.008375538088387121 0.01064537360491423 -0.03058437342925211 -0.008075432804343217 0.01505120022081921 0.0006957894745580434 0.002081405653695099 0.006254786910543678 -0.0041221486562206 0.002649674758025527 
0.009126230914674209 -0.002868586167987415 -0.0008093237329580136 0.002158231472391029 0.002508099602147445 -0.0007745675582508483 -0.005236529607154574 -0.002152215042397307 -0.001258639651833508 0.001659699445475759 
-0.006837036580802333 0.001435595250149902 0.0007455943339961788 0.001561161039236328 0.007977874168300878 -0.003683285345840029 -0.006237214015478427 0.002868223716596347 0.0003140649912350764 -0.0069331725110954 
1.955400020063691e-05 -0.006679186343000913 -0.002642294958892842 -0.006354525509905061 0.002780078577111153 -0.005081413175311392 0.008935857274585259 -0.001530082046761418 -0.003312809151799839 0.00806971937542743 
0.003415132080051747 0.004092266259109626 0.002416038262782134 -0.00309035562089701 0.001948725599631919 -0.003131839826017201 -0.007032351453278488 0.003556157305902151 0.006216341957734176 0.003134516051542093 
-0.0150281812288265 0.00465800420604416 -0.01433150878936084 0.0119867536729168 -0.01868565587152918 0.01791474727052219 0.02548168931826104 0.005861223812141002 -0.004871193495454936 -0.01697263091624626 
-0.01108291391997657 -0.01941112297801582 0.01488231847442368 -0.02077735698314004 0.006891656048838633 0.007611687470652932 -0.002354453681190204 0.01340308781214628 0.001283498336662562 -0.00866831969916408 
0.0126557600101372 0.0006062073343882777 -0.0215996520557879 0.01617783369248995 -0.004298815549229628 -0.009247436801625802 0.007856707613957441 -0.03264186521924877 -0.01572794691191215 0.01337438078214716 
0 0 0 0 0 0 0 0 0 0 
-0.0150281812288265 0.00465800420604416 -0.01433150878936084 0.0119867536729168 -0.01868565587152918 0.01791474727052219 0.02548168931826104 0.005861223812141002 -0.004871193495454936 -0.01697263091624626 
0.01108291391997657 0.01941112297801582 -0.01488231847442368 0.02077735698314004 -0.006891656048838633 -0.007611687470652932 0.002354453681190204 -0.01340308781214628 -0.001283498336662562 0.00866831969916408 
1.955400020063691e-05 -0.006679186343000913 -0.002642294958892842 -0.006354525509905061 0.002780078577111153 -0.005081413175311392 0.008935857274585259 -0.001530082046761418 -0.003312809151799839 0.00806971937542743 
-0.003415132080051747 -0.004092266259109626 -0.002416038262782134 0.00309035562089701 -0.001948725599631919 0.003131839826017201 0.007032351453278488 -0.003556157305902151 -0.006216341957734176 -0.003134516051542093 
-0.005157316629546117 -0.00177453170232684 -0.00086279184274595 0.004213004877048234 0.001652458326258537 0.001292339801610617 0.009912295120730949 -0.002709541720636071 -0.002713141362928592 -0.004526403444541818 
-0.005486912050303396 0.00327807342714534 0.004555687691759177 0.003364947088815974 -0.00319731280711837 -0.00189305593516873 -0.0009761760456389985 0.0005210204983894522 0.002635400184367806 -0.00307665678368984 
0.01136862221608067 -0.006181181987028682 -0.001353862447584195 -0.002993939342155396 -0.009933178748838058 0.01363018509419854 -0.01567717421655556 0.006419242832733133 0.01084391843925225 0.003607147708764207 
-0.01375814384064691 0.01131577986165136 -0.001989426994535332 -7.621594552696155e-05 0.01311449805261698 -0.007733430646701412 0.01954932360523694 0.003256896348275849 -0.008543658245557246 0.0007651898890145925 
0.0123816713366011 -0.02153978663109711 0.004427894224614749 -0.0003485407922960958 -0.01208890922669036 0.008921061183149439 -0.01887690824459014 -0.01767031867419425 -0.007264950189082534 -0.006133956793805683 
0 0 0 0 0 0 0 0 0 0 
0.01136862221608067 -0.006181181987028682 -0.001353862447584195 -0.002993939342155396 -0.009933178748838058 0.01363018509419854 -0.01567717421655556 0.006419242832733133 0.01084391843925225 0.003607147708764207 
0.01375814384064691 -0.01131577986165136 0.001989426994535332 7.621594552696155e-05 -0.01311449805261698 0.007733430646701412 -0.01954932360523694 -0.003256896348275849 0.008543658245557246 -0.0007651898890145925 
-0.005157316629546117 -0.00177453170232684 -0.00086279184274595 0.004213004877048234 0.001652458326258537 0.001292339801610617 0.009912295120730949 -0.002709541720636071 -0.002713141362928592 -0.004526403444541818 
0.005486912050303396 -0.00327807342714534 -0.004555687691759177 -0.003364947088815974 0.00319731280711837 0.00189305593516873 0.0009761760456389985 -0.0005210204983894522 -0.002635400184367806 0.00307665678368984 
-0.005794869369611861 -0.002976332224506156 -0.003017493552169824 0.001608378165721773 -0.006992631582180813 0.0004958804185639868 -0.0003214981098842529 0.003009998359327036 0.002433632999468951 0.001894164169150919 
0.008733064247199662 -0.001502543310260598 -0.00416963605083613 -0.0009083505596929134 0.003133150371102116 -0.001832370323397481 0.001640361661865994 -0.001909317935366598 0.006166862476325548 5.188358846853481e-05 
-0.005688639566551802 0.0047187498898829 0.01076622079669304 -0.005247933417742056 -0.009581329624024195 0.01255804954716127 0.00452270571657845 0.007984765084913895 -0.003686043553036292 -0.01335984372559606 
-0.03125673172860794 0.006938142482239937 -0.01800339916903665 0.00942571827044195 -0.01644351931539056 0.01785081083667817 0.01576584812994421 -1.373595144371122e-05 0.002003128142590977 0.003243122788633381 
0.02338246730924699 -0.01343199843027561 0.01407373816555447 -0.01549268865030281 0.002410508541286964 -0.02888160188375464 -0.02119616240507968 0.007637497261039437 -0.01548288126696229 0.005313405324785941 
0 0 0 0 0 0 0 0 0 0 
-0.005688639566551802 0.0047187498898829 0.01076622079669304 -0.005247933417742056 -0.009581329624024195 0.01255804954716127 0.00452270571657845 0.007984765084913895 -0.003686043553036292 -0.01335984372559606 
0.03125673172860794 -0.006938142482239937 0.01800339916903665 -0.00942571827044195 0.01644351931539056 -0.01785081083667817 -0.01576584812994421 1.373595144371122e-05 -0.002003128142590977 -0.003243122788633381 
-0.005794869369611861 -0.002976332224506156 -0.003017493552169824 0.001608378165721773 -0.006992631582180813 0.0004958804185639868 -0.0003214981098842529 0.003009998359327036 0.002433632999468951 0.001894164169150919 
-0.008733064247199662 0.001502543310260598 0.00416963605083613 0.0009083505596929134 -0.003133150371102116 0.001832370323397481 -0.001640361661865994 0.001909317935366598 -0.006166862476325548 -5.188358846853481e-05 
0.002515069538100356 -0.005377361114615494 0.001248370271554359 0.002025599724482318 -0.0115227267589154 0.00321719357240457 -0.005098225588482882 0.004236005956685709 0.008114315444407334 -0.001294206176610872 
0.009431613243650898 0.001001991716021864 0.004765288302771377 -0.0007301552622983997 0.001548798973993416 -0.004133247643805581 0.005174274867815271 -0.002442999564105856 -0.00121832613549434 -0.005257538803284722 
-0.02998039367434337 0.00151881696190767 -0.01024434666085796 -0.002423932443535475 0.006403685139140072 0.01826930841689637 -0.006885631610234537 0.01485986839651784 -0.00940020228185864 -0.005513029975776803 
0.002068868067882167 -0.005622648760982493 0.009086278504693164 0.00848733081613726 -0.02672769712530728 -0.002020433276723231 -0.001044473639488445 0.006328199592177283 0.01109134711172212 0.004568317635732013 
-0.007146595269985112 -0.0134140852979102 -0.01356568566810231 -0.01449367145174367 0.004754904455082816 -5.751018977091825e-05 -0.01024162565868356 0.006105123897406508 -0.01506102741608985 -0.0005603512643370923 
0 0 0 0 0 0 0 0 0 0 
-0.02998039367434337 0.00151881696190767 -0.01024434666085796 -0.002423932443535475 0.006403685139140072 0.01826930841689637 -0.006885631610234537 0.01485986839651784 -0.00940020228185864 -0.005513029975776803 
-0.002068868067882167 0.005622648760982493 -0.009086278504693164 -0.00848733081613726 0.02672769712530728 0.002020433276723231 0.001044473639488445 -0.006328199592177283 -0.01109134711172212 -0.004568317635732013 
0.002515069538100356 -0.005377361114615494 0.001248370271554359 0.002025599724482318 -0.0115227267589154 0.00321719357240457 -0.005098225588482882 0.004236005956685709 0.008114315444407334 -0.001294206176610872 
-0.009431613243650898 -0.001001991716021864 -0.004765288302771377 0.0007301552622983997 -0.001548798973993416 0.004133247643805581 -0.005174274867815271 0.002442999564105856 0.00121832613549434 0.005257538803284722 
-0.004196468620665229 -0.002954826355468846 -0.002850401930929589 -0.002713994550070674 -0.006503845669233775 -0.0005746901949178532 0.003269477614483931 0.003146615083368359 0.003497903655490223 0.006770070394412905 
-0.001611444158506271 0.0002451607987019542 0.001634341799996832 0.0009393336262670777 0.004877854646932378 -0.001896082528870492 -0.006234255681207621 0.0006206355273508475 0.007043047933839901 -0.00762853770257851 
-0.004673863371633667 0.000275618572041941 -0.001396536369585845 0.001015852676494186 0.00819179856000191 0.003245447975473979 0.01748275721422102 -0.01079355549522419 -0.01030586146053377 0.006084696181766087 
-0.01910907433476818 -0.006715158515207308 0.004183891042031765 -0.01129695437051774 0.0006917105976797643 0.003230301296479769 -0.002226809991187652 0.02312635815668178 -0.001731236594228184 0.001469386943140224 
0.02080293643019451 -0.007791312972508171 -0.0111670520153042 0.005902594655190878 -0.01552913422010931 -0.00127679141042555 0.004058227973170797 -0.03320866488041206 -0.003600851470079949 0.01659077635202389 
0 0 0 0 0 0 0 0 0 0 
-0.004673863371633667 0.000275618572041941 -0.001396536369585845 0.001015852676494186 0.00819179856000191 0.003245447975473979 0.01748275721422102 -0.01079355549522419 -0.01030586146053377 0.006084696181766087 
0.01910907433476818 0.006715158515207308 -0.004183891042031765 0.01129695437051774 -0.0006917105976797643 -0.003230301296479769 0.002226809991187652 -0.02312635815668178 0.001731236594228184 -0.001469386943140224 
-0.004196468620665229 -0.002954826355468846 -0.002850401930929589 -0.002713994550070674 -0.006503845669233775 -0.0005746901949178532 0.003269477614483931 0.003146615083368359 0.003497903655490223 0.006770070394412905 
0.001611444158506271 -0.0002451607987019542 -0.001634341799996832 -0.0009393336262670777 -0.004877854646932378 0.001896082528870492 0.006234255681207621 -0.0006206355273508475 -0.007043047933839901 0.00762853770257851 
0.003670606040172691 -0.005266559133168754 -0.0009261562071507019 -0.005222776305694272 0.002674385170661402 -0.003664157070648366 0.003151613255210623 0.001686303019804049 -0.004125126226627017 0.012175805632469 
0.007897149069598052 -0.001241468221629571 0.002510536658523473 -0.00213998912390646 0.01099902033465211 -0.01165188912642417 0.003549278733677773 -0.005012343339016873 0.008952213479101315 -0.003720283658075842 
-0.01902115972838818 0.002062721079750828 -0.006260442290263956 0.006465015667769907 -0.02406417049595175 0.02165307124871196 -0.002148801140176518 0.01284574174157231 -0.01127194297494388 0.009960390081975558 
0.008551891673931377 -0.01351562036058065 0.005324376725188393 -0.007801374536320176 0.002588574751218159 -0.01608938686197156 0.0002480250086354101 0.005387899639421682 -0.002633645190434137 0.0282431057371256 
-0.01492774333033841 -0.001399278153477576 -0.009233568937932589 0.0043404657107166 -0.008921210778941807 0.02296188430504865 -0.005366084539215877 -0.01331172500873928 -0.015946205030303 -0.008772738576058127 
0 0 0 0 0 0 0 0 0 0 
-0.01902115972838818 0.002062721079750828 -0.006260442290263956 0.006465015667769907 -0.02406417049595175 0.02165307124871196 -0.002148801140176518 0.01284574174157231 -0.01127194297494388 0.009960390081975558 
-0.008551891673931377 0.01351562036058065 -0.005324376725188393 0.007801374536320176 -0.002588574751218159 0.01608938686197156 -0.0002480250086354101 -0.005387899639421682 0.002633645190434137 -0.0282431057371256 
0.003670606040172691 -0.005266559133168754 -0.0009261562071507019 -0.005222776305694272 0.002674385170661402 -0.003664157070648366 0.003151613255210623 0.001686303019804049 -0.004125126226627017 0.012175805632469 
-0.007897149069598052 0.001241468221629571 -0.002510536658523473 0.00213998912390646 -0.01099902033465211 0.01165188912642417 -0.003549278733677773 0.005012343339016873 -0.008952213479101315 0.003720283658075842 
0.002087177360381164 -0.002220575696478244 0.001862812549158827 0.0001436934661391067 -0.002648790492358452 0.001863870073962886 0.008637896498469756 -8.270515959271062e-05 -0.008660790504556507 0.003080692911350643 
0.0002025063559053268 0.008003569339359425 -0.002591944388609131 -0.002102976395600126 0.004479685377282651 -0.0003011196190668046 0.003325712730237002 -0.004664374072429671 0.0006616540433949389 0.003083306552068335 
-0.008151768774324261 -0.01133393005282567 0.0003898315299714175 0.008143155514494571 -0.01112004835275263 -0.002056012922210744 -0.01508198453939067 0.007602195618332506 0.01063087357519111 -0.008090628139634147 
0.003398677506479215 -0.009739976954459486 -0.003668987127911016 0.01554700753769178 -0.01425021399615062 0.01727153243995613 0.01728713287967315 0.005344655355933957 -0.02060954143351624 -0.009535839792941611 
-0.000813438578745679 -0.002885768612607274 0.006602682895526342 -0.0186648524548597 0.006799770378074733 -0.02441300214331255 -0.01693740775071859 -0.004034909576665372 0.007595380446461823 -0.0004140779545991539 
0 0 0 0 0 0 0 0 0 0 
-0.008151768774324261 -0.01133393005282567 0.0003898315299714175 0.008143155514494571 -0.01112004835275263 -0.002056012922210744 -0.01508198453939067 0.007602195618332506 0.01063087357519111 -0.008090628139634147 
-0.003398677506479215 0.009739976954459486 0.003668987127911016 -0.01554700753769178 0.01425021399615062 -0.01727153243995613 -0.01728713287967315 -0.005344655355933957 0.02060954143351624 0.009535839792941611 
0.002087177360381164 -0.002220575696478244 0.001862812549158827 0.0001436934661391067 -0.002648790492358452 0.001863870073962886 0.008637896498469756 -8.270515959271062e-05 -0.008660790504556507 0.003080692911350643 
-0.0002025063559053268 -0.008003569339359425 0.002591944388609131 0.002102976395600126 -0.004479685377282651 0.0003011196190668046 -0.003325712730237002 0.004664374072429671 -0.0006616540433949389 -0.003083306552068335 
-0.0004288674171731345 0.002970474715845236 0.002341976343181424 -0.0008738176202745657 -0.003236948145564919 0.00307681513184145 0.003201749279813276 0.002517703651910496 -0.001517989607627631 -0.001116359171935647 
-0.0001791464246700981 0.00582991026166386 -0.007516151278582999 -0.003753316997484314 0.001735042039693758 0.0004732060332286718 0.004304334747408161 -0.007169530025613164 0.003764624086257536 -0.00157253029555734 
-0.002415917809749796 -0.01077281312285349 -0.001620905701194708 0.006015337902850032 0.0001135689924487348 -0.002786704219233097 -0.01496076821406902 0.01824664640734858 -0.005290034511225319 0.004752387599672703 
-0.008997853598833656 -0.003285370238826954 0.00258287272997054 0.01660229382780697 -0.004827521098042301 -0.0004054773436314003 0.0006910961322378718 -0.004823136385012562 -0.004878959049057482 0.02059938491341577 
0.006534352589205228 -0.002617457426831516 0.00485158479954319 -0.02398312383841604 0.002540484871353553 -0.011395922476645 -0.009855896315987458 0.01764387539840652 -0.005052982967687716 -0.03001735573987635 
0 0 0 0 0 0 0 0 0 0 
-0.002415917809749796 -0.01077281312285349 -0.001620905701194708 0.006015337902850032 0.0001135689924487348 -0.002786704219233097 -0.01496076821406902 0.01824664640734858 -0.005290034511225319 0.004752387599672703 
0.008997853598833656 0.003285370238826954 -0.00258287272997054 -0.01660229382780697 0.004827521098042301 0.0004054773436314003 -0.0006910961322378718 0.004823136385012562 0.004878959049057482 -0.02059938491341577 
-0.0004288674171731345 0.002970474715845236 0.002341976343181424 -0.0008738176202745657 -0.003236948145564919 0.00307681513184145 0.003201749279813276 0.002517703651910496 -0.001517989607627631 -0.001116359171935647 
0.0001791464246700981 -0.00582991026166386 0.007516151278582999 0.003753316997484314 -0.001735042039693758 -0.0004732060332286718 -0.004304334747408161 0.007169530025613164 -0.003764624086257536 0.00157253029555734 
-0.004738786000110389 0.001595658319254657 0.0002747210261704045 -0.003669724089377499 -0.003427090563497686 0.009092744204940169 -0.003825793299185223 0.002961350038378581 0.005866614212118509 -0.0007833664602488842 
